-5.0616960525512695,-5.5828728675842285,1.7459726333618164,5.171241760253906,-3.246549129486084,6.024000644683838,-4.630466461181641,-5.955218315124512,10.317846298217773,1.2172012329101562:0,0,0,0,0,0,0,0,0,0:0,0,0,0,0,0,0,0,0,0:0,0,0,0,0,0,0,0,0,0:0,0,0,0,0,0,0,0,0,0:0,0,0,0,0,0,0,0,0,0:0,0,0,0,0,0,0,0,0,0:0,0,0,0,0,0,0,0,0,0:0,0,0,0,0,0,0,0,0,0:0,0,0,0,0,0,0,0,0,0:0,0,0,0,0,0,0,0,0,0:0,0,0,0,0,0,0,0,0,0:0,0,0,0,0,0,0,0,0,0:0.021977940574288368,0.02466558665037155,-2.453803539276123,-0.02284693531692028,0.014343087561428547,-0.026614638045430183,2.46693754196167,0.026310758665204048,-0.04558507353067398,-0.005377680994570255:0.028834974393248558,0.03212858736515045,-0.18788182735443115,-0.02975977212190628,0.01868038810789585,-0.03466728329658508,0.2047789841890335,0.0342714861035347,-0.059377629309892654,-0.00700482027605176:0.020664481446146965,0.022792242467403412,2.9001641273498535,-0.021111734211444855,0.01324958074837923,-0.024593114852905273,-2.8883910179138184,0.024312373250722885,-0.04212288185954094,-0.004969248082488775:0.020664481446146965,0.022792242467403412,2.9001641273498535,-0.021111734211444855,0.01324958074837923,-0.024593114852905273,-2.8883910179138184,0.024312373250722885,-0.04212288185954094,-0.004969248082488775:0,0,0,0,0,0,0,0,0,0:0,0,0,0,0,0,0,0,0,0:0,0,0,0,0,0,0,0,0,0:0,0,0,0,0,0,0,0,0,0:0,0,0,0,0,0,0,0,0,0:0,0,0,0,0,0,0,0,0,0:0,0,0,0,0,0,0,0,0,0:0,0,0,0,0,0,0,0,0,0:0,0,0,0,0,0,0,0,0,0:0,0,0,0,0,0,0,0,0,0:0,0,0,0,0,0,0,0,0,0:0,0,0,0,0,0,0,0,0,0:0,0,0,0,0,0,0,0,0,0:0,0,0,0,0,0,0,0,0,0:0,0,0,0,0,0,0,0,0,0:0,0,0,0,0,0,0,0,0,0:0.02066446840763092,0.022792203351855278,-0.007127972785383463,-0.021111683920025826,0.013254103250801563,-0.02459307201206684,0.018903987482190132,0.02431236393749714,-0.042122840881347656,-0.004969252739101648:0.023839116096496582,0.026293570175766945,-0.008223075419664383,-0.02435501664876938,0.01529028732329607,-0.028371252119541168,0.02180817537009716,0.028047479689121246,-0.04859398305416107,-0.005732639692723751:0.0445401594042778,0.04912608861923218,-0.034703806042671204,-0.04550430551171303,0.028567815199494362,-0.053007952868938446,0.06008599326014519,0.05240302160382271,-0.0907914862036705,-0.010710755363106728:0.05866926535964012,0.06471006572246552,-0.874258816242218,-0.0599391907453537,0.037630096077919006,-0.06982318311929703,0.9076940417289734,0.06902611255645752,-0.11959268897771835,-0.014108391478657722:0.074709452688694,0.08240189403295517,-0.2572321593761444,-0.07632637023925781,0.04123776778578758,-0.08891299366950989,0.3064960241317749,0.08789829909801483,-0.152289018034935,-0.017965640872716904:0.09762062877416611,0.10767190903425217,-0.7709562182426453,-0.09973353147506714,0.06017458066344261,-0.11618003249168396,0.8290340900421143,0.11485380679368973,-0.19899135828018188,-0.02347511053085327:-0.07241588085889816,0.13770617544651031,-0.09766914695501328,-0.12758027017116547,0.059228312224149704,-0.14862579107284546,0.3870958387851715,0.14690427482128143,-0.2545526921749115,-0.030088936910033226:0.3547542989253998,0.16211725771427155,-0.36234647035598755,-0.15033601224422455,-0.07739776372909546,-0.17516189813613892,0.4108400344848633,0.1730257123708725,-0.2999536693096161,-0.035544272512197495:0.9201142191886902,0.17074096202850342,-0.34561532735824585,-0.15821890532970428,-0.2595483362674713,-0.18436667323112488,0.4125669300556183,-0.2027694582939148,-0.31564244627952576,-0.037257611751556396:0.49523016810417175,-0.14773620665073395,0.22661148011684418,-0.16115939617156982,-0.4224741458892822,-0.1877811998128891,0.39434587955474854,0.16243940591812134,-0.3215371370315552,-0.0379345528781414:-0.21094442903995514,0.19446249306201935,0.03917495533823967,-0.16528065502643585,0.8020623326301575,-0.1925400197505951,-0.28855058550834656,0.19032920897006989,-0.3297725319862366,-0.03893667459487915:0.49507978558540344,0.528514564037323,0.35039424896240234,-0.1561761200428009,-1.3066773414611816,-0.18193481862545013,0.4476175308227539,0.17857925593852997,-0.3116075098514557,-0.04377426579594612:0.6455636024475098,-0.33485016226768494,0.23719291388988495,-0.1619110405445099,-0.2823020815849304,-0.18870441615581512,0.2886348068714142,0.18309292197227478,-0.3230501413345337,-0.06366879492998123:-0.14766891300678253,0.1079283058643341,-0.4004824757575989,-0.1467818170785904,0.022890498861670494,-0.171066015958786,0.9071604013442993,0.16727261245250702,-0.29286572337150574,-0.0463857501745224:-0.2474074512720108,0.12842123210430145,-0.29129210114479065,-0.11956416070461273,0.05696719512343407,-0.13930341601371765,0.7412125468254089,0.1376907080411911,-0.23856011033058167,-0.028156934306025505:0.09691251814365387,0.10700839757919312,-0.04721233248710632,-0.0991215780377388,0.031039858236908913,-0.11547298729419708,0.13386371731758118,0.11414371430873871,-0.19778448343276978,-0.02336890809237957:0.0848931074142456,0.09364157915115356,-0.029675493016839027,-0.08673841506242752,-0.17492066323757172,-0.10105282068252563,0.30749306082725525,0.09988448023796082,-0.17306889593601227,-0.020449012517929077:0.05565926805138588,0.06139162555336952,-0.019201386719942093,-0.05686552822589874,0.006480278447270393,-0.06624902039766312,0.0801495611667633,0.06548671424388885,-0.11345966160297394,-0.013385942205786705:0.04213830083608627,0.046476099640131,-0.014543943107128143,-0.04305041953921318,-0.9056223034858704,-0.05014990642666817,0.9712174534797668,0.04957050830125809,-0.08589582145214081,-0.010133869014680386:0.022173719480633736,0.024454394355416298,-0.007666782476007938,-0.02265368402004242,-1.9425747394561768,-0.026389431208372116,1.9771134853363037,0.026073701679706573,-0.04519952833652496,-0.005333636421710253:0,0,0,0,0,0,0,0,0,0:0,0,0,0,0,0,0,0,0,0:0,0,0,0,0,0,0,0,0,0:0,0,0,0,0,0,0,0,0,0:0,0,0,0,0,0,0,0,0,0:0,0,0,0,0,0,0,0,0,0:0.020664455369114876,-2.4512064456939697,-0.007127989083528519,-0.02111169695854187,0.013254118151962757,-0.02459307387471199,2.492913007736206,0.024312343448400497,-0.042122889310121536,-0.004969247616827488:2.654846668243408,0.03012155182659626,-1.1273912191390991,-0.027900677174329758,0.017516201362013817,-1.075185775756836,-0.4419187605381012,0.03213059902191162,-0.055668316781520844,-0.00656721880659461:-0.25778940320014954,0.047579992562532425,-0.8790118098258972,-0.04407181218266487,-0.3450981080532074,-0.05220484361052513,1.5781607627868652,0.05075353384017944,-0.0879339650273323,-0.010373599827289581:-0.9008554220199585,0.06691185384988785,-0.7466675043106079,-0.062294915318489075,0.03891078382730484,-0.07219899445772171,1.743072748184204,0.07137498259544373,-0.12366168200969696,-0.014588416554033756:-0.5171989798545837,0.0985613688826561,0.15658603608608246,-0.09154605865478516,0.057314593344926834,-0.10634911060333252,0.5011574029922485,0.10513351857662201,-0.18215429782867432,-0.02148880995810032:0.6929470300674438,0.15462307631969452,0.6321001648902893,-0.14335568249225616,-0.8355191946029663,-0.16693146526813507,0.1550796627998352,-0.16927368938922882,-0.28591814637184143,-0.033730559051036835:0.004019855987280607,0.15161176025867462,-0.3069517910480499,-0.1914631426334381,-0.05872702598571777,-0.22302554547786713,0.8913275003433228,0.16029074788093567,-0.38199755549430847,-0.045064304023981094:-0.1740693747997284,0.08240538835525513,1.128479242324829,-0.2709144055843353,-0.1676897406578064,-0.3141895532608032,0.40892061591148376,0.2646062672138214,-0.8931070566177368,-0.064433254301548:-0.1678484082221985,0.41380494832992554,1.4230908155441284,0.22102829813957214,-0.7585737705230713,-0.5830956697463989,1.3819183111190796,0.2244788110256195,-2.072521209716797,-0.082260861992836:-0.4903014898300171,0.6823805570602417,0.9449713230133057,0.4640989899635315,-0.3611644506454468,-0.8320637345314026,0.855323314666748,0.31103959679603577,-1.4730597734451294,-0.10121048986911774:-0.3912772238254547,0.21389839053153992,0.6540973782539368,0.6073811650276184,-0.2830694615840912,-0.7907215356826782,0.7011991739273071,0.4372924268245697,-1.0275936126708984,-0.12120232731103897:0.18460823595523834,0.7115442156791687,-0.10494572669267654,-0.04844844713807106,0.6002400517463684,-0.7927821278572083,0.14892111718654633,0.6331154704093933,-1.191633701324463,-0.14060720801353455:-0.4066283404827118,0.1803593635559082,0.21106112003326416,0.11246573179960251,1.0806379318237305,-0.596969723701477,0.6795123815536499,0.23422162234783173,-1.3361396789550781,-0.15850502252578735:-0.6924761533737183,1.1864279508590698,0.6557453274726868,-0.5090053677558899,0.5159367918968201,0.35484248399734497,0.10308720171451569,0.01385242398828268,-1.4390151500701904,-0.18938510119915009:-0.7270846962928772,0.5593291521072388,0.23563964664936066,0.21222956478595734,0.04868052154779434,0.36556240916252136,0.6041857004165649,0.39383670687675476,-1.4661405086517334,-0.22623348236083984:-0.7722974419593811,0.571884036064148,-0.031003544107079506,0.18418839573860168,-0.24745555222034454,0.4096573293209076,0.41930511593818665,0.6900674104690552,-1.0068546533584595,-0.2174837440252304:0.0030162783805280924,-0.40749362111091614,0.32492658495903015,-0.2729969322681427,-0.1032639741897583,-0.17128393054008484,-0.11304280906915665,0.6191081404685974,0.3203108310699463,-0.1992599219083786:-0.09943898767232895,1.0049545764923096,-0.7990837693214417,-0.8210725784301758,0.2354334592819214,0.6404854655265808,0.4768561124801636,0.4822065830230713,-0.9774618148803711,-0.14285406470298767:-1.344630479812622,0.6541637778282166,0.743595540523529,-0.7750188708305359,-0.38375523686408997,0.5583762526512146,1.3246111869812012,0.1413726508617401,-0.8169954419136047,-0.1016935408115387:-1.5666368007659912,0.2871537506580353,0.8528148531913757,-0.5233690142631531,0.3786734640598297,0.5307904481887817,0.7275583744049072,-0.029141895473003387,-0.5880675315856934,-0.06975232809782028:0.009105619043111801,0.20120540261268616,-5.918941497802734,-0.32570749521255493,1.7929027080535889,1.885276198387146,2.611588716506958,0.2024448812007904,-0.4091884195804596,-0.04868394881486893:0.12002772837877274,0.12171883881092072,0.9698216915130615,-0.12271315604448318,-0.6217226982116699,-0.6276291608810425,0.29312893748283386,0.1413157433271408,-0.24505290389060974,-0.028884461149573326:0.07126598060131073,0.07864601910114288,0.13138024508953094,-0.07285694777965546,-0.9744540452957153,-0.7518462538719177,1.5966466665267944,0.08390248566865921,-0.14551755785942078,-0.017149055376648903:0.0396367684006691,0.04371878132224083,0.1604057103395462,-0.0404956191778183,-1.471211552619934,-0.04717329144477844,1.3588286638259888,0.04663486033678055,-0.08079790323972702,-0.009531775489449501:0,0,0,0,0,0,0,0,0,0:0,0,0,0,0,0,0,0,0,0:0,0,0,0,0,0,0,0,0,0:0,0,0,0,0,0,0,0,0,0:0.02717306651175022,2.7937636375427246,-0.6455827355384827,-0.7462253570556641,0.017428644001483917,-0.032339103519916534,0.1283331662416458,0.031969647854566574,-1.5679810047149658,-0.006534391548484564:-2.1478002071380615,1.584311604499817,0.597295880317688,-1.4044097661972046,0.02879919297993183,-0.37275171279907227,2.827216625213623,-0.8556435704231262,-0.24621139466762543,-0.01079744752496481:-0.38383540511131287,0.07855823636054993,0.5739918947219849,-1.710100531578064,0.04189727455377579,1.3535655736923218,0.12541671097278595,0.0828167274594307,-0.14518652856349945,-0.017127687111496925:0.6278836727142334,-1.2591279745101929,1.1046382188796997,1.5527290105819702,-0.07600829005241394,-1.2598947286605835,-0.5666541457176208,0.1318904012441635,-0.22850842773914337,-0.0269575584679842:-0.09012923389673233,0.188526913523674,0.10161224007606506,0.29270386695861816,-0.2108771651983261,-0.6401025056838989,0.5546431541442871,0.20945605635643005,-0.3630066215991974,-0.04282437637448311:-0.8102866411209106,0.30543363094329834,0.9444050192832947,0.059968508780002594,1.1577284336090088,-1.6930140256881714,1.1832854747772217,0.11545635014772415,-1.1959691047668457,-0.06697943061590195:0.8291060328483582,-0.08478453010320663,-0.3447045385837555,1.3687548637390137,-0.6652163863182068,-0.6043883562088013,0.0038128818850964308,-0.14720627665519714,-0.229562446475029,-0.1257897913455963:-0.185702383518219,0.14394621551036835,1.0548537969589233,-0.019108617678284645,-1.5896731615066528,-0.03533896058797836,0.9148074388504028,-0.3307867646217346,0.22676557302474976,-0.17975592613220215:-0.5726484060287476,-0.14488346874713898,-0.41747623682022095,-0.1415371596813202,0.7253511548042297,0.8827700018882751,-0.17959709465503693,-0.2593737840652466,0.2774185538291931,-0.1700071543455124:0.5350344181060791,-0.6406782269477844,0.7399619817733765,0.5791806578636169,-0.4108928143978119,-0.613074779510498,0.7192380428314209,-0.9135087132453918,0.22130444645881653,-0.21654808521270752:-0.579745352268219,0.2743350863456726,-0.21177665889263153,1.2100189924240112,-0.9410128593444824,0.9429505467414856,0.2098115235567093,-0.3124428987503052,0.023451676592230797,-0.6155714988708496:0.6762464642524719,0.33050310611724854,0.6905699968338013,0.08257175236940384,-1.9286950826644897,0.2698022127151489,0.7579875588417053,-0.6816480755805969,0.7831207513809204,-0.9804487228393555:0.7279108762741089,0.024559490382671356,0.5840904712677002,0.9121257662773132,-0.6494176387786865,-0.15158747136592865,0.13027997314929962,-0.3685685396194458,-0.42578384280204773,-0.7836053371429443:-0.3975270390510559,0.2632143199443817,0.02614482305943966,0.7525002956390381,-0.994706928730011,0.603338360786438,0.39838069677352905,-0.17299339175224304,0.16519634425640106,-0.6435466408729553:0.5802282094955444,-0.2244277000427246,0.30491554737091064,0.2634284794330597,-0.07888486981391907,-0.007489553187042475,0.1639675796031952,-0.37367382645606995,0.17604251205921173,-0.8041041493415833:0.1605900079011917,-0.06546247005462646,0.33704832196235657,0.09303544461727142,-0.05543377250432968,0.8151121139526367,-0.23400254547595978,-0.24916070699691772,-0.18930833041667938,-0.6124150156974792:0.09647578746080399,-0.24467234313488007,-0.5415374636650085,0.18459005653858185,-0.8320637345314026,0.10562018305063248,0.22750744223594666,-0.017170950770378113,0.7525283098220825,0.2687380611896515:-0.23084019124507904,-0.32470613718032837,0.15043053030967712,0.3003799319267273,0.09538134187459946,0.4896429777145386,0.4626803398132324,-0.11650381237268448,-0.49105924367904663,-0.3353903591632843:0.554412305355072,0.07753101736307144,0.1704518347978592,1.1460299491882324,-0.3671804368495941,0.6613489389419556,-0.07612596452236176,-1.2108731269836426,-0.4177081286907196,-0.537875771522522:-0.3141588270664215,0.38565269112586975,0.470267653465271,-0.32552406191825867,0.20577967166900635,0.3328632712364197,0.24342183768749237,-0.8376098871231079,0.15179845690727234,-0.31248217821121216:0.017857631668448448,-0.08976957201957703,0.23302166163921356,-0.6276105046272278,0.14202019572257996,-0.2794593274593353,0.36832761764526367,0.31664326786994934,0.03827930614352226,-0.11930874735116959:0.13826575875282288,-0.2833065092563629,-1.485320806503296,-0.918459951877594,0.21375536918640137,0.3227747082710266,0.873614490032196,0.26844561100006104,0.9276008009910583,-0.05736249312758446:-0.14103195071220398,0.05837828293442726,-1.1166023015975952,-0.15619578957557678,-0.606666088104248,0.3929787278175354,1.4523628950119019,0.17091286182403564,-0.01733553595840931,-0.03679269552230835:-0.18820135295391083,0.0446850024163723,-0.7294870018959045,-0.07881913334131241,-0.6368456482887268,0.22209098935127258,1.2067402601242065,0.0907687395811081,0.0876394733786583,-0.0185522623360157:-0.5947124361991882,0.029498344287276268,-0.8961349725723267,-0.027323437854647636,-1.0486899614334106,1.3760541677474976,1.19081449508667,0.031465865671634674,-0.05451663210988045,-0.006431362591683865:0,0,0,0,0,0,0,0,0,0:0,0,0,0,0,0,0,0,0,0:0.020664485171437263,0.02279222197830677,-0.007128051947802305,-0.021069683134555817,0.013253938406705856,-0.024637890979647636,0.018903961405158043,0.024312347173690796,-0.042122844606637955,-0.004969246685504913:0.039095524698495865,2.382713556289673,-2.089585542678833,0.11128850281238556,0.014064984396100044,-0.046770285815000534,-0.7089493274688721,0.04623201861977577,0.2613525986671448,-0.009449676610529423:0.275941401720047,-0.21175633370876312,0.9193134903907776,-0.7245290279388428,-0.5756721496582031,-0.6365498304367065,-0.30779051780700684,2.343939781188965,-1.0647646188735962,-0.018129125237464905:0.18044495582580566,-0.44056451320648193,0.08934935927391052,-0.3105839788913727,0.5889555215835571,-0.33716219663619995,0.21897229552268982,0.3539205491542816,-0.31412985920906067,-0.029183372855186462:-1.3476098775863647,0.5933288335800171,0.7182181477546692,0.5837047696113586,0.5763750672340393,-0.3629905879497528,1.852895736694336,-1.9609466791152954,-0.5913717746734619,-0.061615295708179474:0.048298247158527374,0.41492903232574463,0.692119836807251,1.1091901063919067,-0.04306359589099884,0.6461346745491028,-0.2484663724899292,-2.5436344146728516,0.022000877186655998,-0.097495898604393:0.7377868890762329,-0.5219743847846985,-0.7520173788070679,-0.20661266148090363,0.8963147401809692,0.23664698004722595,0.6261855959892273,-0.6300020813941956,-0.13774976134300232,-0.24857014417648315:-0.11088737845420837,0.7519013285636902,0.2601541578769684,0.28387755155563354,0.17197449505329132,-0.8669400811195374,0.4330191910266876,-0.7212561368942261,0.2024005651473999,-0.40423545241355896:0.8653375506401062,0.017983336001634598,0.8292654752731323,0.1266811043024063,-0.5695334076881409,-0.021876344457268715,-0.2762173116207123,-0.8813149333000183,0.45689088106155396,-0.5472034811973572:-0.5648077726364136,0.7613855004310608,0.03641980141401291,0.678207278251648,-0.21680355072021484,-0.28137654066085815,0.2796287536621094,-0.9005280137062073,0.43725916743278503,-0.22937268018722534:1.2262020111083984,0.1074674054980278,-0.43266162276268005,0.16263693571090698,0.12004328519105911,0.5161416530609131,0.050934646278619766,-0.9647155404090881,0.040993042290210724,-0.8270320892333984:-0.5756088495254517,0.018931204453110695,0.9376161098480225,0.3112602233886719,-0.04204142838716507,-0.2069137990474701,-0.48799991607666016,-0.2968961000442505,0.7847092747688293,-0.44304323196411133:0.5948659777641296,0.26726192235946655,-0.18606771528720856,0.6634377837181091,0.4831334352493286,-1.0622098445892334,0.09638882428407669,-0.19275791943073273,-0.7201780676841736,0.05613194406032562:-0.2395346760749817,0.010161204263567924,0.5723522901535034,0.2670864164829254,-0.9195351600646973,0.3234437108039856,0.03846625238656998,-0.4324318468570709,1.0867254734039307,-0.7067403793334961:0.37082043290138245,0.2889834940433502,-0.05671893060207367,0.3525964319705963,-0.3639960289001465,0.1722261607646942,-0.46457621455192566,-0.3665653169155121,0.162306547164917,-0.09508462995290756:-0.1808948665857315,0.543632447719574,0.13023918867111206,0.6853457093238831,-0.3466256260871887,-0.1045428216457367,-0.10288307070732117,-0.3932573199272156,0.6064069867134094,-0.8374170660972595:0.3644523620605469,-0.13010679185390472,0.059784382581710815,-0.0219301525503397,-0.28055131435394287,0.06179556995630264,-0.018129004165530205,-0.001635473221540451,0.38181599974632263,-0.4154837429523468:-0.12428686767816544,0.01287052035331726,0.5247858762741089,0.591846227645874,-0.8504278659820557,0.7798931002616882,-0.5603073835372925,-0.14578059315681458,0.222932368516922,-0.45152074098587036:0.8385779857635498,0.6371302008628845,-0.1017448902130127,-0.6288546919822693,-0.06924822926521301,0.8219095468521118,-0.06849056482315063,-0.3076191842556,-0.1753217577934265,-0.9463444948196411:-0.06682729721069336,-0.012888832949101925,-0.22876735031604767,0.37051141262054443,0.8139037489891052,-0.5223466157913208,-0.3085286319255829,-0.2919768989086151,0.4904591143131256,-0.24354368448257446:-0.0465800017118454,-0.07139405608177185,0.07322350144386292,-0.04320967197418213,0.7261239290237427,0.22544756531715393,-0.13939611613750458,0.6307111382484436,-0.49199429154396057,-0.8629490733146667:0.2484990954399109,0.20557871460914612,-1.0940029621124268,0.32214030623435974,0.34560129046440125,-0.1941114068031311,0.1388845145702362,0.35785868763923645,0.22064462304115295,-0.5511153340339661:0.8656742572784424,0.16075700521469116,-0.018231064081192017,-1.16305410861969,0.3436812162399292,-0.07018928229808807,-0.062016282230615616,0.5021592378616333,-0.41468527913093567,-0.14410531520843506:-1.0381485223770142,-0.10957314819097519,-0.6823751330375671,-0.37446728348731995,0.5590149164199829,1.1028285026550293,-0.360817015171051,0.35618868470191956,0.6346203088760376,-0.0872768983244896:0.7784080505371094,-1.3834034204483032,0.8192664980888367,-0.2014281451702118,0.1070009171962738,-0.20975351333618164,-0.2811135947704315,0.23152928054332733,0.18696509301662445,-0.0474676676094532:0.01758446916937828,0.07450833171606064,-0.09699167311191559,-0.07370594143867493,-0.25509628653526306,1.8843762874603271,-2.6340463161468506,0.08487878739833832,1.0158566236495972,-0.01735053025186062:0.029208671301603317,0.032215945422649384,-0.010075243189930916,-0.029840856790542603,0.018734270706772804,-3.5512518882751465,2.0633270740509033,0.03436492383480072,1.4203211069107056,-0.007023859303444624:0,0,0,0,0,0,0,0,0,0:0,0,0,0,0,0,0,0,0,0:0.05919419601559639,-0.14045634865760803,-0.29062914848327637,-0.6038438081741333,-0.012934420257806778,-0.07171124964952469,1.5919413566589355,0.07014258205890656,-0.5869864821434021,-0.014729970134794712:0.6248642802238464,0.1670721024274826,-0.5756018161773682,-0.2989155948162079,0.3873109519481659,0.713690459728241,-0.9157781004905701,0.3575279414653778,-0.424520879983902,-0.03564954921603203:0.2352057695388794,-0.13679729402065277,0.5377315282821655,-0.4661426544189453,0.37951594591140747,-1.3620609045028687,0.8840427994728088,0.0032150025945156813,0.01372609008103609,-0.0884261205792427:-1.0305510759353638,0.7716298699378967,-0.03640865162014961,0.19464081525802612,-0.2227334976196289,0.4675745964050293,-1.0614066123962402,1.8325121402740479,-0.6211327910423279,-0.29413488507270813:0.8128661513328552,0.8375732898712158,-0.37949129939079285,-0.08989159017801285,-0.012986445799469948,-0.7157790660858154,0.641059935092926,-0.22489464282989502,-0.2271946519613266,-0.6412631869316101:-0.25382161140441895,0.12648876011371613,0.03709673881530762,0.17750495672225952,0.10076627135276794,0.7721823453903198,-1.024977445602417,-0.22420929372310638,1.0157175064086914,-0.7267516255378723:0.4042506217956543,-0.5008928179740906,-0.2290962040424347,-0.16502802073955536,0.25041183829307556,-0.08350569754838943,0.41813692450523376,0.6526904702186584,-0.330655574798584,-0.41630908846855164:-0.02686651423573494,-0.3407983183860779,-0.7141305804252625,0.20195317268371582,0.4695110321044922,0.4012182056903839,-0.42494750022888184,0.5438489317893982,0.1397184580564499,-0.2494993805885315:0.6535976529121399,-0.576680600643158,0.5507054924964905,0.10588634759187698,-0.6169455647468567,0.40760061144828796,0.4443044066429138,-0.35917729139328003,-0.1444893777370453,-0.46479532122612:-0.09474735707044601,-0.5414627194404602,-0.0260738804936409,0.6980485916137695,0.1880958378314972,0.04557213559746742,-1.1510331630706787,-0.34736523032188416,0.49522802233695984,0.7337436079978943:-0.638589084148407,-0.6216187477111816,0.5792182683944702,0.10901955515146255,1.0296452045440674,-0.24321341514587402,-0.7115746736526489,0.5453991293907166,0.1767093539237976,-0.22498755156993866:0.34053558111190796,-0.06619834154844284,0.04882217198610306,0.29982414841651917,-0.9135193228721619,-0.018763195723295212,-0.7738916873931885,0.38541924953460693,0.09895304590463638,0.5988346338272095:0.19157545268535614,0.17538705468177795,-0.09984920173883438,-0.08888129144906998,0.5511041879653931,-0.3773455023765564,0.7294875979423523,-0.44069966673851013,0.43838608264923096,-1.079164981842041:0.13225844502449036,0.4770551025867462,-0.30256450176239014,0.5854471921920776,0.34369051456451416,-0.5986934900283813,-0.8755208849906921,-0.27417486906051636,-0.14388209581375122,0.6563880443572998:-0.19576826691627502,0.08599942922592163,0.5123903751373291,0.7040072679519653,-0.12706932425498962,0.1326359361410141,-0.3177584409713745,0.2818642854690552,0.1952764391899109,-1.2715580463409424:0.1572442203760147,-0.7058700323104858,0.37502729892730713,-0.060615286231040955,0.4300299286842346,0.23613353073596954,0.002792094834148884,-0.7378161549568176,0.47658631205558777,-0.17348845303058624:0.030911706387996674,-0.10995718091726303,0.3890179693698883,-0.2569144368171692,0.10932528227567673,0.5735731720924377,0.8626977801322937,-0.43865060806274414,-0.7087101936340332,-0.451286256313324:0.10858097672462463,-0.2601143419742584,-0.14288967847824097,0.8782389760017395,0.7376610636711121,-0.8070783615112305,0.4003085494041443,-1.1629159450531006,0.4331876337528229,-0.1849907785654068:0.22129376232624054,-0.06351321190595627,0.615472137928009,-0.7145726680755615,0.5583209991455078,0.8993063569068909,-0.2430131733417511,-1.2137763500213623,0.21896223723888397,-0.27850809693336487:-0.16852830350399017,0.35167425870895386,-0.04056071862578392,-0.32385367155075073,-0.31583672761917114,0.329728901386261,1.0643054246902466,-0.3959941565990448,0.0445544570684433,-0.5455106496810913:0.694999635219574,0.5073286294937134,0.851163387298584,0.10685450583696365,-0.0299697183072567,0.3705666959285736,-1.548372745513916,-0.47835811972618103,0.5845223069190979,-1.0587542057037354:-0.6951072812080383,-0.03121478296816349,0.699272632598877,0.12893325090408325,-0.02271910011768341,0.031107183545827866,0.935660719871521,-0.0019319560378789902,-0.44627389311790466,-0.597743570804596:0.8005232810974121,0.8296488523483276,-0.3687114119529724,-1.0021941661834717,-0.17006038129329681,-0.3923139274120331,0.1479879915714264,0.5202376842498779,-0.13351012766361237,-0.23161561787128448:-0.42383071780204773,-0.21005307137966156,0.3678736984729767,-0.4044264853000641,0.16295094788074493,0.5793225765228271,-0.27567341923713684,0.034627459943294525,0.40231001377105713,-0.2330978512763977:-0.09108011424541473,0.00827638991177082,-0.0566517673432827,-0.16524848341941833,-0.5156815648078918,0.2970779836177826,0.32691076397895813,-0.13173583149909973,0.36828792095184326,-0.040157806128263474:0.041551221162080765,0.04582972824573517,-0.014332707040011883,-0.042450662702322006,0.0266506839543581,1.1268573999404907,0.023958032950758934,0.04888598993420601,-1.2469738721847534,-0.00999195035547018:0,0,0,0,0,0,0,0,0,0:0.02819443680346012,0.031097441911697388,-0.009725389070808887,2.097984790802002,0.018083833158016205,-0.03355466574430466,0.02579251118004322,-2.0936169624328613,-0.05747203528881073,-0.006780024152249098:0.07921566814184189,-0.44850677251815796,-0.7511731386184692,0.2047012597322464,0.023828141391277313,0.659575879573822,0.25387364625930786,0.31058186292648315,-0.3129962682723999,-0.019098063930869102:-0.363055944442749,0.9955635070800781,0.887657642364502,0.35874757170677185,-0.25300171971321106,-1.3230812549591064,-0.28337574005126953,0.5406763553619385,-0.470345139503479,-0.08979140967130661:-0.14303076267242432,-0.21544675529003143,0.34843799471855164,-0.11278361827135086,0.16553398966789246,0.6197177767753601,-0.40741825103759766,0.08606129139661789,0.14962239563465118,-0.4906991422176361:0.6076947450637817,-1.0373083353042603,0.03499186784029007,0.288112998008728,1.4605604410171509,0.03951762616634369,0.2376958727836609,0.7532657980918884,-0.39384379982948303,-1.990698218345642:-0.3983045220375061,0.8416619300842285,0.15514767169952393,0.42518937587738037,-0.910112202167511,-0.09522375464439392,-0.5495954751968384,0.7796596884727478,0.2860552668571472,-0.5344776511192322:-0.19054092466831207,-0.45946964621543884,0.23508745431900024,-0.33032456040382385,-0.050712715834379196,0.13484203815460205,0.5877487659454346,0.19476744532585144,0.0162341445684433,-0.1376355141401291:-0.26919689774513245,-0.10583055764436722,-0.17759235203266144,0.33336952328681946,-0.42799532413482666,0.2268800586462021,-0.16305933892726898,0.5141401886940002,0.06882467865943909,0.00045108888298273087:-0.9613387584686279,-0.36502325534820557,0.004200642462819815,0.2276465743780136,0.4045901298522949,-0.2231476902961731,0.040412262082099915,0.24507926404476166,0.21831776201725006,0.40926358103752136:-0.6644567847251892,0.043719347566366196,0.9018718600273132,1.1346542835235596,-0.20915299654006958,-0.041305311024188995,-1.7024253606796265,0.47887158393859863,0.19893744587898254,-0.1407201737165451:-0.274152934551239,0.5189628601074219,-0.7458911538124084,-0.16625477373600006,-1.0955934524536133,-0.0064935749396681786,0.43858909606933594,1.0061293840408325,-0.16126473248004913,0.4859706461429596:0.022627633064985275,-0.13376553356647491,-0.04641974717378616,0.21174490451812744,-0.8437263369560242,-0.6821683645248413,-0.1330868899822235,0.5762833952903748,0.6921460032463074,0.3363837003707886:1.3961178064346313,-0.6414340734481812,0.3398648798465729,0.6230716109275818,-0.9818796515464783,-0.1388910412788391,-0.7268138527870178,-0.32844918966293335,-0.022723769769072533,0.48115211725234985:0.4781421422958374,-0.3006487786769867,-0.21792154014110565,0.5756247043609619,-1.2096775770187378,0.21280808746814728,-0.466590940952301,0.03741800785064697,0.30549582839012146,0.5853529572486877:-0.41302698850631714,-0.3009032905101776,0.3482399880886078,0.16775184869766235,-0.9032843708992004,0.10650774091482162,0.27293169498443604,0.239451602101326,0.1722439080476761,0.31009531021118164:0.2098497450351715,-0.2369808852672577,0.3249149024486542,0.4239518940448761,-1.1086771488189697,-0.5421983599662781,-0.49496594071388245,0.3663361370563507,0.2601737678050995,0.7976208925247192:0.16842737793922424,-0.4860873520374298,-0.345628947019577,0.28285717964172363,-0.13866053521633148,-0.16313393414020538,-0.531538724899292,0.15664133429527283,0.4073551297187805,0.6497852206230164:0.7950156927108765,0.2348172813653946,-0.6002803444862366,0.46853557229042053,-1.2415566444396973,-0.062156930565834045,-0.4799996316432953,0.42266687750816345,-0.18464161455631256,0.6475973725318909:-0.19694851338863373,-0.4107772707939148,-0.17454957962036133,-0.4220687747001648,-0.5639584064483643,0.9494744539260864,-0.3511318564414978,-0.12190382927656174,0.7522448897361755,0.5396053194999695:-0.5711593627929688,0.01335148699581623,-0.6031247973442078,0.10240776091814041,-0.08022317290306091,0.9403702616691589,-0.3459705710411072,-0.6758905053138733,0.8673540353775024,0.3528696298599243:0.8493874669075012,-0.1671949028968811,-1.0028313398361206,0.704940676689148,-0.44946038722991943,-0.7077625393867493,0.07892102003097534,0.4788109362125397,-0.02684594690799713,0.2420189529657364:1.0410654544830322,-0.015332169830799103,-0.3844265937805176,0.13667377829551697,-0.41595762968063354,0.42440155148506165,0.2092255800962448,-0.11261887103319168,-0.5633535385131836,-0.31969189643859863:-0.07711591571569443,0.04708416387438774,-0.9361817836761475,0.2005801498889923,0.8444215655326843,-0.46444323658943176,-0.024385932832956314,-0.8517850041389465,0.8017408847808838,0.4600672423839569:-0.9466595649719238,-0.6313188672065735,-0.5046080946922302,0.3102741241455078,0.5439877510070801,0.6273831129074097,0.4635249376296997,-0.12142623960971832,0.2858349680900574,-0.026994194835424423:-0.15550507605075836,-0.22731027007102966,-0.04616399481892586,-0.5963537693023682,-0.0008948953473009169,0.04021001234650612,0.06920567899942398,0.09379948675632477,0.5384461283683777,0.28457099199295044:-0.7374141812324524,0.23801270127296448,-0.0901767686009407,-0.2508315443992615,0.851702094078064,-0.08620551973581314,0.1422521322965622,0.23891404271125793,-0.19004090130329132,-0.11621177196502686:0.8714839220046997,0.07507861405611038,-0.02733260951936245,-0.07637187093496323,-1.1987385749816895,0.7656427025794983,-0.039726901799440384,0.08734072744846344,-0.1992366909980774,-0.2581315338611603:-2.4533610343933105,0.022792235016822815,-0.007128035183995962,-0.034845203161239624,0.013254138641059399,-0.024593105539679527,0.018904000520706177,2.5120577812194824,-0.04212288558483124,-0.004969247151166201:-1.2265512943267822,0.07386356592178345,-0.41201353073120117,1.156128168106079,0.042957454919815063,-0.07971131801605225,0.06126967817544937,0.5366908311843872,-0.1365235596895218,-0.016118545085191727:-0.13551057875156403,0.1161278635263443,0.9770331382751465,-0.5718416571617126,-0.6965306401252747,0.43541401624679565,0.10665643215179443,0.3800956606864929,-0.2707984745502472,-0.34063979983329773:0.16032123565673828,-1.3677681684494019,0.1769075244665146,0.7774965763092041,0.6781288385391235,-0.8339102864265442,0.040726274251937866,1.4902909994125366,-1.3950462341308594,0.2728550136089325:0.16946490108966827,0.5339297652244568,0.7235224843025208,0.6558045148849487,-0.22616693377494812,-1.7651827335357666,0.5695418119430542,0.47307366132736206,0.05534964054822922,-1.1893470287322998:0.45421096682548523,-0.11787521094083786,0.3723253905773163,0.6781545281410217,0.2714240550994873,0.8201785683631897,0.3495505750179291,-0.0448504202067852,0.03405265510082245,-2.817164421081543:-0.021807020530104637,-1.0022907257080078,0.6054708957672119,0.32253822684288025,0.006701042875647545,0.580362856388092,-0.886265754699707,0.30726999044418335,-0.15442122519016266,0.24243667721748352:0.06747933477163315,0.7249206304550171,-0.925234854221344,-0.09410766512155533,0.8182770013809204,-0.5713846683502197,0.40776193141937256,0.6311290860176086,-0.4733099937438965,-0.5855428576469421:-0.5960798859596252,-1.274208664894104,1.4243711233139038,0.48795950412750244,-0.27859529852867126,0.7895934581756592,-0.03936528414487839,-0.6188181042671204,0.8386132717132568,-0.7334915399551392:0.6820927858352661,0.07753528654575348,-0.4850124716758728,0.16039536893367767,-0.13907121121883392,-0.09773118048906326,-0.03165695443749428,0.2427329570055008,-0.2206815481185913,-0.18861544132232666:0.312648206949234,0.06613627076148987,-0.08484970778226852,-0.18361392617225647,-0.3786688446998596,0.39356401562690735,-0.8582034707069397,0.45463427901268005,0.1304880529642105,0.14785118401050568:0.420526921749115,-0.48396775126457214,0.5644740462303162,0.41775381565093994,-0.1961318552494049,0.6248703002929688,-0.7461282014846802,-0.35260361433029175,-0.3106207251548767,0.06182944029569626:-0.3058285415172577,0.6620526909828186,0.2837052047252655,0.7109219431877136,-0.9823541045188904,0.3009721338748932,-1.2965772151947021,0.06836995482444763,-0.16558285057544708,0.7243337631225586:0.12694106996059418,-0.36063045263290405,0.1957559436559677,-0.8025560975074768,0.09392751753330231,-0.6414859890937805,-0.5666857957839966,0.7489314079284668,0.10056355595588684,1.1052430868148804:0.5658609867095947,0.24785706400871277,-0.2127448469400406,1.0378972291946411,-0.8678936958312988,0.26306745409965515,0.05385024845600128,-0.7544003129005432,-0.7559864521026611,0.42248544096946716:-0.10163269937038422,-0.6793504953384399,-0.5881327986717224,-0.18333496153354645,-0.3701741695404053,-0.5619980692863464,0.22318463027477264,0.5762804746627808,1.207550048828125,0.4776054620742798:0.08304471522569656,-0.23177403211593628,0.09525544196367264,0.16515007615089417,-0.7098407745361328,0.5982465744018555,-0.8518378138542175,0.3938679099082947,0.0003289962187409401,0.45757049322128296:0.8783581852912903,0.004925187211483717,-0.9656429290771484,0.2745834290981293,-0.16326265037059784,0.3876349627971649,0.04089851677417755,-0.10456040501594543,-0.3948005437850952,0.04187053069472313:0.11502064764499664,-0.5654390454292297,0.4027918577194214,-0.20104964077472687,-0.14775381982326508,0.27361229062080383,-1.409303069114685,1.049059271812439,0.2526051998138428,0.2304651439189911:0.4988641142845154,0.10466707497835159,-0.6923630833625793,0.5478969216346741,0.17746827006340027,-0.9002267718315125,0.3874542713165283,-0.05616914480924606,0.04380540922284126,-0.11140326410531998:-0.07417551428079605,0.7097706198692322,0.14606116712093353,0.3653837740421295,-0.15362723171710968,-0.1019267588853836,-1.6867634057998657,0.8103639483451843,-0.5168588757514954,0.5017746686935425:-0.24343924224376678,0.4016699492931366,0.23438291251659393,-0.9282379746437073,0.3439095914363861,-0.0463542714715004,-0.3391702473163605,0.5950598120689392,0.10096272826194763,-0.11878035962581635:-0.15038591623306274,0.06074511259794235,0.7127094268798828,-0.5751814246177673,0.3773837089538574,0.6187129020690918,-0.30171874165534973,-0.2570458948612213,0.4825156033039093,-0.967738151550293:0.7837943434715271,-0.04825828969478607,-2.196356773376465,-0.2876235246658325,0.4786091446876526,0.5684525370597839,-0.30904334783554077,0.419335275888443,0.3842141628265381,0.2068650722503662:-0.206768199801445,-0.6543938517570496,-0.5730445981025696,0.2891082763671875,0.1629422903060913,-0.1685689091682434,1.4021142721176147,0.1644531488418579,-0.10963132977485657,-0.3062133491039276:0.3380759656429291,-0.24354827404022217,0.5278189182281494,-0.6740958094596863,-0.1988997459411621,0.6622545719146729,-0.8631702065467834,0.21492764353752136,0.3179379403591156,-0.08129391074180603:-2.4458975791931152,0.28928613662719727,-0.3218982517719269,-0.2945410907268524,0.8198283910751343,0.7035201787948608,0.6508826613426208,0.3275267481803894,0.4617577791213989,-0.19046223163604736:0.9574509263038635,0.08360026776790619,-0.027392728254199028,-0.0796920657157898,-0.4683978855609894,0.004274506587535143,0.6758439540863037,0.08046060800552368,-1.1317579746246338,-0.09440475702285767:0.3009816110134125,0.02805672213435173,-0.011499566957354546,-0.03922165185213089,-0.06515837460756302,-0.030273715034127235,0.023270370438694954,-0.14494694769382477,-0.051852453500032425,-0.009354997426271439:-0.779935359954834,0.09670944511890411,0.5617539286613464,-0.9948578476905823,0.056225866079330444,-0.10435118526220322,0.08021162450313568,1.2840584516525269,-0.17873139679431915,-0.02108498476445675:-0.10199800133705139,0.2556320130825043,0.4730183482170105,0.1555694192647934,0.6677502393722534,-0.8023700714111328,0.1930527538061142,0.2936941981315613,-0.47465988993644714,-0.6596783995628357:0.6748183965682983,0.525117039680481,-0.6030768752098083,-0.1929289698600769,0.7446727156639099,-0.7937328219413757,0.014893997460603714,0.17295487225055695,0.4808199405670166,-1.0235214233398438:-0.9600405693054199,0.6110751032829285,-0.1130419597029686,0.07236794382333755,0.3609479069709778,-0.6728525161743164,-0.24244631826877594,0.2993658483028412,0.4498920738697052,0.19473567605018616:0.22266361117362976,-0.3619343638420105,-0.4536665678024292,0.22109761834144592,0.03374215215444565,-0.24577197432518005,-0.49813514947891235,-0.4887450635433197,0.7824835777282715,0.7882640957832336:-0.23265446722507477,-0.5651368498802185,0.2567533254623413,-0.3716661036014557,0.7723633050918579,0.20748168230056763,-0.7513800263404846,0.23080305755138397,0.4926894009113312,-0.039258889853954315:0.7937759160995483,0.47469985485076904,-0.2830490469932556,-0.004128478933125734,-0.23788464069366455,-0.0532413050532341,-0.12262556701898575,0.41854023933410645,0.015012571588158607,-1.0011004209518433:0.34245195984840393,-0.6182409524917603,-0.21455441415309906,-0.34822675585746765,-0.7506131529808044,0.48328372836112976,-0.36777880787849426,1.2006298303604126,-0.2871180474758148,0.5601469874382019:0.5740702152252197,-0.5599966049194336,-0.3626003861427307,-0.7525373101234436,0.6141826510429382,-0.062424324452877045,-0.1500125676393509,0.3834477961063385,0.49861040711402893,-0.18277007341384888:-0.2690102159976959,-0.10542673617601395,0.2060602754354477,0.3709709644317627,-0.9896799921989441,0.4864393472671509,-0.4711969792842865,-0.020309602841734886,0.5844444632530212,0.20769383013248444:-0.8500267863273621,-0.38441750407218933,-0.3051782548427582,-0.31071633100509644,0.2751424014568329,0.3401724398136139,0.16777591407299042,1.340746521949768,-0.22530819475650787,-0.04819970577955246:0.9277639389038086,0.23152810335159302,-0.24817897379398346,0.005803425796329975,-0.7399410009384155,-0.2968522608280182,-0.6363763809204102,0.4263949692249298,0.8398339748382568,-0.5099672079086304:-0.8146548271179199,0.12956729531288147,0.2795926332473755,0.6450384855270386,-1.3502427339553833,0.5225456953048706,0.09163422137498856,-0.06441450864076614,0.3562915623188019,0.20464423298835754:0.25572463870048523,0.06299349665641785,0.3978767991065979,0.386432021856308,-0.4661305248737335,-0.2576453387737274,-1.6160897016525269,0.40495407581329346,0.29306069016456604,0.5388084053993225:0.19640326499938965,0.10929150879383087,-0.25831639766693115,0.05018395185470581,-0.33899253606796265,0.06153145059943199,-1.2481061220169067,1.154533863067627,-0.2583540380001068,0.5318042635917664:1.4880107641220093,-0.754412829875946,-0.8000661730766296,0.3970082700252533,-0.5240817070007324,0.0919029712677002,-0.7212883830070496,0.06006971374154091,0.12555477023124695,0.6373018622398376:0.3412110209465027,0.2564868927001953,0.6652013659477234,-0.3206702470779419,-0.580740213394165,-0.32748451828956604,0.3940660059452057,0.13972194492816925,-0.33656904101371765,-0.23121820390224457:0.1841975897550583,-0.37709322571754456,-0.8432034254074097,1.2196742296218872,0.04391193017363548,-0.3464162349700928,-0.7882603406906128,0.23657391965389252,0.14130572974681854,0.5293108820915222:-0.3735690712928772,0.001367333810776472,0.6351173520088196,-0.03828725218772888,-0.513007640838623,0.8336451053619385,-0.9715157747268677,0.0961572453379631,0.2699856162071228,0.06010247394442558:0.5967982411384583,-0.9870637059211731,0.4914955198764801,-0.22255542874336243,0.3716999590396881,0.8762539625167847,-0.9887337684631348,0.2986471354961395,0.07128430157899857,-0.5078311562538147:1.1030808687210083,-0.45600032806396484,-0.7246178984642029,-0.09190630167722702,0.6505506634712219,0.4681793749332428,-1.2631767988204956,-0.4389162063598633,-0.1394100934267044,0.8922272324562073:0.25829336047172546,0.3157840967178345,0.07807456701993942,1.009119987487793,-0.7030685544013977,-0.281737357378006,-0.9965181946754456,0.3709535300731659,0.23189914226531982,-0.28279635310173035:0.8997759222984314,-0.2921285927295685,0.7681839466094971,-0.6482969522476196,-0.42024466395378113,0.8369339108467102,-1.4792609214782715,0.27669793367385864,0.07041042298078537,-0.012076834216713905:0.45823395252227783,-0.5421232581138611,-1.0831739902496338,-0.8740463852882385,0.24648499488830566,0.9040088057518005,-0.34606558084487915,-0.14803552627563477,1.5091454982757568,-0.124431312084198:-0.4965828061103821,-0.5473924279212952,-0.5199739336967468,-0.7244191765785217,0.739994466304779,0.9993627071380615,-0.2071983814239502,0.04275195300579071,0.37048813700675964,0.34295737743377686:-0.39564719796180725,0.3002433776855469,-0.3856640160083771,-0.27908462285995483,-0.030046410858631134,0.2127659022808075,0.42641597986221313,-0.18997523188591003,0.42628294229507446,-0.08529849350452423:-0.7341605424880981,0.07540399581193924,-0.02358178421854973,-0.06984426081180573,-0.8404945731163025,1.4686912298202515,0.06250950694084167,-2.243499755859375,2.321390151977539,-0.016439998522400856:-0.35005706548690796,0.032970964908599854,-0.010311279445886612,-0.0326492041349411,0.019173352047801018,-0.035576146095991135,0.027346348389983177,0.41722965240478516,-0.060934554785490036,-0.007188485004007816:-0.3786505460739136,-0.10192772001028061,-0.8008820414543152,1.2306357622146606,0.01785329543054104,-0.14790120720863342,0.07700847834348679,0.39318183064460754,-0.2426820695400238,-0.04663512855768204:0.257892370223999,0.22138924896717072,0.5656029582023621,0.42908287048339844,0.8929780125617981,-0.7980464100837708,0.19177299737930298,-0.17610593140125275,-0.7106372714042664,-0.8739099502563477:0.8748598098754883,0.11637246608734131,0.08603355288505554,0.09367454051971436,-0.9409497380256653,-0.9207287430763245,0.0006917401915416121,0.5842183828353882,-0.1542137712240219,0.2600671947002411:-0.1436672806739807,0.3849526047706604,0.15761509537696838,0.8210815191268921,-0.16606293618679047,-0.2980623245239258,0.8607407212257385,-0.09122291952371597,-0.47435393929481506,-1.0510132312774658:-0.04851915314793587,-1.0190999507904053,1.3008068799972534,0.45882150530815125,0.33743858337402344,-0.4423184394836426,-0.37001892924308777,0.6967331767082214,-0.5953704118728638,-0.31846940517425537:-0.31512323021888733,-0.06519440561532974,-1.3993232250213623,0.4929465055465698,-0.029989590868353844,0.5491436123847961,-0.5412603616714478,0.4862843155860901,0.5641850829124451,0.2583399713039398:-0.2696346342563629,0.9164488315582275,0.26906296610832214,0.22496460378170013,-0.12059224396944046,-0.6231309771537781,-0.07469160854816437,-0.2596549093723297,-0.37852349877357483,0.3157500922679901:-0.11949072778224945,0.5207818150520325,-0.33887723088264465,0.6088230609893799,-0.16446487605571747,-0.5123648047447205,-0.4766314625740051,-0.30463409423828125,1.1371289491653442,-0.3502843677997589:0.5682309865951538,-0.33812186121940613,0.16297437250614166,0.11561080068349838,0.177240252494812,-0.6092820763587952,-0.7790830135345459,0.2756771147251129,0.2885531783103943,0.13817566633224487:1.3520464897155762,-0.18314318358898163,0.7633414268493652,0.014843126758933067,-0.6451085209846497,-0.28837695717811584,-1.13137948513031,-0.1395345777273178,0.09815289080142975,0.1591445505619049:-0.1982891857624054,-0.28551191091537476,-0.23142503201961517,-0.9795759916305542,0.2903124988079071,0.5639686584472656,0.09701432287693024,-0.004312864039093256,0.6565101146697998,0.09130626916885376:0.33953118324279785,-0.12238635122776031,0.209623783826828,-0.5580515265464783,-0.2544674277305603,0.16859300434589386,-0.795717716217041,1.1530559062957764,-0.2336224615573883,0.09344715625047684:0.9938114285469055,-0.2968129813671112,-0.06667269021272659,-0.8103155493736267,0.5409817099571228,-0.2899155616760254,-0.6131988167762756,-0.04200701788067818,0.253057599067688,0.3310706913471222:-0.0686044842004776,0.29775094985961914,0.1353757679462433,0.10559672862291336,-1.099761962890625,-0.4855741560459137,-0.008361156098544598,1.0739519596099854,0.1586340367794037,-0.10902441293001175:-0.8000429272651672,0.657103419303894,0.5202401876449585,0.7587012052536011,-0.1025429368019104,-0.8672681450843811,-0.5785825252532959,0.4068695306777954,-0.6002667546272278,0.6057672500610352:0.17660902440547943,0.25933578610420227,0.9312525987625122,0.7024942636489868,0.0681489109992981,-0.06280337274074554,-1.6669377088546753,-0.08823882788419724,-0.033641088753938675,-0.2862074077129364:0.19296464323997498,-0.4318174123764038,-0.9292357563972473,0.4150744676589966,-0.3466462790966034,0.25655874609947205,-1.853324055671692,2.042876720428467,0.1559419184923172,0.4976089596748352:0.613469123840332,-0.06752011179924011,0.5814632773399353,0.08940328657627106,0.10291443765163422,-0.09798787534236908,-1.467458724975586,0.8062524795532227,-0.4046076536178589,-0.15594226121902466:0.8228839039802551,-0.44622156023979187,0.5739360451698303,0.42198336124420166,-0.3391125500202179,-0.9807710647583008,-0.7984609603881836,0.6631211638450623,0.2974717617034912,-0.21482867002487183:0.020710662007331848,-0.5261215567588806,0.030512971803545952,0.9786648750305176,0.08238888531923294,-0.14437322318553925,0.0011012209579348564,-0.42298901081085205,-0.4537101686000824,0.4338168501853943:-0.4422016441822052,0.22139820456504822,-0.5664268732070923,-0.09545497596263885,-0.07981781661510468,0.2768821120262146,0.9695475101470947,0.4983423054218292,0.3378066420555115,-1.120058536529541:-1.3046761751174927,0.3312995433807373,-0.045785464346408844,0.5232152342796326,0.07626770436763763,0.38236910104751587,-0.6526322364807129,0.1214599534869194,0.14427360892295837,0.4242270290851593:0.294426828622818,-0.3622186481952667,-0.11035525798797607,-0.28510570526123047,0.6182164549827576,0.09506063908338547,-0.5876808166503906,0.2999412715435028,0.8788873553276062,-0.8411673903465271:0.7737340927124023,0.40126821398735046,-0.7699629068374634,-2.047602415084839,-0.44420385360717773,0.7839255928993225,0.5048555731773376,0.49208971858024597,0.01764700934290886,0.2882404327392578:0.3134292662143707,-0.4389604926109314,-0.3955751955509186,-0.4729766249656677,-0.3835688531398773,0.8754050135612488,-1.160528540611267,0.8783071041107178,0.8718582987785339,-0.08740267157554626:-0.36501026153564453,0.6015008091926575,-1.1060651540756226,-0.24431583285331726,1.1435362100601196,1.0990492105484009,0.3944801390171051,-2.2417101860046387,1.0889439582824707,-0.3704356253147125:0.07152897864580154,-0.3978619873523712,-0.024673812091350555,-0.0730786994099617,-0.5756600499153137,0.2013755887746811,0.057527028024196625,0.9465398192405701,-0.18845804035663605,-0.017211202532052994:0.02077639475464821,0.03222883865237236,-0.010079220868647099,-0.029852591454982758,0.0187416709959507,-0.03477548807859421,0.026730921119451523,0.04282231628894806,-0.05956285446882248,-0.007026666309684515:-0.5060697197914124,1.1760231256484985,-0.06692688167095184,-0.6116995811462402,-0.5692442655563354,-0.13841694593429565,0.10270126909017563,0.8847588896751404,-0.2414642572402954,-0.029664548113942146:0.6716934442520142,0.12998470664024353,0.4962592124938965,-0.24441200494766235,-0.20608234405517578,-0.4533306956291199,-0.009709914214909077,0.7383018136024475,-0.5577285289764404,-0.5649569034576416:-0.3600905239582062,-0.1182732880115509,0.9682384133338928,0.3942205309867859,0.37778612971305847,-1.0062178373336792,0.10292836278676987,-0.29732298851013184,-0.8158411979675293,0.7545900344848633:-0.16875675320625305,-0.047979384660720825,-1.1207431554794312,-0.39883917570114136,0.08978788554668427,0.32531726360321045,-0.5811529755592346,0.8328820466995239,0.7072985768318176,0.36220139265060425:2.050173759460449,-0.44030508399009705,0.18178528547286987,0.260566383600235,-0.4794797897338867,0.30486616492271423,-0.7042455077171326,-0.8459588885307312,-0.03383638709783554,-0.29354971647262573:0.18726837635040283,-0.4170030951499939,1.681097149848938,0.23884746432304382,-0.69240802526474,-0.8881258964538574,-0.5342531800270081,-0.3620564043521881,0.19170357286930084,0.5949304103851318:-0.6941544413566589,-0.4695649743080139,-0.11243467777967453,-0.30429279804229736,-0.08573365211486816,1.009404182434082,-0.2335805892944336,0.47406700253486633,0.4345840513706207,-0.018309473991394043:-0.18610051274299622,-0.03286197781562805,-0.19028112292289734,-0.5174961686134338,0.3874722719192505,1.0619112253189087,0.19418767094612122,-0.19240354001522064,-0.2862132489681244,-0.2382388412952423:0.389505535364151,-0.5126453638076782,-0.87382572889328,-0.98722904920578,-0.07281555235385895,0.9351634383201599,-0.25370851159095764,0.5253551006317139,0.7091200947761536,0.14105670154094696:-0.651576578617096,0.20306403934955597,0.03636232018470764,-1.112101435661316,-0.18818649649620056,0.7580596804618835,0.3891107738018036,-0.28384679555892944,0.4745107889175415,0.37459927797317505:-0.15502624213695526,0.6563743948936462,0.7270022630691528,-0.5482358932495117,-0.4730958044528961,0.16380734741687775,-0.17129205167293549,-0.024295885115861893,0.050361115485429764,-0.22558769583702087:0.024283520877361298,-0.3280252516269684,0.2739091217517853,-0.8883330821990967,0.16005462408065796,0.40151435136795044,-0.17344610393047333,-0.727590024471283,0.6345598697662354,0.623085618019104:0.22166554629802704,0.4063941538333893,-0.24992279708385468,0.4359523355960846,-1.4622622728347778,0.4119005501270294,0.3493916094303131,0.8082433938980103,-0.04142553731799126,-0.8799290657043457:0.5122721791267395,0.11878634244203568,0.3626510798931122,-0.23812991380691528,-0.8965078592300415,0.4214537739753723,-0.7056277394294739,0.3067529797554016,0.055582016706466675,0.06275572627782822:0.1954493671655655,0.9545912146568298,-0.2480883002281189,-0.23478826880455017,0.5263606309890747,-0.14675849676132202,-0.6584759950637817,0.38250666856765747,-0.5999155044555664,-0.17090898752212524:0.4851906895637512,0.37442123889923096,-0.45541346073150635,0.3751765787601471,-0.40881434082984924,-0.45327112078666687,-0.309286892414093,1.2638847827911377,-0.6338330507278442,-0.23805563151836395:0.7564777731895447,0.2808738946914673,0.9761998057365417,0.266309916973114,0.2716076076030731,-0.3902267515659332,-0.7869052290916443,-0.36855271458625793,-0.47952067852020264,-0.5262753963470459:0.7009806036949158,-0.6201954483985901,0.8823070526123047,0.18824252486228943,0.22365112602710724,-1.3847988843917847,-1.3859721422195435,0.24110978841781616,0.707198441028595,0.4474577009677887:0.3308801054954529,-0.41525185108184814,-0.7456619143486023,0.1767038106918335,0.3532647490501404,-0.06772680580615997,-0.8037306666374207,0.8367194533348083,0.06433916836977005,0.2704416811466217:0.8376278281211853,-0.593961238861084,-0.12844230234622955,0.2995108366012573,0.017726775258779526,-1.2891656160354614,-0.5087315440177917,0.7862146496772766,0.7583393454551697,-0.17911742627620697:-0.07350631803274155,0.0018173467833548784,0.45386525988578796,-0.30780163407325745,-0.3223152160644531,0.5769091844558716,-0.9966824054718018,0.06449971348047256,0.35579463839530945,0.24744100868701935:0.9258454442024231,-0.11361830681562424,-0.3597567081451416,-0.47265610098838806,0.3394654393196106,-0.41456010937690735,-0.6740241646766663,0.4598097801208496,0.23197267949581146,0.07755228877067566:0.1169186681509018,0.028932178393006325,-0.5702025890350342,1.1996471881866455,-0.9624032974243164,0.4749724864959717,-0.1981091946363449,-0.638683021068573,0.12124484032392502,0.427700012922287:0.9166362285614014,-1.0451761484146118,-0.4233698844909668,-1.4074327945709229,0.5629379749298096,1.2127971649169922,0.7346360683441162,-0.43437880277633667,0.6079456806182861,-0.7245928645133972:-0.19637301564216614,-0.5957720875740051,-0.11752310395240784,-0.17616677284240723,0.07343039661645889,0.0024902410805225372,-0.47116291522979736,0.5416946411132812,0.31995224952697754,0.6194093823432922:-1.1125881671905518,0.1837884783744812,0.8262535929679871,-0.1912185549736023,-0.8936315774917603,0.43019187450408936,0.015249522402882576,0.3682146370410919,0.4311133325099945,-0.05740094929933548:0.0601017102599144,0.40654000639915466,-0.020731553435325623,-0.061402540653944016,0.03803795948624611,-1.038143277168274,-1.4244420528411865,0.027931582182645798,2.0265753269195557,-0.014456222765147686:-1.4484515190124512,0.03938833624124527,-0.012318250723183155,-0.036484308540821075,0.02290506847202778,-0.04250073432922363,0.03266904503107071,1.5261718034744263,-0.07279461622238159,-0.008587602525949478:0.796078085899353,0.008287430740892887,-0.08501662313938141,0.9303950667381287,-0.3469223082065582,-0.1251348853111267,0.09618701040744781,-0.7348741292953491,-0.21514388918876648,-0.32385069131851196:-0.25838038325309753,0.11093267053365707,-0.2222084403038025,0.4651183485984802,0.563876748085022,-0.2843482792377472,0.21852844953536987,1.1849838495254517,-0.48801183700561523,-1.2904822826385498:0.3581458032131195,-0.15730510652065277,0.09641815721988678,0.9031978249549866,0.2514524459838867,-1.2671552896499634,-0.21095384657382965,0.6390717029571533,-0.1739729642868042,-0.4388847351074219:-0.9641103148460388,0.047243762761354446,-0.52341228723526,0.6843286752700806,-0.01851503551006317,0.6384183764457703,0.26867902278900146,-0.006530866026878357,0.06686729192733765,-0.19295570254325867:-1.070603609085083,-0.38267403841018677,0.06196897476911545,-0.5499595999717712,0.10675696283578873,0.00643460638821125,0.720231294631958,0.7756398320198059,-0.1232176348567009,0.4554314613342285:0.2597511112689972,-1.0030333995819092,-0.061678171157836914,-0.8789576888084412,0.8488011956214905,1.1888906955718994,-0.2453002631664276,0.14662306010723114,0.18378379940986633,-0.438883900642395:0.677718460559845,-0.8637721538543701,-1.0364329814910889,-0.3337911367416382,-0.08185387402772903,-0.2638078033924103,-0.059046898037195206,0.42402762174606323,1.2386674880981445,0.2982659637928009:-0.25782510638237,-0.5334153175354004,-0.5685736536979675,-0.45942023396492004,0.3339676260948181,0.1790999323129654,0.02214205265045166,-0.38048967719078064,0.656051754951477,1.0084329843521118:-0.28810960054397583,-0.6553343534469604,-0.9564933180809021,-0.5454120635986328,1.0383330583572388,-0.2661685645580292,0.04503396898508072,0.7309446334838867,0.5409349799156189,0.3562397360801697:-0.20737911760807037,-0.3907768130302429,-1.3547810316085815,-0.6391160488128662,0.7672788500785828,0.05971074104309082,-0.3361775875091553,1.0609049797058105,0.23881207406520844,0.8015264868736267:0.9584774374961853,-0.4481307566165924,-1.7898818254470825,-0.07036491483449936,0.32023805379867554,0.3214735984802246,-0.3316035270690918,0.29578354954719543,0.4975844919681549,0.24643050134181976:-1.3178735971450806,-0.4910692870616913,-1.3607090711593628,-0.06666877865791321,1.675798773765564,0.4046875834465027,0.15068818628787994,-0.2185172140598297,0.1187753826379776,1.1048847436904907:0.4948023855686188,0.6760739088058472,-1.6854432821273804,0.23507609963417053,-1.766707181930542,0.642469048500061,0.20414909720420837,0.48783716559410095,0.5088683366775513,0.20285317301750183:-1.0017279386520386,0.559119701385498,-1.1789673566818237,0.5801805853843689,-1.2653992176055908,0.490392804145813,-0.31514936685562134,0.9547553062438965,0.8267247676849365,0.35002851486206055:-1.2246882915496826,0.9275042414665222,-0.853873610496521,0.8531667590141296,0.6251370906829834,-0.38601213693618774,-1.3776662349700928,0.5441330671310425,0.4451940953731537,0.44706806540489197:-0.9538248777389526,0.6161727905273438,-0.7124850153923035,-0.2910688519477844,0.5214044451713562,-0.48134952783584595,-0.05210163816809654,0.6653735041618347,0.058233726769685745,0.6296330690383911:0.1997176706790924,-0.168334499001503,-0.7176983952522278,0.8555735945701599,0.05289601907134056,-0.018112530931830406,-1.125821590423584,0.5134305953979492,-0.4669910967350006,0.8753229975700378:-1.1459627151489258,0.42060208320617676,-0.49258536100387573,0.5532302260398865,-0.017743857577443123,0.24862954020500183,-0.8021010756492615,1.2071802616119385,-0.28014451265335083,0.3088618814945221:-0.03320210427045822,-0.30730754137039185,1.7215720415115356,0.1424420028924942,0.057416681200265884,-1.3755203485488892,0.1910431981086731,0.02752465009689331,-0.29110556840896606,-0.13286958634853363:0.994257926940918,0.0014695958234369755,-0.15318292379379272,0.5100460052490234,-0.8997445106506348,-1.6063816547393799,-0.8572408556938171,1.1781760454177856,-0.2994604706764221,1.1320645809173584:1.2481963634490967,0.006433138158172369,0.0773518979549408,-0.3413897454738617,-0.5969775915145874,-1.1955121755599976,0.7289022207260132,-0.3333209753036499,-0.03173273801803589,0.4380754828453064:0.6603601574897766,-0.028664253652095795,-0.0015898402780294418,0.3693463206291199,-0.5593224167823792,-2.4738476276397705,-0.24600215256214142,1.4431859254837036,0.4726569354534149,0.36390599608421326:-0.3610128164291382,0.9331549406051636,0.12794853746891022,-0.010800513438880444,-0.6019541025161743,-0.2583926320075989,0.8580023646354675,-0.10414092987775803,-0.245961993932724,-0.3368089199066162:0.35029736161231995,-0.4732964336872101,0.10952921956777573,-2.4413933753967285,-0.7820978760719299,2.25736403465271,0.6308924555778503,-0.20962415635585785,0.6085832118988037,-0.050256505608558655:0.3639174997806549,-0.10619620233774185,0.42166852951049805,0.3491256535053253,0.02045327238738537,0.3001488447189331,-0.2004178911447525,-1.108870506286621,0.11029639840126038,-0.1501404345035553:0.6894102692604065,0.5554678440093994,-0.9315586090087891,-0.1448521912097931,0.24232205748558044,0.08289384096860886,0.07120638340711594,-1.9960275888442993,0.9605879783630371,0.47053924202919006:-0.28924471139907837,1.321839690208435,-1.494629144668579,-0.04718906804919243,-0.3090454936027527,-0.5005179643630981,2.43959903717041,-0.28164124488830566,-0.8280127048492432,-0.011131291277706623:0.026849044486880302,0.029613491147756577,-0.009261274710297585,-0.027430079877376556,0.017220819368958473,-0.03195346146821976,0.024561719968914986,0.03158879280090332,-0.054729435592889786,-0.006456466857343912:-0.08592171967029572,0.09065508842468262,-0.02835327945649624,0.041283778846263885,-1.8125901222229004,-0.09782581031322479,0.07515474408864975,2.734722137451172,-0.16755236685276031,-0.7495789527893066:-0.46110999584198,0.14022281765937805,-0.08361214399337769,-0.9976725578308105,0.2487708032131195,-0.2191561609506607,0.1522493064403534,0.6985547542572021,-0.3760564923286438,0.8978164196014404:-0.9558643102645874,0.12076745927333832,-1.3329092264175415,-0.44526204466819763,0.7984843254089355,1.2126646041870117,-0.3332570195198059,0.2828300893306732,0.38045597076416016,0.272108793258667:-0.410061240196228,0.4681532382965088,1.4398232698440552,-0.3180066645145416,-0.6802639365196228,-0.18814927339553833,-0.2686064541339874,0.26577678322792053,-0.014479000121355057,-0.2941887080669403:0.21098950505256653,-0.4211478531360626,0.07435149699449539,0.17229792475700378,0.4947119355201721,-0.23568515479564667,-0.80697101354599,-0.07644863426685333,0.37638357281684875,0.21151909232139587:1.0360429286956787,0.4486035406589508,-1.586413860321045,-0.6276615858078003,0.0032655741088092327,0.6461217403411865,0.11939854919910431,-0.6092997789382935,-0.1091964840888977,0.6791216135025024:-0.2520083785057068,0.7045824527740479,-2.5510544776916504,0.3428408205509186,0.5609567165374756,0.4037942588329315,0.35935816168785095,0.6480612754821777,0.04650174826383591,-0.2630535662174225:-1.0351057052612305,-0.3378591537475586,-0.387161523103714,-1.035112977027893,1.012018084526062,-0.3754689693450928,0.6489354968070984,1.3362140655517578,-0.27500879764556885,0.44851723313331604:0.6498789191246033,-0.39519599080085754,-1.226186752319336,-0.7275123596191406,0.23590904474258423,-0.1704723834991455,0.7994116544723511,-0.6135886311531067,0.878098726272583,0.5696268081665039:0.026991724967956543,-0.2917094826698303,-1.3427374362945557,0.6420921683311462,0.9720867276191711,0.64912348985672,-0.20037716627120972,-0.6420809030532837,-0.02961539477109909,0.21621643006801605:-0.22038310766220093,-0.5501317977905273,-1.1037551164627075,-0.39696425199508667,0.027594145387411118,0.3114154636859894,1.4103859663009644,0.28566592931747437,-0.31856444478034973,0.554730236530304:0.1914147287607193,0.30076634883880615,-1.3137538433074951,0.42078736424446106,1.4599342346191406,0.14775098860263824,0.12255049496889114,-1.2054641246795654,0.3040091395378113,-0.42799893021583557:0.8813038468360901,0.4104049801826477,-0.4869910478591919,-0.2634199559688568,0.6954213976860046,0.19559574127197266,0.28417184948921204,-2.1978981494903564,0.5786961913108826,-0.09732083231210709:-0.21047239005565643,0.8965110182762146,-1.32344651222229,0.7797501087188721,-0.9548060297966003,-0.3009973168373108,0.17397540807724,0.32375216484069824,0.19400382041931152,0.42169880867004395:-1.747520923614502,1.0092169046401978,-1.1720521450042725,0.544726550579071,0.00264093279838562,0.4109841585159302,-0.569677472114563,1.0371708869934082,0.09258376806974411,0.3918920159339905:-0.344359815120697,0.044585663825273514,-1.0784838199615479,0.2685551941394806,0.9221398830413818,-0.5956528782844543,0.023983079940080643,0.45460012555122375,0.0022695353254675865,0.30233103036880493:-0.15526063740253448,0.6003919839859009,-0.49997764825820923,-0.21937832236289978,-0.3861263692378998,-1.0007880926132202,0.35312944650650024,0.292946994304657,0.5772216320037842,0.4378111958503723:-0.24399001896381378,-0.03879941999912262,-0.9931528568267822,0.31381309032440186,0.025496290996670723,-0.8895057439804077,-0.22059033811092377,1.0325889587402344,-0.007869221270084381,1.0219756364822388:-0.05514045059680939,-0.14765360951423645,0.6039309501647949,0.02837277017533779,0.7023624181747437,-0.8964308500289917,-0.9148064851760864,-0.633163571357727,0.6106109619140625,0.7019079923629761:0.2077060341835022,-0.5946418046951294,0.15758486092090607,0.04530675709247589,-0.22431233525276184,-0.08940790593624115,-0.07994873076677322,-0.02696153149008751,0.31919440627098083,0.2854934334754944:-0.6804596781730652,0.13995042443275452,0.6278705596923828,-1.1380096673965454,1.3626325130462646,-1.44133460521698,0.14007115364074707,-0.29324159026145935,0.29780980944633484,0.9847543239593506:-0.34995540976524353,0.08952466398477554,0.050849415361881256,-1.0035964250564575,0.052807699888944626,-1.7900798320770264,0.8163913488388062,0.6662499904632568,0.7843027710914612,0.6835498809814453:0.2643699645996094,0.5716840028762817,-1.2959954738616943,-1.4645692110061646,0.36275941133499146,-2.1504311561584473,0.627815842628479,0.665585458278656,0.7500831484794617,1.6687451601028442:1.4494903087615967,-0.006073816679418087,-0.1460367739200592,-1.7687397003173828,1.842002511024475,-3.8222644329071045,1.34114670753479,-0.507898211479187,1.4377835988998413,0.18060114979743958:0.08580418676137924,-1.1977659463882446,0.22784967720508575,0.3719317317008972,-0.2588505446910858,0.4732067883014679,1.1376272439956665,0.07542550563812256,-0.24023151397705078,-0.6750046610832214:0.3484021723270416,-4.578246116638184,0.8038903474807739,-0.11122053116559982,0.8362053632736206,1.7180540561676025,-0.13837972283363342,0.2039189636707306,1.2363905906677246,-0.3189851641654968:-0.9542808532714844,3.377272605895996,-1.2646852731704712,-0.05131048709154129,-0.9819861054420471,-0.059771839529275894,-0.4570295810699463,1.1002267599105835,-0.6962665319442749,-0.01214910950511694:0.020664455369114876,0.024667952209711075,-0.007128017023205757,-0.021197699010372162,0.013254019431769848,-0.02459312230348587,0.018903885036706924,0.02277478575706482,-0.042123015969991684,-0.005217905156314373:1.6679706573486328,0.06102858856320381,-0.01909182406961918,-1.6028838157653809,2.2144579887390137,-0.065872423350811,0.050386395305395126,-1.3466230630874634,-0.11282189190387726,-0.8465344905853271:-0.32194432616233826,0.12067047506570816,-0.06084016337990761,-0.8405006527900696,0.9098033308982849,-0.1618749350309372,0.07195445150136948,0.503769040107727,-0.26382115483283997,0.04280639439821243:1.6964441537857056,0.08193722367286682,0.4795423448085785,-0.1030280590057373,-0.8232292532920837,-0.7375048995018005,-0.46805378794670105,0.4780987799167633,0.22796021401882172,-0.8321537971496582:1.4925686120986938,0.5305932760238647,-2.3715054988861084,-0.48793360590934753,0.11919001489877701,0.28277915716171265,0.4118727445602417,0.17481428384780884,-1.1159648895263672,0.9635891318321228:0.043213680386543274,-0.6112318634986877,-0.5300615429878235,0.6344676613807678,-0.10953060537576675,0.35198020935058594,0.6039246916770935,-0.3367563784122467,-0.19463203847408295,0.1486164778470993:-0.2055191546678543,0.4223003387451172,-1.0560173988342285,-0.572074294090271,0.0042695957235991955,-0.8289344906806946,1.3242639303207397,1.092058539390564,-0.16779111325740814,-0.012578822672367096:0.5731262564659119,-0.07463662326335907,-1.9937145709991455,0.29726120829582214,0.365438848733902,1.2342787981033325,-0.8181572556495667,-0.04810626059770584,0.006681906990706921,0.4578040838241577:-0.12461525201797485,-0.0646786168217659,-0.30056726932525635,-0.09652888774871826,-0.29225388169288635,-0.35446232557296753,0.13896232843399048,0.21246488392353058,0.12704622745513916,0.7546157240867615:0.029331348836421967,0.48331841826438904,-0.874032199382782,0.23699350655078888,0.2870767116546631,0.3323823809623718,-0.11340954154729843,-0.14203551411628723,-0.1438279151916504,-0.0958154946565628:0.5572528839111328,-1.0784196853637695,0.4773727059364319,-0.39023393392562866,0.8026041984558105,-0.28235360980033875,0.7931841015815735,0.006494543515145779,-0.6319360733032227,-0.25396913290023804:0.367921382188797,-0.6838898062705994,-0.2556299567222595,-0.561413586139679,1.0422674417495728,0.2599494755268097,-0.7122498750686646,0.17177680134773254,0.5883660316467285,-0.21710596978664398:0.4004909098148346,-0.24285556375980377,-0.18172729015350342,0.2331932634115219,1.1319361925125122,0.9367883205413818,0.7758068442344666,-2.47221040725708,-0.13880062103271484,-0.4426470100879669:-1.788296103477478,0.5998321175575256,0.2943759262561798,0.6989660263061523,-1.007236361503601,0.4025035500526428,0.4987275004386902,-0.994566798210144,0.9825072288513184,0.31314072012901306:-0.7417802810668945,0.7795944809913635,0.8107736110687256,0.7170511484146118,0.04016496241092682,-0.551827609539032,-1.1820147037506104,0.14701125025749207,-0.13152949512004852,0.11250653862953186:-1.4110783338546753,0.32218942046165466,-0.6943994164466858,-0.4677770137786865,1.2456661462783813,-0.4234403073787689,-0.3883170187473297,0.007575788535177708,0.824184775352478,0.9853516221046448:-0.3391913175582886,-0.06147082522511482,-0.7706091403961182,0.19304259121418,0.29831811785697937,-0.48783019185066223,0.36237072944641113,0.1580679565668106,0.11047668009996414,0.5367918610572815:-0.29468095302581787,0.22959822416305542,0.20441582798957825,0.04469751566648483,0.5742053389549255,-0.5554007291793823,-1.1336638927459717,0.4565591812133789,-0.10032574087381363,0.5745697021484375:0.7824766635894775,-0.4914276599884033,-0.5231271982192993,0.5010233521461487,0.16891391575336456,-0.3670787811279297,-0.6830514073371887,0.08676381409168243,0.38229435682296753,0.1431984156370163:0.05759335681796074,-0.3781188130378723,-0.7916572690010071,-0.3634082078933716,-0.0681861937046051,0.2828153371810913,0.47849610447883606,-0.3759269416332245,-0.1021144911646843,1.2605125904083252:-1.067017912864685,0.4175395965576172,-0.613075852394104,-0.2265997678041458,0.7151769399642944,-0.17825816571712494,-0.9130308628082275,0.2910124659538269,1.4286186695098877,0.1456613391637802:-0.43349042534828186,0.16671423614025116,-0.5057564377784729,-0.7845038175582886,0.3609364926815033,-0.15933845937252045,1.077713131904602,-0.14155597984790802,-0.3284989893436432,0.7478287220001221:0.39754313230514526,-0.37089085578918457,-0.3851671516895294,-1.8291884660720825,0.22008629143238068,-0.053451232612133026,0.5877894759178162,0.42753830552101135,0.8111025094985962,0.19469301402568817:1.3548922538757324,0.09900961071252823,0.09192416071891785,-0.9118537902832031,-0.2698080241680145,-0.015460437163710594,0.9017377495765686,-1.1486728191375732,0.14518466591835022,-0.2469022423028946:-0.27850282192230225,0.3202041685581207,1.4414783716201782,-0.8742570877075195,-0.906374990940094,-1.051642894744873,0.2225590944290161,0.8918771147727966,0.32653921842575073,-0.0918518677353859:0.07094064354896545,-0.1884022206068039,0.14606603980064392,0.07180807739496231,0.640486478805542,-0.5805531740188599,-0.1861572563648224,0.6938179731369019,-0.7782474756240845,0.11023018509149551:-0.4344539940357208,-1.732148289680481,1.018993616104126,-0.12085603922605515,0.22208882868289948,-0.31613510847091675,-0.009743633680045605,0.5358458757400513,0.3814532458782196,0.4549703299999237:0.037478651851415634,-0.666494607925415,1.3834530115127563,-0.03828980028629303,0.024025430902838707,-0.04460398107767105,1.3029710054397583,-0.5298678278923035,-1.4596513509750366,-0.009012598544359207:0.020647548139095306,0.02277825027704239,-0.007127996068447828,-0.03850863128900528,0.013210833072662354,0.5342196822166443,0.018308531492948532,0.024300068616867065,-0.042122967541217804,-0.5456976294517517:-1.9540430307388306,-0.876964271068573,-0.014313179068267345,2.6029913425445557,0.5054738521575928,-0.04812365025281906,0.03698508441448212,0.4058285355567932,-0.08242414891719818,-0.5754207968711853:-0.9564821720123291,0.015213844366371632,-0.4394962787628174,-0.8374150991439819,-2.383146047592163,-0.1102256178855896,0.08472137898206711,2.9164981842041016,-0.1887895166873932,1.8991365432739258:-1.2040525674819946,0.713819146156311,-0.14490360021591187,0.1670459508895874,0.32343921065330505,0.6424795985221863,-0.03226460516452789,-0.22720305621623993,-0.14905881881713867,-0.08928805589675903:-0.5412682890892029,0.25075817108154297,0.05182073637843132,-0.2407563030719757,0.772838294506073,0.1975109577178955,-0.9799262285232544,0.7528731226921082,-0.3799716830253601,0.1161324679851532:0.12339971959590912,0.21164853870868683,-1.5990747213363647,-0.9636394381523132,0.38932156562805176,-0.20841528475284576,0.11350211501121521,0.8555117845535278,0.6290856003761292,0.4486770033836365:0.3185337781906128,0.0369780994951725,-0.7771088480949402,-1.4885785579681396,1.0188201665878296,0.4378737211227417,-0.2598576247692108,-0.1845330148935318,0.287080854177475,0.6107861399650574:1.2891809940338135,-0.6082303524017334,1.2142971754074097,-0.9248673915863037,0.9298619627952576,-0.610661506652832,-0.3816279470920563,0.3275136351585388,-1.1579450368881226,-0.07751893997192383:-0.2804918587207794,0.0638284757733345,-0.19037076830863953,-0.01235654391348362,1.0788549184799194,0.1700100302696228,0.18416500091552734,-0.05421943962574005,-0.5646165609359741,-0.3948119282722473:0.720463752746582,-0.428276926279068,-0.8271422982215881,-0.1594277024269104,0.2369290590286255,0.4984368085861206,0.5131860375404358,-0.6915358901023865,-0.27448979020118713,0.41185900568962097:-1.1641803979873657,-0.9514933228492737,0.2036120891571045,-0.2771374583244324,0.37400731444358826,0.8480052351951599,0.8916065692901611,-0.12805557250976562,-0.08124459534883499,0.28486526012420654:0.44111430644989014,-0.6846597790718079,-0.23833900690078735,-0.5684561729431152,0.442962646484375,-0.10510555654764175,1.121410846710205,-0.9311652183532715,0.5415604114532471,-0.019346019253134727:0.7900876402854919,0.48071345686912537,0.03926848992705345,0.6170748472213745,0.995255708694458,-0.45997291803359985,-0.5998136401176453,-1.6378448009490967,0.4663271903991699,-0.6911248564720154:-0.44212496280670166,0.07003595679998398,-0.13481315970420837,0.22937209904193878,-0.5658943057060242,0.017301147803664207,0.24742531776428223,-0.2457023710012436,0.16500358283519745,0.6593523025512695:-1.992016077041626,0.832443118095398,0.37405937910079956,0.354861319065094,0.4596993327140808,0.21711492538452148,-0.9592599868774414,-0.5266256332397461,0.8702995181083679,0.3693845570087433:-0.5257304906845093,0.47646868228912354,-0.44388264417648315,0.33078739047050476,0.2023802250623703,-0.3574220836162567,0.871117115020752,-0.22062450647354126,-0.12395147234201431,-0.2091773897409439:-1.7382739782333374,0.5632988214492798,0.02622065320611,-0.13108272850513458,0.6183480620384216,-1.0918195247650146,0.3598097264766693,0.8262734413146973,0.21061280369758606,0.35659143328666687:-0.3985063135623932,0.04218209162354469,-1.1832659244537354,0.5563721060752869,1.069844365119934,-0.3644773066043854,-1.027371883392334,0.257813960313797,0.39525511860847473,0.6521480679512024:-0.1930203139781952,-0.8349370360374451,0.40527990460395813,-0.1891339272260666,-0.22697792947292328,-0.1403343826532364,0.2359486073255539,0.9262454509735107,-0.07858447730541229,0.09550392627716064:-0.37183594703674316,-0.32398995757102966,-0.2940214276313782,-0.7543323040008545,0.9111576080322266,-0.63385009765625,-0.018647855147719383,1.5549378395080566,-0.26203811168670654,0.19262948632240295:0.4805852770805359,-0.011349190957844257,0.3554564416408539,-0.9222177267074585,0.20508438348770142,-0.38614311814308167,-0.09781138598918915,0.7159155607223511,-1.0177842378616333,0.6782886385917664:1.0298457145690918,-0.27369481325149536,0.2471209168434143,-0.4940347969532013,0.44804832339286804,0.13698983192443848,-0.0977168157696724,-0.5780216455459595,0.008437694981694221,-0.4269235134124756:0.07622392475605011,-0.5753214359283447,0.24588683247566223,0.2694258689880371,0.5864177942276001,0.27185896039009094,0.42967963218688965,-0.07991379499435425,-1.5747191905975342,0.3505077064037323:0.38935190439224243,0.014038589783012867,0.3446076214313507,0.46431609988212585,-0.73161780834198,0.24926427006721497,0.8908125162124634,1.0262184143066406,-1.8560222387313843,-0.7909234762191772:-0.0403621681034565,0.20003241300582886,-0.5751592516899109,0.45605888962745667,0.2354147881269455,1.1528300046920776,0.5576221942901611,-0.47437044978141785,-0.1601858288049698,-1.3518530130386353:-0.33054330945014954,0.03018336184322834,0.32380256056785583,-0.38134250044822693,0.3459687829017639,-1.3505656719207764,0.38070812821388245,-0.4344662129878998,0.9823867678642273,0.4338669180870056:0.12467989325523376,0.4687100648880005,1.466973066329956,-0.13057881593704224,0.21279814839363098,-0.43689313530921936,-0.48045584559440613,-1.0842642784118652,-0.353240430355072,0.21228234469890594:0.03535563126206398,0.03899609297513962,0.0823373943567276,-0.036120858043432236,0.022676225751638412,-0.04207730293273926,-0.062188684940338135,0.04159712418913841,-0.0720699280500412,-0.008502046577632427:0.024128949269652367,0.026618126779794693,-0.008328835479915142,-0.04176228493452072,0.015425420366227627,0.060690898448228836,0.02150365151464939,0.4880622327327728,-0.04921916127204895,-0.5371165871620178:0.021203571930527687,-2.3305671215057373,-0.007314659655094147,2.4514899253845215,1.1118465662002563,-0.025237221270799637,0.01939878799021244,-1.1914055347442627,-0.04322569817304611,-0.0061692665331065655:-0.18771913647651672,0.6784123182296753,-1.5051639080047607,1.3562589883804321,0.7078590989112854,-0.11276189982891083,0.0863497406244278,-0.15421603620052338,-0.19241586327552795,-0.6765966415405273:-0.4524754583835602,-0.12179772555828094,0.18564876914024353,-0.06009484827518463,0.2392812818288803,-0.9767813086509705,-0.21162095665931702,0.8888080716133118,0.03746304661035538,0.471576988697052:0.6564032435417175,0.5148488283157349,1.4278860092163086,-1.0437980890274048,0.4671286642551422,-0.08685570955276489,-1.0123759508132935,-0.22889691591262817,-0.5619490146636963,-0.13237886130809784:0.3625580370426178,-0.16425389051437378,1.0261262655258179,-0.21448230743408203,0.100016750395298,-0.5044050812721252,-0.4858347773551941,-0.3079836964607239,-0.3114762008190155,0.4997483491897583:-1.2388534545898438,-0.03396039083600044,0.57625412940979,0.09436706453561783,0.6463610529899597,0.0009609456174075603,0.42779257893562317,0.253567636013031,-0.5798958539962769,-0.1465761512517929:1.168110966682434,0.0690888836979866,-1.2604414224624634,-0.4639989733695984,0.2073938101530075,-0.5757792592048645,0.7832130789756775,-0.03925319388508797,-0.43521004915237427,0.5468906760215759:-0.010621150955557823,-0.15203461050987244,-0.297441691160202,-0.7002835273742676,0.08841487020254135,0.20569860935211182,0.5128259658813477,-0.3127492368221283,-0.08314311504364014,0.7493534684181213:0.48019662499427795,-0.5784361362457275,0.5885664224624634,-0.4984910190105438,0.15182924270629883,0.28982168436050415,0.48847904801368713,-0.916612982749939,0.2905975580215454,-0.29594260454177856:0.9092010855674744,-1.215613842010498,-0.45277124643325806,0.13900621235370636,0.6099132895469666,-0.04708731174468994,0.43300318717956543,-0.28418925404548645,-0.1573697328567505,0.06590790301561356:-0.7571178078651428,-0.2531488239765167,0.12167222797870636,-0.024582961574196815,0.5414958000183105,0.12693388760089874,0.17977851629257202,-0.19991673529148102,-0.18216028809547424,0.4470307230949402:0.6158581972122192,0.1997929811477661,-0.7877283096313477,-0.142024427652359,-0.05966724827885628,0.6622599363327026,0.9164144396781921,-1.0964107513427734,0.16458426415920258,-0.4731048345565796:-1.244762897491455,0.7106210589408875,0.5138654112815857,0.10755965858697891,-0.21341146528720856,-0.15297819674015045,0.2882840037345886,-0.6259791851043701,0.5739513635635376,0.04281695559620857:-1.6603878736495972,1.2954570055007935,0.3307504951953888,0.09567159414291382,0.1618698239326477,-1.1520389318466187,1.642934799194336,-0.7470383644104004,0.9498986601829529,-0.917152464389801:-1.179170846939087,0.1177545040845871,-0.10775239765644073,0.16842034459114075,0.6887699365615845,-0.5459159016609192,-0.7882081270217896,0.4331759810447693,-0.05127697065472603,1.2641793489456177:-0.6862437725067139,0.9749857783317566,0.250806599855423,0.069557324051857,0.796601414680481,-0.02884531393647194,-0.20059488713741302,-1.0977836847305298,-0.07207537442445755,-0.006422349251806736:-0.31393858790397644,-0.24731293320655823,-0.9507759213447571,-0.21933691203594208,0.9760816693305969,-0.08778674900531769,-0.04204355552792549,1.2962749004364014,-0.7336298823356628,0.3224486708641052:0.2354966700077057,-1.065110206604004,-0.30886536836624146,-1.0077168941497803,-0.12412645667791367,1.344162940979004,0.1678437888622284,0.36961475014686584,0.2376609444618225,0.15102723240852356:-0.16519127786159515,-0.9030722975730896,-0.09006541967391968,-0.08561760932207108,0.9582712650299072,0.165138840675354,-0.2780895233154297,-0.3253209888935089,0.05162634328007698,0.6723411083221436:-0.21020779013633728,-1.0364649295806885,-0.3815670311450958,1.1000734567642212,-0.7894232273101807,0.2560523450374603,0.2649915814399719,0.7097947001457214,-0.12276624888181686,0.20954416692256927:0.43718236684799194,-0.5967272520065308,-0.5088277459144592,0.6220148801803589,-0.34237706661224365,-0.3378358483314514,0.9142982363700867,0.5675004720687866,-0.5874873995780945,-0.1676885187625885:-0.5084103941917419,0.1364137828350067,-0.28260794281959534,0.1495867371559143,1.2940255403518677,-0.461600661277771,-0.8578864932060242,0.3880796432495117,0.15916863083839417,-0.01671326905488968:0.12405158579349518,-0.025565320625901222,-1.0544195175170898,0.5207856297492981,0.22298762202262878,0.29532375931739807,0.12442406266927719,0.9020377993583679,-0.5376145243644714,-0.5719676613807678:1.138508915901184,-0.15967725217342377,1.1659013032913208,0.25259870290756226,-1.2249501943588257,1.299302339553833,-0.02206716500222683,-0.6672468781471252,-0.3584379255771637,-1.4239102602005005:0.6493593454360962,-0.1348762810230255,0.092777781188488,-1.1388461589813232,-0.10875766724348068,0.16533087193965912,0.5115354657173157,-0.03343772143125534,-0.1447099894285202,0.1416342407464981:0.1488204002380371,-0.5818307399749756,0.5474151968955994,0.25670185685157776,0.4149084985256195,-0.1987171769142151,-0.2654510736465454,0.11483211070299149,-0.8458423018455505,0.4091768264770508:0.046093616634607315,0.0508618988096714,0.8286047577857971,-0.04711185395717621,-0.8148632049560547,-0.0548807792365551,0.04218469187617302,0.05425337702035904,-0.09399925172328949,-0.011144755408167839:0.020663747563958168,0.022792067378759384,-0.007128020748496056,-0.021111778914928436,0.013151615858078003,-2.4972522258758545,0.018904004245996475,2.4970591068267822,-0.042122870683670044,-0.004969456698745489:0.033950481563806534,-0.14578776061534882,-0.011727634817361832,0.48682060837745667,-0.0662875846028328,-0.04040667042136192,0.031058145686984062,-0.2102002501487732,-0.06921901553869247,-0.00819458905607462:0.10933756828308105,1.1655158996582031,-0.6581209897994995,0.5780816078186035,-0.650184154510498,-0.3162652850151062,0.10002397745847702,-0.04407041147351265,-0.22288069128990173,-0.06145064905285835:0.2769662141799927,-0.29903078079223633,0.37528491020202637,0.13151440024375916,0.06311223655939102,0.22977091372013092,-0.10750015079975128,-0.4596562087535858,0.5940744876861572,-0.8045264482498169:0.14952079951763153,0.41929858922958374,-0.2086832970380783,0.9729810357093811,-0.6175873875617981,-0.651712954044342,0.4323711097240448,0.6709968447685242,-1.3741413354873657,0.2069668173789978:0.9492498636245728,-0.16837497055530548,0.5035166144371033,-0.34587493538856506,-0.150562584400177,-0.350737988948822,0.44816258549690247,-0.45079830288887024,-0.3364540636539459,-0.0980968326330185:-0.15277199447155,0.3674183487892151,0.6123490333557129,-0.2720824182033539,-0.24507483839988708,-0.8445618748664856,0.6338617205619812,0.006316285580396652,-0.318983256816864,0.21356430649757385:0.12593649327754974,0.1679237186908722,-0.15839625895023346,-0.1427542120218277,0.4955660104751587,-1.1020034551620483,0.08317548781633377,0.4911704659461975,0.26319795846939087,-0.223765030503273:1.2478506565093994,-0.996406078338623,-0.27696818113327026,-1.3004800081253052,0.9041959643363953,-1.190980315208435,0.5737207531929016,0.049122318625450134,0.3613002300262451,0.6286894083023071:0.18660764396190643,-0.259496808052063,0.3415006101131439,0.5843638181686401,-0.07092428207397461,-0.14481498301029205,0.8696227073669434,-0.344833105802536,-0.36557871103286743,-0.7964183688163757:0.2372674196958542,-0.44575035572052,0.10690764337778091,-0.019445737823843956,0.12486398220062256,-0.019477544352412224,-0.3801814615726471,-0.27712303400039673,0.44377782940864563,0.22917495667934418:-0.023823250085115433,0.3702658414840698,0.20520241558551788,0.2484375685453415,-0.21643610298633575,-0.5063180327415466,1.591657042503357,-1.8348140716552734,-0.027612490579485893,0.19343388080596924:-0.38370415568351746,-0.18003012239933014,0.603524386882782,-0.4302716851234436,0.347739040851593,-0.48627597093582153,-0.06169922649860382,0.033079273998737335,0.8723281621932983,-0.31468358635902405:-1.7045302391052246,0.07816056907176971,0.6258007884025574,1.3530659675598145,-0.07786308974027634,0.006751814857125282,-0.6384113430976868,0.23246492445468903,0.1823265254497528,-0.05777033418416977:-1.3950592279434204,0.9019244909286499,0.9122650027275085,0.4974243938922882,0.5806607007980347,-0.5151323080062866,0.09550520032644272,-1.207114338874817,0.07699764519929886,0.05251430720090866:0.235181987285614,-0.9551609754562378,-0.35464248061180115,0.18253502249717712,1.3193238973617554,-0.08891938626766205,-0.13561075925827026,0.2282538115978241,-0.028415178880095482,-0.40257585048675537:-0.9722317457199097,0.17401984333992004,0.5020952224731445,-0.9470174312591553,0.9589014053344727,-0.8500258326530457,0.4431699514389038,0.017455272376537323,0.003293873742222786,0.6703203916549683:0.138417050242424,-1.483603835105896,1.6811587810516357,-0.5940985679626465,0.49250730872154236,-0.13368770480155945,-0.8739453554153442,0.21143710613250732,-0.12824295461177826,0.6900301575660706:-0.6306999325752258,-0.30199000239372253,-0.6965712308883667,0.7808223962783813,0.3263537883758545,-0.864954948425293,-0.04628637433052063,0.943835437297821,0.24445092678070068,0.24502848088741302:-0.2724840044975281,-0.8008893132209778,-0.07933174818754196,0.8930420875549316,0.7639574408531189,0.25011634826660156,0.3609967827796936,0.20138464868068695,-1.0945844650268555,-0.22219447791576385:0.5187568664550781,-0.2853032052516937,-0.6912647485733032,0.6785488724708557,0.31344345211982727,0.3832114338874817,-0.6795713901519775,0.6632286310195923,-0.8565171360969543,-0.044501494616270065:-0.20041443407535553,-0.18143592774868011,0.8049613833427429,-0.08351301401853561,0.8307854533195496,-0.2673362195491791,0.22949814796447754,-0.19208356738090515,-0.49756258726119995,-0.4428500533103943:-0.2796238362789154,-0.09068568795919418,0.10348326712846756,-0.23301516473293304,-0.3291114270687103,1.2259653806686401,-0.02673608995974064,-0.13410931825637817,-1.0427305698394775,0.8066118955612183:-0.07290926575660706,-0.21257779002189636,0.2175873965024948,0.2796376347541809,0.18269214034080505,-0.13250187039375305,-0.6043540239334106,-0.03631782531738281,0.44076839089393616,-0.06199370324611664:0.45556357502937317,0.5342060327529907,0.43997257947921753,1.4010366201400757,-0.11084689944982529,-0.9191663861274719,0.019839970394968987,-0.0738968551158905,-0.993009090423584,-0.7536689043045044:0.21275274455547333,-0.8919529318809509,0.6806924343109131,-0.9143301248550415,0.8964526057243347,0.337097704410553,0.4454708695411682,-0.6019921898841858,0.33340761065483093,-0.49759194254875183:-0.673834502696991,1.1206477880477905,0.6320520043373108,-0.18006834387779236,0.0072818598710000515,-0.8979870080947876,0.17214632034301758,-0.4240921139717102,-0.44866904616355896,0.6925281882286072:-1.1486777067184448,0.049909528344869614,1.1722052097320557,-0.04622974619269371,0.03513751178979874,-0.05385313183069229,0.04139519855380058,0.05323846638202667,-0.09223899990320206,-0.010881531052291393:0,0,0,0,0,0,0,0,0,0:-1.5862641334533691,1.6333509683609009,-0.030717389658093452,-0.34305116534233093,0.006912707816809416,-0.05495213717222214,0.0413597971200943,0.43857479095458984,-0.09218452870845795,-0.013021131977438927:-0.02032710239291191,-0.3690066337585449,0.33991533517837524,-0.2908827066421509,1.1533178091049194,-0.4430180788040161,0.1175912618637085,-0.0038768425583839417,-0.26206469535827637,-0.22165386378765106:0.20831291377544403,-0.5251829624176025,0.40319254994392395,-0.4389409124851227,-0.3243924677371979,-0.19883178174495697,-0.003155465703457594,0.3831917643547058,-0.02406858094036579,0.5198803544044495:-0.23130512237548828,0.17911721765995026,-0.007854443974792957,0.5870243906974792,0.00159827945753932,0.6011099219322205,-0.8475902080535889,0.04366608336567879,0.5439605116844177,-0.8697113394737244:0.22751078009605408,-0.3392912745475769,0.1174059808254242,0.07934589684009552,-0.6910179853439331,-0.3547322750091553,1.0545752048492432,0.23113559186458588,-0.1335601508617401,-0.19133174419403076:0.7214645743370056,-0.0022555082105100155,0.7091630101203918,-0.6968251466751099,0.21703344583511353,1.0130728483200073,-0.909456729888916,0.0779430940747261,0.030583683401346207,-1.1606661081314087:0.04941844195127487,-0.24761970341205597,0.10882875323295593,0.490448921918869,0.4506124258041382,-0.6367875933647156,-0.7650737762451172,-0.1946130245923996,0.22000521421432495,0.524842381477356:-0.49331942200660706,0.09966008365154266,0.41044241189956665,-0.5393086671829224,-0.07674820721149445,0.3073740005493164,0.7573167085647583,-0.4336455166339874,-0.05188193917274475,0.020168012008070946:-0.056746892631053925,-0.29880964756011963,0.4330832362174988,-1.3600331544876099,0.35236257314682007,-0.6146541833877563,0.6332995891571045,0.3677147626876831,0.5345126390457153,0.009304400533437729:0.6957617998123169,0.47697269916534424,0.9142763018608093,-1.0659745931625366,-0.27392175793647766,-0.6871632933616638,1.2983249425888062,-1.632529854774475,-0.3700873553752899,0.6443698406219482:-0.2796882390975952,-0.4589933454990387,0.17572759091854095,-0.3418077230453491,-0.022239021956920624,0.009309488348662853,1.4164680242538452,-0.2956417500972748,0.39009833335876465,-0.5932135581970215:-0.27000656723976135,0.5497215986251831,0.06808871030807495,-0.15173526108264923,-0.22156020998954773,-0.8842434883117676,-0.06938575208187103,0.11876554042100906,0.32376763224601746,0.5366119146347046:-0.8908606171607971,1.0044890642166138,0.7741656303405762,-0.6566289067268372,0.41126251220703125,-1.3196805715560913,0.38223499059677124,-0.08091911673545837,0.28098899126052856,0.09495021402835846:-0.5110777616500854,0.8336851596832275,0.2126496136188507,-1.0897586345672607,0.5155243873596191,-0.7112360000610352,0.6804006099700928,0.4357093572616577,0.06259042769670486,-0.42849162220954895:-0.7722581624984741,-0.16037701070308685,0.9300980567932129,-0.8790634870529175,0.3376283645629883,-0.20520955324172974,0.19307826459407806,0.06458738446235657,-0.26333969831466675,0.7548467516899109:-0.2433859258890152,-0.2803265452384949,0.3635699450969696,-0.15455886721611023,0.461331307888031,0.03667391091585159,-0.27091237902641296,-0.1422567069530487,0.49566060304641724,-0.2658088505268097:0.564432680606842,-1.4115887880325317,-0.9503101110458374,0.8460997343063354,0.749023973941803,0.4279145300388336,-0.0011713085696101189,-0.340519517660141,0.11347978562116623,0.0026254099793732166:-0.6816308498382568,-0.1724551022052765,-0.1769118309020996,0.0524224154651165,0.39567339420318604,0.9228609204292297,0.41905784606933594,0.20173300802707672,-1.2360045909881592,0.2752687633037567:0.02311750501394272,-0.2792932689189911,-0.4222506880760193,0.7746226787567139,-0.4646974205970764,0.5481090545654297,0.050842978060245514,-0.5476151704788208,0.34917905926704407,-0.0319933257997036:0.755878210067749,-0.12350472062826157,-0.17641812562942505,-1.0381875038146973,-0.28981536626815796,-0.1654502898454666,0.24716290831565857,1.7445735931396484,-0.1344921588897705,-0.8197097182273865:-0.6079009175300598,-0.1037241518497467,0.0582723543047905,0.018793020397424698,0.35597044229507446,0.9356755018234253,0.8108139038085938,-1.2065589427947998,0.42244774103164673,-0.6837366819381714:0.4098246097564697,-0.18228158354759216,-0.5479757785797119,0.3881135582923889,0.09059705585241318,-0.5681841373443604,0.3025968074798584,0.47010111808776855,0.3930961787700653,-0.755851686000824:-0.2305098921060562,-0.13745835423469543,-0.05815550684928894,-0.021537315100431442,0.10395193845033646,0.15123401582241058,0.825863242149353,-0.7489071488380432,-0.24809886515140533,0.36364057660102844:-0.6058475375175476,0.02648152969777584,-0.30924558639526367,-0.5781807899475098,-0.4224792420864105,0.48951271176338196,0.12591664493083954,0.7594013214111328,1.185189962387085,-0.6707528233528137:0.4924219846725464,-0.5149406790733337,1.0775986909866333,-1.2321580648422241,0.15432018041610718,-0.04412541911005974,0.2743213474750519,0.47844937443733215,-0.8343455195426941,0.14846491813659668:-5.475367546081543,1.5567516088485718,1.4263594150543213,-0.18581289052963257,0.7005068063735962,0.10299583524465561,0.6903170943260193,1.0124114751815796,0.2159922569990158,-0.044130839407444:3.45489501953125,-4.94909143447876,0.9323585033416748,-0.05539020523428917,0.7137459516525269,-0.06453178077936172,0.027776794508099556,0.06378770619630814,-0.11051619797945023,-0.01303766667842865:0.029894161969423294,-1.7341382503509521,-0.010311736725270748,-0.12407618761062622,0.010833993554115295,-0.03558288887143135,0.02734752930700779,1.5265858173370361,-0.06093769893050194,0.3703983724117279:-2.321601152420044,-1.7546056509017944,-0.014824910089373589,2.9255504608154297,0.020622437819838524,-0.03854760527610779,0.029413022100925446,1.227800726890564,-0.0655437782406807,-0.008259995840489864:-0.23199355602264404,0.07415308803319931,-0.3233966827392578,0.926702082157135,-0.4010758101940155,-0.5283441543579102,0.15424104034900665,0.5808632373809814,-0.3437637686729431,0.09262026846408844:-0.2955821454524994,-0.05492369085550308,0.7772554159164429,0.08462507277727127,-0.29028135538101196,0.2269648164510727,0.4804714322090149,0.8103415369987488,-1.8211090564727783,0.08224798738956451:0.014372942969202995,-0.27295154333114624,0.3727917969226837,0.2845633924007416,-0.24481534957885742,0.28705862164497375,0.41343051195144653,0.03984805941581726,-0.052952349185943604,-0.8413230776786804:-0.4447135925292969,-0.7211871147155762,1.573399305343628,0.8455610275268555,-0.07408412545919418,0.2726074755191803,-0.8227496147155762,-0.02331296168267727,0.43180155754089355,-1.0372849702835083:0.019941234961152077,-1.2123280763626099,0.2994176745414734,0.9238870143890381,0.22558259963989258,0.3904690146446228,-0.2858886420726776,-1.2797521352767944,0.27537116408348083,0.6433588266372681:-0.5883203744888306,-0.9231427907943726,1.5465188026428223,-0.8086628317832947,0.22838251292705536,-0.17457686364650726,1.4431755542755127,-0.039240092039108276,-0.27174603939056396,-0.4123189151287079:1.5018764734268188,-0.5744852423667908,-0.08717584609985352,-0.2672611474990845,0.19682960212230682,-0.5271329283714294,0.00797269120812416,-0.22820916771888733,0.5023596286773682,-0.5247137546539307:0.8860610723495483,-0.44254395365715027,-0.5787767171859741,-0.5990940928459167,0.5358406901359558,0.0725293904542923,0.11086449772119522,-0.21628424525260925,0.5875675678253174,-0.3561209440231323:0.8078713417053223,-0.5438748002052307,0.8382094502449036,-0.48843085765838623,-1.5327482223510742,0.33280709385871887,0.1027415320277214,-0.7478320002555847,0.7644884586334229,0.46679574251174927:0.379350483417511,-0.041824232786893845,0.3941406011581421,-0.47420042753219604,-0.23527641594409943,-0.2579486668109894,-0.8245373964309692,0.10229908674955368,0.3340609073638916,0.6239644885063171:0.1839432567358017,-0.13797925412654877,0.9839158058166504,-1.3724654912948608,0.9158757328987122,-0.1510923206806183,1.6637279987335205,-1.3669869899749756,0.3488321304321289,-1.0677337646484375:-1.2812752723693848,-0.031895603984594345,0.38608333468437195,-0.7284769415855408,0.6056060194969177,-0.22864852845668793,1.3570911884307861,0.05707637593150139,0.2741847038269043,-0.40973591804504395:-1.0583175420761108,0.8311572074890137,0.49777284264564514,-0.45161792635917664,0.46535375714302063,0.7875113487243652,-1.1596248149871826,-0.7323393225669861,-0.003276667557656765,0.8233749270439148:-0.24194207787513733,-0.18708066642284393,0.2839334011077881,0.16466252505779266,0.2038819044828415,-0.018896205350756645,0.3953518271446228,-0.8809047341346741,0.5831562280654907,-0.3021658957004547:0.04968196526169777,-1.0552905797958374,0.012311253696680069,0.5972700119018555,0.5463377237319946,0.08904275298118591,-0.12144158035516739,0.021320991218090057,-0.6373904347419739,0.4981655180454254:-0.33431991934776306,0.3345671594142914,0.8647087812423706,0.11827919632196426,-0.8903394341468811,0.2657099664211273,0.897426962852478,-0.539375901222229,-0.9422609806060791,0.22562439739704132:0.2928454577922821,0.15137425065040588,0.309216171503067,0.15916003286838531,-0.3766093850135803,-0.5397640466690063,0.03567022085189819,0.3966791033744812,-0.21629191935062408,-0.2122512310743332:-0.45374536514282227,-0.4325604736804962,0.6438120603561401,0.6883443593978882,0.09026506543159485,0.24521340429782867,0.1767890453338623,-0.6106970310211182,-0.35032418370246887,0.0029404209926724434:-0.5775530338287354,0.2747689485549927,-0.004625157453119755,0.5833976864814758,0.22417692840099335,-0.43395766615867615,-0.2680424749851227,-0.2525629699230194,0.5613731741905212,-0.10693839192390442:-0.06408146768808365,-0.37437885999679565,0.3566875755786896,0.6243422031402588,0.11388556659221649,-0.38062357902526855,-0.08137200027704239,-0.06047274172306061,-0.2681802809238434,0.13423432409763336:-0.07851976901292801,-0.6326445937156677,0.17410722374916077,0.795696496963501,-0.8488290309906006,1.0858134031295776,-0.6038429737091064,0.046201806515455246,0.18707375228405,-0.12502814829349518:0.5763867497444153,-0.6056299209594727,0.07071845233440399,0.7119054794311523,0.40191036462783813,0.4389582872390747,-0.6967650055885315,-0.21712803840637207,0.15511775016784668,-0.8354625701904297:0.46453478932380676,0.5211309790611267,0.5224221348762512,-0.23724034428596497,0.25628137588500977,0.152480348944664,0.006568436045199633,-0.7983034253120422,-0.49763739109039307,-0.39022359251976013:0.7581709027290344,-0.03964206576347351,0.41672173142433167,-0.6319278478622437,-0.796978235244751,-0.6439512372016907,1.0166529417037964,-0.41109153628349304,0.5533459782600403,-0.22128453850746155:-0.6669772267341614,0.07706453651189804,-0.4768298864364624,-0.16323444247245789,0.2419370859861374,0.23232218623161316,0.062329843640327454,0.7544419765472412,-0.02248777449131012,-0.03854171186685562:-2.5015745162963867,2.3041179180145264,1.270320177078247,-0.19576427340507507,-0.5763660073280334,-0.0588601678609848,0.04116746783256531,0.05727580189704895,-0.3167538642883301,-0.023521538823843002:0.020664451643824577,2.472313642501831,-0.0071279751136898994,-2.470628499984741,0.013254093937575817,-0.024593083187937737,0.01890397258102894,0.024312371388077736,-0.04212290048599243,-0.00496924901381135:-0.11165013164281845,-0.07582066208124161,-0.8161078691482544,0.5832902193069458,0.036626871675252914,-0.06796164065599442,0.05224016308784485,0.531285285949707,-0.11640436202287674,-0.015501563437283039:-0.13436104357242584,0.19537150859832764,-0.012254203669726849,-0.058176130056381226,-0.1428455263376236,0.335433691740036,0.18306978046894073,0.12762637436389923,-0.4102993905544281,-0.08355941623449326:0.16946518421173096,0.08117009699344635,-0.4245266914367676,0.13689427077770233,0.9606411457061768,-0.4014337360858917,-0.6933637857437134,0.18297013640403748,-0.24539855122566223,0.23359723389148712:-0.4373621642589569,-0.2731367349624634,-0.11132185906171799,-0.3445177376270294,-0.5324015021324158,0.5977874398231506,-0.004541318863630295,0.9210456013679504,0.19401006400585175,-0.009548665955662727:0.5900512933731079,-1.4615118503570557,-0.17145530879497528,0.47246620059013367,0.9138467907905579,0.030942877754569054,-0.4093199670314789,0.009886663407087326,0.20231878757476807,-0.177191361784935:0.3389168977737427,0.34809908270835876,-0.8578159809112549,-0.3929578363895416,-0.3603837490081787,0.47712644934654236,0.4003429114818573,-0.9063540101051331,0.23082828521728516,0.7222399711608887:0.309581458568573,0.8380122780799866,-0.03133039548993111,-0.3174588084220886,-0.2840009033679962,0.17346352338790894,-0.10574638843536377,-0.873490571975708,