-7.691354751586914,-8.543879508972168,3.6529483795166016,7.598267078399658,-3.7858211994171143,9.082964897155762,-6.869406223297119,-9.330618858337402,13.968865394592285,1.9167934656143188:0,0,0,0,0,0,0,0,0,0:0,0,0,0,0,0,0,0,0,0:0,0,0,0,0,0,0,0,0,0:0,0,0,0,0,0,0,0,0,0:0,0,0,0,0,0,0,0,0,0:0,0,0,0,0,0,0,0,0,0:0,0,0,0,0,0,0,0,0,0:0,0,0,0,0,0,0,0,0,0:0,0,0,0,0,0,0,0,0,0:0,0,0,0,0,0,0,0,0,0:0,0,0,0,0,0,0,0,0,0:0,0,0,0,0,0,0,0,0,0:0.03359599784016609,0.03774765133857727,-2.462233304977417,-0.033569756895303726,0.016725724563002586,-0.040129344910383224,2.476835012435913,0.041223857551813126,-0.06171567738056183,-0.008468625135719776:0.04396805539727211,0.049168910831213,-0.19885613024234772,-0.043727025389671326,0.021783722564578056,-0.05227120965719223,0.21766385436058044,0.053696662187576294,-0.080388642847538,-0.011030909605324268:0.031400129199028015,0.034880563616752625,2.8923819065093994,-0.03102009929716587,0.01545120868831873,-0.03708142042160034,-2.879241943359375,0.03809264302253723,-0.057028014212846756,-0.007825362496078014:0.031400129199028015,0.034880563616752625,2.8923819065093994,-0.03102009929716587,0.01545120868831873,-0.03708142042160034,-2.879241943359375,0.03809264302253723,-0.057028014212846756,-0.007825362496078014:0,0,0,0,0,0,0,0,0,0:0,0,0,0,0,0,0,0,0,0:0,0,0,0,0,0,0,0,0,0:0,0,0,0,0,0,0,0,0,0:0,0,0,0,0,0,0,0,0,0:0,0,0,0,0,0,0,0,0,0:0,0,0,0,0,0,0,0,0,0:0,0,0,0,0,0,0,0,0,0:0,0,0,0,0,0,0,0,0,0:0,0,0,0,0,0,0,0,0,0:0,0,0,0,0,0,0,0,0,0:0,0,0,0,0,0,0,0,0,0:0,0,0,0,0,0,0,0,0,0:0,0,0,0,0,0,0,0,0,0:0,0,0,0,0,0,0,0,0,0:0,0,0,0,0,0,0,0,0,0:0.03140011429786682,0.03488055244088173,-0.014913231134414673,-0.03102007322013378,0.015455755405128002,-0.037081364542245865,0.028044424951076508,0.03809263929724693,-0.05702792853116989,-0.00782539788633585:0.03622404858469963,0.04023902863264084,-0.0172042828053236,-0.03578558936715126,0.01783013716340065,-0.04277805984020233,0.03235276788473129,0.04394454509019852,-0.06578940898180008,-0.009027526713907719:0.06767965853214264,0.07518142461776733,-0.10460089892148972,-0.06686097383499146,0.033313266932964325,-0.07992520928382874,0.13290421664714813,0.08210507780313492,-0.12291823327541351,-0.01686689630150795:0.08914913982152939,0.09903069585561752,-1.104883074760437,-0.08807049691677094,0.04388074949383736,-0.10527912527322769,1.1421654224395752,0.10815001279115677,-0.16191032528877258,-0.022217294201254845:0.11352281272411346,0.12610597908496857,-0.48465412855148315,-0.11214831471443176,0.04919750988483429,-0.13406245410442352,0.5388134121894836,0.13771851360797882,-0.20617756247520447,-0.028291460126638412:0.14833641052246094,0.1647794544696808,-0.10382262617349625,-0.14654141664505005,0.07057560235261917,-0.17517545819282532,0.16829492151737213,0.1799527108669281,-0.2694058120250702,-0.036967746913433075:-0.0075392648577690125,0.21075774729251862,0.1967540681362152,-0.18745805323123932,0.07253286987543106,-0.2240932732820511,0.10084886848926544,0.23018015921115875,-0.34462568163871765,-0.047348979860544205:0.5003200769424438,0.24819716811180115,-0.482920378446579,-0.22089321911334991,-0.06172040104866028,-0.2640886902809143,0.4719304144382477,0.2711537480354309,-0.4060918092727661,-0.05588236823678017:1.1332824230194092,0.2613216042518616,-0.03564316779375076,-0.23246806859970093,-0.24305066466331482,-0.27794602513313293,-0.011079994961619377,-0.10840689390897751,-0.427334725856781,-0.0586598664522171:0.6319116950035095,-0.05546102672815323,0.04742726683616638,-0.23679327964782715,-0.6444550156593323,-0.2831079661846161,0.7684615850448608,0.26709461212158203,-0.43531522154808044,-0.0597362257540226:-0.34511277079582214,0.38672035932540894,-0.1907254010438919,-0.2428518533706665,1.035557746887207,-0.2903081774711609,-0.14371369779109955,0.29821211099624634,-0.44646334648132324,-0.06129685789346695:0.4515111744403839,0.8674315214157104,0.3202686607837677,-0.22947479784488678,-1.6695029735565186,-0.2743174135684967,0.7716624736785889,0.24957624077796936,-0.4218709468841553,-0.06526071578264236:1.031825304031372,-0.4334290623664856,0.3909144699573517,-0.23790086805820465,-0.26541614532470703,-0.28448253870010376,0.1155262216925621,0.20685243606567383,-0.4373626410961151,-0.08651850372552872:0.30840373039245605,0.19170378148555756,0.0109913544729352,-0.2156708985567093,0.038193099200725555,-0.25789180397987366,0.16753649711608887,0.21997877955436707,-0.3964967429637909,-0.06673935800790787:-0.5305699110031128,0.19684500992298126,0.3709414005279541,-0.175679549574852,0.06943449378013611,-0.21002919971942902,0.4306623637676239,0.21573424339294434,-0.3229759931564331,-0.044332314282655716:0.14731775224208832,0.16376474499702454,-0.08430948853492737,-0.14564266800880432,0.041376613080501556,-0.17410637438297272,0.17732493579387665,0.17884434759616852,-0.26776760816574097,-0.03677874431014061:0.12900115549564362,0.14330728352069855,-0.061661552637815475,-0.12744727730751038,-0.16587568819522858,-0.15236109495162964,0.3450470566749573,0.15650098025798798,-0.23430778086185455,-0.03218349441885948:0.08457594364881516,0.09395236521959305,-0.040171507745981216,-0.08355454355478287,0.012410352937877178,-0.09988658130168915,0.10476988554000854,0.10260429978370667,-0.15360845625400543,-0.02107900008559227:0.06403002142906189,0.07112682610750198,-0.03041955828666687,-0.06325546652078629,-0.9011298418045044,-0.07561606913805008,0.9898545742034912,0.07767090201377869,-0.11629024893045425,-0.015957975760102272:0.03369343280792236,0.03742577135562897,-0.016020599752664566,-0.033285852521657944,-1.9402101039886475,-0.03978976234793663,1.9869219064712524,0.04086051136255264,-0.06119353696703911,-0.00839839968830347:0,0,0,0,0,0,0,0,0,0:0,0,0,0,0,0,0,0,0,0:0,0,0,0,0,0,0,0,0,0:0,0,0,0,0,0,0,0,0,0:0,0,0,0,0,0,0,0,0,0:0,0,0,0,0,0,0,0,0,0:0.031400103121995926,-2.4391603469848633,-0.014913257211446762,-0.03102010302245617,0.015455772168934345,-0.037081364542245865,2.5020623207092285,0.03809264674782753,-0.05702797323465347,-0.007825384847819805:5.950656890869141,-1.2643612623214722,-1.1376841068267822,-0.04099530726671219,0.02042567729949951,-1.0916961431503296,-2.4010372161865234,0.05034182220697403,-0.07536699622869492,-0.01034179050475359:0.09358544647693634,0.07281553000211716,-0.8952638506889343,-0.06475608050823212,-0.34050190448760986,-0.0782756358385086,1.2682843208312988,0.07952041923999786,-0.11905001103878021,-0.016335876658558846:-0.8693386316299438,0.10240057855844498,-0.8132690787315369,-0.42496994137763977,0.04537411406636238,-0.10886116325855255,2.147221088409424,0.11183059960603714,-0.16742028295993805,-0.022973231971263885:-0.48360899090766907,0.15083613991737366,-0.8912585377693176,-0.3996178209781647,0.06683486700057983,-0.16035231947898865,1.8328975439071655,0.16472330689430237,-0.24660935997962952,-0.03383978083729744:1.1347112655639648,0.23667624592781067,0.543958306312561,-0.26894882321357727,-1.1484986543655396,-0.251698762178421,0.26975393295288086,-0.07573778182268143,-0.3870919644832611,-0.053117137402296066:-0.16288454830646515,0.2611617147922516,-0.12094026058912277,-0.28131818771362305,-0.0968005508184433,-0.33627691864967346,1.0399521589279175,0.2852582037448883,-0.5171679854393005,-0.0709652304649353:-0.03693419322371483,0.11541854590177536,1.4055410623550415,-0.3975010812282562,-0.15409614145755768,-0.473735511302948,0.5221285820007324,0.44065406918525696,-1.3205491304397583,-0.1009213924407959:0.0075354138389229774,0.413838267326355,1.5767265558242798,0.42719632387161255,-0.7673438191413879,-0.7884243130683899,2.048093557357788,0.4507516026496887,-3.239171266555786,-0.12915876507759094:-0.4177093505859375,0.9760032892227173,1.0319266319274902,0.481251984834671,-0.581253707408905,-1.086512565612793,1.3524463176727295,0.5908421277999878,-2.187680721282959,-0.15928812325000763:-0.6987907290458679,0.23896156251430511,1.2309235334396362,0.6982378959655762,-0.2542564868927002,-1.1281304359436035,0.7251636981964111,0.769206702709198,-1.3905662298202515,-0.1907261461019516:0.5255607962608337,1.1658990383148193,-0.14618539810180664,-0.229423388838768,0.5666911005973816,-1.1915698051452637,0.14039309322834015,1.002236008644104,-1.612379550933838,-0.22118890285491943:-0.42973247170448303,0.07433262467384338,0.46102187037467957,0.4665009081363678,1.1849980354309082,-0.804446280002594,0.6950693130493164,0.40879926085472107,-1.8076565265655518,-0.24885182082653046:-1.4749422073364258,1.6691309213638306,1.140241265296936,-0.8513457179069519,0.7625698447227478,0.7425729632377625,0.1902431696653366,0.05206122621893883,-1.9442992210388184,-0.286207914352417:-0.8992263674736023,0.5987380146980286,0.32671359181404114,0.587664008140564,0.3336026072502136,0.13834248483181,0.6017797589302063,0.609086811542511,-1.9732335805892944,-0.32343801856040955:-1.0457203388214111,0.8127808570861816,-0.09652147442102432,0.3383837938308716,-0.4534609913825989,0.5661401748657227,0.5501220226287842,1.0891566276550293,-1.4491773843765259,-0.31164684891700745:0.11961635202169418,-0.8058191537857056,0.20908863842487335,-0.4185892939567566,-0.27547502517700195,-0.23549912869930267,0.05844882130622864,1.0236643552780151,0.6086884140968323,-0.28404614329338074:0.07591740787029266,1.4887409210205078,-1.3736090660095215,-0.9531494379043579,0.1390160620212555,0.8328391313552856,0.7197006344795227,0.6115104556083679,-1.326748251914978,-0.21413350105285645:-1.4076985120773315,1.0075349807739258,1.2309650182724,-0.8076815009117126,-0.9489307999610901,0.659557044506073,1.7644120454788208,-0.23741097748279572,-1.1039984226226807,-0.15668761730194092:-1.7432668209075928,0.4372369647026062,1.6227257251739502,-0.661687433719635,0.6758349537849426,0.3630703091621399,0.7883356809616089,-0.5764465928077698,-0.7961447834968567,-0.10962340980768204:-0.2689540684223175,0.31862545013427734,-11.014540672302246,-0.4219522178173065,3.6103427410125732,3.679035186767578,4.4590349197387695,0.2687969207763672,-0.5539724826812744,-0.07642686367034912:-0.00366063485853374,0.19198347628116608,2.023206949234009,-0.18030670285224915,-1.1849682331085205,-1.0485655069351196,0.3581055998802185,0.22141440212726593,-0.33168917894363403,-0.04548593983054161:-1.1577726602554321,0.1203635185956955,2.1941375732421875,-0.10705128312110901,-0.9773697853088379,-1.1678324937820435,1.1880593299865723,0.13145799934864044,-0.19695723056793213,-0.027005547657608986:-2.1025283336639404,0.0669063925743103,2.830993413925171,-0.05950143188238144,-1.4669878482818604,-0.07112770527601242,0.8536108732223511,0.07306728512048721,-0.10938825458288193,-0.015010247007012367:0,0,0,0,0,0,0,0,0,0:0,0,0,0,0,0,0,0,0,0:0,0,0,0,0,0,0,0,0,0:0,0,0,0,0,0,0,0,0,0:0.041290052235126495,4.031354904174805,0.8927904367446899,-0.7625606060028076,0.020323755219578743,-0.04876065254211426,-1.341261863708496,-0.7290115356445312,-2.0938992500305176,-0.010290104895830154:-4.710812568664551,0.4007580280303955,2.160308837890625,-1.4259397983551025,0.03358299657702446,0.9946967959403992,3.8382413387298584,-0.9952155351638794,-0.278596967458725,-0.017003433778882027:0.6317057609558105,-1.2274816036224365,0.20097102224826813,-1.8523988723754883,0.04948531463742256,1.9424760341644287,0.3484336733818054,0.1303139626979828,-0.19656261801719666,-0.026972034946084023:1.6799787282943726,-2.4869627952575684,1.6828479766845703,1.989418387413025,-0.08420176804065704,-1.8889410495758057,-0.7469910383224487,0.2066456824541092,-0.309367299079895,-0.04245145991444588:-0.36381128430366516,0.29266121983528137,0.2630828619003296,0.1720626801252365,-0.5281859040260315,-0.7477051019668579,1.1425423622131348,0.32819411158561707,-0.49143874645233154,-0.06743375211954117:-0.8512187004089355,0.4430546164512634,1.3973451852798462,0.536907970905304,1.5439094305038452,-1.8655292987823486,1.1185410022735596,0.3011692464351654,-2.5187320709228516,-0.10547102242708206:0.7550710439682007,-0.31448787450790405,-0.3111073076725006,1.5872753858566284,-0.7804566621780396,-0.050256744027137756,-0.2038078010082245,-0.18593323230743408,-0.26738402247428894,-0.22890207171440125:-0.2920803725719452,0.06712621450424194,1.115522027015686,0.24111227691173553,-2.0247581005096436,-0.012721039354801178,1.4073946475982666,-0.4071701169013977,0.23797450959682465,-0.33238494396209717:-1.0460686683654785,-0.060407854616642,-0.8378553986549377,0.009973662905395031,1.157333254814148,1.2906984090805054,-0.27664807438850403,-0.15605886280536652,0.18507397174835205,-0.26600146293640137:1.1492406129837036,-0.8917515873908997,1.006868600845337,0.716867208480835,-0.6565016508102417,-0.9978682398796082,0.9417192935943604,-1.2538639307022095,0.31887087225914,-0.3335544764995575:-0.7953925132751465,0.5632592439651489,-0.27431997656822205,1.476806402206421,-1.1187572479248047,1.2382220029830933,0.2736116945743561,-0.5599784851074219,-0.0021921542938798666,-0.8012194037437439:1.124879240989685,0.4174209535121918,0.981318473815918,0.2716723084449768,-2.9199302196502686,0.3108607232570648,0.8568994998931885,-1.1723188161849976,1.3653934001922607,-1.2361513376235962:1.2349857091903687,0.046233464032411575,0.49208182096481323,1.2617844343185425,-0.6597815155982971,-0.04482342302799225,0.30018186569213867,-0.8996598124504089,-0.6570285558700562,-1.0739325284957886:-0.5394580364227295,0.6070535182952881,0.19500337541103363,0.6807847023010254,-1.3104320764541626,0.8229689598083496,0.5118862390518188,-0.44092461466789246,0.39791378378868103,-0.9247552156448364:1.1311569213867188,-0.42606204748153687,0.31461530923843384,0.38120022416114807,0.07049467414617538,-0.013537036255002022,0.009774520061910152,-0.6360540986061096,0.27853286266326904,-1.1100547313690186:0.1911569982767105,0.014680447056889534,0.49608927965164185,0.19230395555496216,0.30422595143318176,0.9261214733123779,-0.6761640310287476,-0.31876155734062195,-0.2687370181083679,-0.8608487844467163:0.4045983552932739,-0.5504245162010193,-0.694247841835022,0.357622891664505,-1.2150641679763794,-0.09156172722578049,0.3070875406265259,-0.045577872544527054,0.9146738052368164,0.6129695773124695:-0.21167322993278503,-0.5471204519271851,-0.0022959457710385323,0.2612942159175873,0.767787516117096,0.41454148292541504,0.48718157410621643,-0.26649147272109985,-0.48273998498916626,-0.420411616563797:0.8714295029640198,0.1701030731201172,0.30818358063697815,1.4287142753601074,-0.49347200989723206,0.5982549786567688,-0.039665982127189636,-1.8239339590072632,-0.37616488337516785,-0.6433975696563721:-0.3769419193267822,0.4342917799949646,0.02615908719599247,-0.22391349077224731,0.09254875779151917,0.7024474143981934,0.7409278750419617,-1.3044390678405762,0.2980329096317291,-0.38907676935195923:0.09047991782426834,-0.09334307163953781,0.7952916026115417,-0.43008118867874146,0.05912065878510475,-0.8805460929870605,0.2559541165828705,0.5376785397529602,-0.1614961475133896,-0.17304755747318268:0.5472477674484253,-0.08756737411022186,-2.23517107963562,-1.3629426956176758,0.5844442844390869,0.2627497613430023,0.9845679998397827,0.4272431433200836,0.9697479605674744,-0.09029805660247803:0.9592682123184204,0.14781518280506134,-2.403796672821045,-0.22950290143489838,-0.051805343478918076,0.18324346840381622,0.749415397644043,0.2728496193885803,0.4304514527320862,-0.0579235814511776:-0.14542993903160095,0.08981630951166153,1.3374838829040527,-0.11581127345561981,0.315794974565506,-0.5262054204940796,-0.5726667046546936,0.1422162801027298,-0.49597325921058655,-0.029215363785624504:-0.5808219313621521,0.045143723487854004,-2.101637601852417,-0.04014701023697853,-1.04584801197052,3.0417330265045166,0.7162183523178101,0.04930064454674721,-0.07380720227956772,-0.01012782845646143:0,0,0,0,0,0,0,0,0,0:0,0,0,0,0,0,0,0,0,0:0.03140012547373772,0.034880563616752625,-0.01491330936551094,-0.030966315418481827,0.015455582179129124,-0.037134040147066116,0.028044413775205612,0.03809265047311783,-0.057027969509363174,-0.007825381122529507:0.05950133875012398,0.30136626958847046,0.4485224187374115,0.42121753096580505,0.018251672387123108,-0.07051826268434525,0.5604761242866516,-2.321852922439575,0.5979856848716736,-0.014880943112075329:1.3275967836380005,-0.9056761264801025,0.07862909883260727,-0.7581119537353516,-1.2284753322601318,0.2075306624174118,-0.5504243969917297,3.452507734298706,-1.5949934720993042,-0.0285490732640028:-0.029755717143416405,-0.32301491498947144,-0.19016073644161224,0.19313327968120575,0.8793991208076477,-0.521207332611084,-0.47018301486968994,0.9374224543571472,-0.42968130111694336,-0.045949243009090424:-2.4303314685821533,1.2485995292663574,0.6967846155166626,0.7577410340309143,0.8706075549125671,-0.3185635209083557,2.684743642807007,-2.6529009342193604,-0.7598838210105896,-0.09683513641357422:0.19624625146389008,0.7544466853141785,0.803721010684967,1.333289384841919,-0.16981551051139832,1.146672010421753,-0.17971853911876678,-4.339017868041992,0.6067870855331421,-0.15259748697280884:1.1096092462539673,-1.0335737466812134,-0.430509090423584,-0.1582307368516922,0.9850732684135437,0.5225062370300293,1.006809115409851,-1.1659259796142578,-0.4698146879673004,-0.36593520641326904:-0.5732061862945557,1.1185227632522583,0.4720138907432556,0.7675561308860779,0.16629695892333984,-0.8848472833633423,0.6598687171936035,-0.9558874368667603,-0.04832703247666359,-0.7219713926315308:1.282164216041565,-0.09399696439504623,0.9917790293693542,0.018910011276602745,-0.42810872197151184,0.07995349168777466,-0.06121821701526642,-1.071846842765808,0.2933812439441681,-1.0109862089157104:-1.2107791900634766,1.100236415863037,0.2832557260990143,1.1575809717178345,-0.36782094836235046,-0.06753944605588913,0.3978995978832245,-1.4749819040298462,0.44255441427230835,-0.2603701055049896:1.796971082687378,0.20226241648197174,-0.3771727383136749,0.29432427883148193,0.10939809679985046,0.5717104077339172,-0.13553960621356964,-1.5834225416183472,0.13141782581806183,-1.0099183320999146:-1.0246180295944214,-0.09649322926998138,1.3991281986236572,0.5105910301208496,-0.23884661495685577,-0.3057282567024231,-0.4220106899738312,-0.3433226943016052,0.918271541595459,-0.3969328701496124:1.1053729057312012,0.1791839301586151,-0.3032075762748718,0.588869035243988,0.7153130173683167,-1.4257031679153442,0.17367614805698395,-0.01904759556055069,-1.3480952978134155,0.3336775600910187:-0.3595013916492462,0.18560786545276642,0.941450297832489,0.45411181449890137,-1.5271050930023193,0.42752063274383545,-0.12781965732574463,-0.5781860947608948,1.6331989765167236,-1.0492504835128784:0.5174940228462219,0.36941051483154297,-0.012406275607645512,0.1802673190832138,-0.3226468563079834,0.24834325909614563,-0.5889812707901001,-0.6055296063423157,0.1447206437587738,0.0693679228425026:-0.40090835094451904,0.5219675898551941,0.19048304855823517,1.0603671073913574,-0.35692480206489563,-0.18535932898521423,0.0517067052423954,-0.6055076718330383,0.7268718481063843,-1.0026482343673706:0.7435104250907898,-0.2385461926460266,-0.18841339647769928,-0.1939428299665451,-0.37269657850265503,0.06965598464012146,0.039812833070755005,0.12863750755786896,0.4374725818634033,-0.4254283607006073:-0.29046615958213806,-0.007902812212705612,0.7739865779876709,0.7216004133224487,-1.108689308166504,0.869189441204071,-0.774734616279602,-0.16390360891819,0.32872891426086426,-0.34776538610458374:1.2846671342849731,0.8644371032714844,0.04289695620536804,-0.8411114811897278,0.1837645322084427,0.911369264125824,-0.07298760116100311,-0.7524546980857849,-0.254538893699646,-1.3660404682159424:0.10876405239105225,0.03690027445554733,-0.5942087769508362,0.35466790199279785,1.1029629707336426,-0.9069427251815796,-0.24952960014343262,-0.6289585828781128,0.6863979697227478,0.08995404094457626:-0.2712230384349823,-0.05111917480826378,0.3863820433616638,-0.2288256138563156,0.771924614906311,0.07261411845684052,-0.11032404005527496,1.3817001581192017,-0.4944744110107422,-1.4566656351089478:0.23282495141029358,0.0498371385037899,-1.721432089805603,0.3580690920352936,0.4972264766693115,-0.026282362639904022,0.5246133804321289,0.6139721870422363,0.21227847039699554,-0.7411224246025085:1.1071109771728516,0.08327264338731766,0.34854432940483093,-1.7452675104141235,0.5117955207824707,-0.13406255841255188,-0.07170364260673523,0.7705273032188416,-0.6499994397163391,-0.2202214151620865:-1.2449620962142944,-0.018881581723690033,-1.6801033020019531,-0.48126447200775146,0.8134357929229736,1.375925064086914,0.02187531627714634,0.4442501664161682,0.906635582447052,-0.13689452409744263:1.2381805181503296,-2.742072820663452,0.8086637854576111,-0.2959651052951813,0.5963678359985352,0.7278122305870056,-0.7974029183387756,0.362976998090744,0.17615827918052673,-0.07471781224012375:-0.33248448371887207,0.11671163141727448,-0.22136008739471436,-0.10829851031303406,0.786214292049408,2.3865461349487305,-3.058239221572876,0.13298872113227844,0.3252320885658264,-0.027321889996528625:0.044383030384778976,0.04930269345641136,-0.02107951231300831,-0.04384610056877136,0.02184612676501274,-3.5688979625701904,2.076338291168213,0.053842924535274506,1.3991886377334595,-0.011060887947678566:0,0,0,0,0,0,0,0,0,0:0,0,0,0,0,0,0,0,0,0:0.09049039334058762,-0.4023423492908478,0.6249775290489197,0.20061589777469635,-0.0383383110165596,-0.10811971127986908,0.5851020216941833,-0.14747439324855804,-0.7818658351898193,-0.023056820034980774:-0.027906697243452072,0.9610578417778015,0.029520703479647636,-0.33066293597221375,0.08599217236042023,1.2207248210906982,-0.9791826605796814,-0.29054149985313416,-0.6179004907608032,-0.05108852684497833:0.1248280331492424,0.3549453616142273,1.0910685062408447,-0.30969709157943726,0.3934378921985626,-1.9549329280853271,0.35440793633461,-0.0920289158821106,0.16267196834087372,-0.12469404190778732:-1.8309099674224854,1.2522913217544556,-0.2615797221660614,0.2851661741733551,-0.33898353576660156,0.7073729038238525,-1.2695918083190918,2.6493704319000244,-0.8259826302528381,-0.3671541213989258:1.1601645946502686,0.9578820466995239,-0.04678307846188545,-0.2578120231628418,0.06115110218524933,-0.884291410446167,1.049825668334961,-0.5369793772697449,-0.23922358453273773,-1.2639262676239014:-0.33278656005859375,0.0797768160700798,0.4320084750652313,0.720391571521759,0.1803557127714157,1.0728684663772583,-1.7142817974090576,-0.44853001832962036,1.4248710870742798,-1.4146537780761719:0.478306382894516,-0.832838237285614,-0.30810993909835815,-0.26666855812072754,0.5826261639595032,-0.2245393693447113,1.122373342514038,0.789745032787323,-0.7612365484237671,-0.5796282887458801:0.3701505661010742,-0.3661056160926819,-0.9901041388511658,0.34387874603271484,0.4151276648044586,0.3131175637245178,-1.0053794384002686,0.8643682599067688,0.28124967217445374,-0.22627267241477966:1.0102264881134033,-0.636532187461853,0.6832255125045776,0.056736141443252563,-0.7997102737426758,0.491720587015152,1.2508031129837036,-0.669450044631958,-0.3817557692527771,-1.0052244663238525:0.16432926058769226,-0.7094778418540955,-0.17146523296833038,0.8096987009048462,0.23908035457134247,-0.04075871407985687,-1.5132328271865845,-0.6863921880722046,0.6889232397079468,1.2193481922149658:-0.9130961298942566,-0.8582159876823425,0.3917931914329529,0.16622519493103027,1.5475140810012817,-0.16973739862442017,-0.9522542357444763,0.7981247901916504,0.12918642163276672,-0.13948991894721985:0.35142266750335693,-0.018994402140378952,0.03228979557752609,0.4559425711631775,-1.537705421447754,0.0773080363869667,-1.1131728887557983,0.7060030102729797,0.07777077704668045,0.9692016243934631:0.07409493625164032,0.05413312464952469,0.3608689606189728,-0.141550675034523,0.6172522306442261,-0.37006494402885437,1.2449122667312622,-0.5709176063537598,0.2798508405685425,-1.5485405921936035:-0.0048209261149168015,0.6412614583969116,-0.10757125914096832,0.6297951340675354,0.6409457921981812,-0.6306092739105225,-1.5203222036361694,-0.5630162358283997,-0.3420344889163971,1.2564119100570679:-0.3765570819377899,0.16680201888084412,0.7937139868736267,0.857537567615509,-0.5486787557601929,0.4224011301994324,-0.11587929725646973,0.5558304786682129,0.28604528307914734,-2.0411534309387207:0.2542463541030884,-0.8215247392654419,0.6303046941757202,-0.11835412681102753,0.6758559346199036,-0.06647894531488419,0.13324928283691406,-1.2220711708068848,0.5492826104164124,-0.014428749680519104:0.12469478696584702,-0.09541209042072296,0.43564102053642273,-0.5942575931549072,0.07730582356452942,0.5417846441268921,1.028794527053833,-0.07459302246570587,-0.8637424111366272,-0.5801650285720825:0.31155750155448914,-0.3726056218147278,-0.321273535490036,1.0225088596343994,1.0085997581481934,-1.0370196104049683,0.4962609112262726,-1.5622044801712036,0.6218953728675842,-0.16769936680793762:0.13223162293434143,0.14352652430534363,0.78327476978302,-0.6898099780082703,0.711932897567749,1.120909571647644,-0.4106557369232178,-1.9081146717071533,0.24655494093894958,-0.12986740469932556:-0.05636652186512947,0.2924345135688782,-0.30536502599716187,-0.47034502029418945,-0.43711939454078674,0.269558846950531,1.7372117042541504,-0.25487321615219116,-0.13700401782989502,-0.6381371021270752:0.9908425211906433,0.9630370140075684,0.7367989420890808,0.2582058012485504,-0.007065155543386936,0.44122228026390076,-2.3046512603759766,-0.5877995491027832,0.8208094835281372,-1.3113999366760254:-1.1328845024108887,-0.04677886888384819,0.9786435961723328,0.29240721464157104,0.12415996193885803,-0.03748615086078644,1.345266342163086,-0.22831150889396667,-0.27549296617507935,-1.0195099115371704:1.318669080734253,1.003374695777893,-0.6700389385223389,-1.4913681745529175,-0.007239765953272581,-0.35248321294784546,-0.18415135145187378,0.8274545073509216,0.009521382860839367,-0.45371589064598083:-0.3796359598636627,-0.016799524426460266,0.5311912298202515,-0.5861480832099915,-0.06323376297950745,0.9997644424438477,-0.1877175271511078,0.27194416522979736,0.06417874991893768,-0.633539617061615:-0.0071352082304656506,0.1167282685637474,-0.1175406277179718,-0.24274173378944397,-0.3773649334907532,0.1866719126701355,0.43786221742630005,-0.024174563586711884,0.090187668800354,-0.062496084719896317:0.06313785910606384,0.07013647258281708,-0.02998686581850052,-0.06237399950623512,0.03107757680118084,0.002274075523018837,0.04240711033344269,0.07659456878900528,-0.1775273233652115,-0.01573493517935276:0,0,0,0,0,0,0,0,0,0:0.04284195601940155,0.047590773552656174,-0.020347489044070244,2.0844600200653076,0.021087588742375374,-0.050593603402376175,0.03826364129781723,-2.074817657470703,-0.07780840992927551,-0.010676881298422813:0.12039584666490555,-1.1502869129180908,-0.4563543498516083,0.35487693548202515,0.032273706048727036,0.28278475999832153,1.0066993236541748,0.3893147110939026,-0.5495947003364563,-0.030085178092122078:-1.1713498830795288,1.0427892208099365,1.3533778190612793,0.0340312235057354,0.5570201277732849,-1.7941465377807617,-0.5461262464523315,1.311167597770691,-0.6715112924575806,-0.11523882299661636:-0.12477481365203857,-0.5036107897758484,0.32692769169807434,-0.07147856801748276,0.5268550515174866,1.1252769231796265,-0.991355836391449,-0.011123554781079292,0.2672384977340698,-0.5439507961273193:0.43691375851631165,-2.097848892211914,0.17823125422000885,0.3383817672729492,1.881130337715149,0.2783358097076416,1.0210460424423218,0.9218567609786987,-0.39090868830680847,-2.567122220993042:-0.5887425541877747,1.5954715013504028,-0.08994314074516296,0.603734016418457,-1.279023289680481,-0.0018487363122403622,-0.944277286529541,0.9071704149246216,0.48649901151657104,-0.6890110969543457:-0.3362221121788025,-0.8967425227165222,0.3878265619277954,-0.15362229943275452,-0.121070995926857,0.3704094886779785,1.2233812808990479,0.12917959690093994,0.0077094752341508865,-0.610823929309845:-0.3853922188282013,0.2576599717140198,-0.3249337673187256,0.4139406085014343,-0.5067028999328613,0.38079142570495605,-0.6253904104232788,0.751477837562561,-0.05739198997616768,0.09596887975931168:-1.2146012783050537,-0.5840970873832703,0.06158226728439331,0.36774158477783203,0.613185703754425,-0.23480170965194702,0.2533634305000305,0.49791771173477173,-0.18700210750102997,0.42674365639686584:-1.0578384399414062,0.11766590178012848,1.3081440925598145,1.5116194486618042,-0.5693886280059814,0.3226674199104309,-2.6399574279785156,0.7281056642532349,0.3931650221347809,-0.11414982378482819:-0.7470600008964539,0.6181860566139221,-0.8960466384887695,-0.2700389325618744,-1.475127100944519,-0.030573002994060516,1.1945964097976685,1.5395766496658325,-0.5040723085403442,0.5706125497817993:0.038842253386974335,-0.31189289689064026,-0.17380325496196747,0.20256921648979187,-1.1375364065170288,-0.716890811920166,0.13147100806236267,0.8271676301956177,0.7891223430633545,0.35102227330207825:2.081878900527954,-0.8959411978721619,0.20508432388305664,0.9307662844657898,-1.1895074844360352,-0.16921848058700562,-0.6517020463943481,-0.5640708208084106,-0.16884562373161316,0.42161330580711365:0.4848761260509491,-0.5068218111991882,-0.08986849337816238,0.7270293235778809,-1.5393342971801758,0.39264583587646484,-0.7924998998641968,0.3352244198322296,0.17996980249881744,0.8087896704673767:-0.2941162586212158,-0.5904940366744995,0.44882649183273315,0.20369218289852142,-1.220873236656189,0.19500920176506042,0.5476860404014587,0.3108542859554291,0.30372264981269836,0.09570615738630295:0.6377206444740295,-0.46395426988601685,0.272824764251709,0.6656239628791809,-1.1726129055023193,-0.5497539639472961,-1.161345362663269,0.3541157841682434,0.3457528352737427,1.0716646909713745:0.3841623067855835,-0.7629191279411316,-0.38267701864242554,0.14757077395915985,-0.04054698348045349,0.04246446490287781,-0.7990646958351135,0.34847748279571533,0.338756263256073,0.7238152623176575:1.3028836250305176,0.43172261118888855,-0.822429895401001,0.687006413936615,-1.7575961351394653,-0.010080356150865555,-0.5237469673156738,0.4806393086910248,-0.35918012261390686,0.5708116292953491:-0.16769693791866302,-0.449991375207901,0.030579302459955215,-0.7057011127471924,-0.909654974937439,1.3257042169570923,-0.37185221910476685,-0.09619860351085663,0.8278517127037048,0.5169677734375:-0.5902220606803894,0.3520500361919403,-0.49304699897766113,0.05467677861452103,-0.1615704745054245,1.251640796661377,-0.7591958045959473,-1.1034607887268066,1.1466339826583862,0.30250442028045654:1.2029845714569092,-0.45479005575180054,-1.1635527610778809,0.9618186950683594,-0.4764333665370941,-0.9649949669837952,0.03635910525918007,0.6564410328865051,-0.1067051962018013,0.3088815212249756:1.1445280313491821,-0.12826009094715118,-0.675724983215332,0.1949160248041153,-0.20587687194347382,0.5967231392860413,0.3328567445278168,-0.20008084177970886,-0.6525477170944214,-0.40651610493659973:-0.26172134280204773,0.3457408845424652,-0.8588404059410095,0.1860361546278,0.8837869763374329,-0.5706529021263123,0.19851899147033691,-1.565953254699707,1.0384042263031006,0.6046846508979797:-1.2485971450805664,-0.9505025744438171,-0.6843782067298889,0.5958911180496216,0.6718432903289795,0.9942338466644287,0.3563619554042816,0.024722084403038025,0.27886638045310974,-0.03842395171523094:-0.2526577115058899,-0.5537661910057068,0.36830827593803406,-0.8493819832801819,-0.3522900938987732,0.27771589159965515,0.17733049392700195,0.15862032771110535,0.5890960097312927,0.43702104687690735:-1.1381168365478516,0.3809991776943207,0.01462134625762701,-0.36811256408691406,0.8185573816299438,-0.06237850710749626,0.1289861649274826,0.3981454372406006,-0.02269512414932251,-0.15001973509788513:0.5157068371772766,0.11863180249929428,-0.05538170784711838,-0.11207075417041779,-1.1908035278320312,1.0238865613937378,0.22364795207977295,0.1369892954826355,-0.3921689987182617,-0.2684211730957031:-2.4426345825195312,0.03488056734204292,-0.01491329912096262,-0.04475364834070206,0.01545578334480524,-0.037081412971019745,0.028044413775205612,2.525829792022705,-0.057027995586395264,-0.007825358770787716:-1.1917572021484375,0.11304192245006561,-0.4372459352016449,1.4562402963638306,0.048776738345623016,-0.12018740922212601,0.09089452773332596,0.2504437267780304,-0.1848328709602356,-0.02537553943693638:-0.06649652868509293,0.1872801035642624,1.6339216232299805,-0.5236229300498962,-1.3676925897598267,0.7613910436630249,-0.5748661160469055,0.6760425567626953,-0.36661720275878906,-0.359315425157547:0.14340169727802277,-1.9732961654663086,0.773936927318573,0.7690571546554565,1.0147587060928345,-1.0229344367980957,0.1384716033935547,1.7610172033309937,-2.0518133640289307,0.4474083185195923:0.45413997769355774,0.8790397047996521,0.9308672547340393,0.7653331160545349,-0.7319290041923523,-2.266949415206909,0.5886693596839905,0.64659583568573,0.31117677688598633,-1.576931118965149:0.6587439179420471,0.14120224118232727,0.242987260222435,0.8024978637695312,0.17559847235679626,1.0714402198791504,0.972115695476532,0.22238397598266602,0.004944712854921818,-4.291869163513184:0.1837923377752304,-1.5951437950134277,0.5659871101379395,0.3967384994029999,0.28425413370132446,0.7310643792152405,-0.9254465103149414,0.14378227293491364,-0.20537756383419037,0.42037370800971985:0.2204493135213852,1.3561418056488037,-1.6252121925354004,-0.15822187066078186,1.1425397396087646,-0.6313306093215942,0.5410598516464233,0.7839768528938293,-0.8340926170349121,-0.7952894568443298:-0.8340863585472107,-1.7412967681884766,1.8184765577316284,0.6242983341217041,-0.32157617807388306,0.9912900924682617,0.12950369715690613,-1.1633487939834595,1.2677156925201416,-0.7709652781486511:1.080212950706482,0.4498584568500519,-0.8007883429527283,0.0980183407664299,-0.11036615073680878,-0.15040075778961182,-0.08114560693502426,0.1816917359828949,-0.3167057931423187,-0.3503497540950775:0.4198482930660248,-0.17367015779018402,-0.15969926118850708,-0.3492768704891205,-0.11955272406339645,0.2600477337837219,-0.9165557026863098,0.5068450570106506,0.17883892357349396,0.3531980812549591:1.027388334274292,-0.7086445689201355,0.730776309967041,0.5743544101715088,-0.2360144406557083,0.740111231803894,-1.341379165649414,-0.6146488189697266,-0.4139769673347473,0.2420685589313507:-0.8829393982887268,1.0505125522613525,0.4262979328632355,0.7413973808288574,-1.199425458908081,0.39369213581085205,-1.5943388938903809,0.21645164489746094,-0.2418350726366043,1.0902290344238281:0.17647626996040344,-0.6269281506538391,0.07928211241960526,-1.2754290103912354,0.35288697481155396,-0.8947198390960693,-0.619513750076294,1.305342197418213,0.07065913826227188,1.4319638013839722:0.7322222590446472,0.05585111305117607,0.02601383812725544,1.5978105068206787,-1.133451223373413,0.5638347268104553,0.48123252391815186,-1.4276533126831055,-1.1961345672607422,0.30024823546409607:-0.4459763467311859,-0.887864351272583,-0.7255074381828308,-0.21970191597938538,-0.22921422123908997,-0.7680902481079102,0.30024388432502747,0.7517009973526001,1.3653159141540527,0.8590628504753113:-0.0963125005364418,-0.08868366479873657,0.5423403382301331,0.17821848392486572,-0.8477658629417419,0.5479846596717834,-1.0220415592193604,0.594307005405426,-0.2850257158279419,0.4769546091556549:1.2835694551467896,-0.11355286091566086,-1.3863812685012817,0.44300946593284607,-0.11540361493825912,0.39387404918670654,0.16492730379104614,-0.29285329580307007,-0.21022020280361176,-0.16698282957077026:0.5100458860397339,-0.5500473380088806,0.4558833837509155,-0.6141185760498047,-0.2327108383178711,0.48299023509025574,-2.132446527481079,1.4442297220230103,0.5663356781005859,0.06986185908317566:0.878427267074585,-0.19043423235416412,-1.1550438404083252,0.6892993450164795,0.2864300310611725,-1.071633219718933,1.0975549221038818,0.04426722973585129,-0.2100515067577362,-0.3688032329082489:-0.33180174231529236,0.9591662287712097,-0.07580888271331787,0.7033781409263611,-0.09779499471187592,-0.14125750958919525,-2.386065721511841,1.1304925680160522,-0.7381154298782349,0.9778385162353516:-0.4453721046447754,0.7048949599266052,0.2745012044906616,-1.2009273767471313,0.5741678476333618,-0.31235331296920776,0.12706537544727325,0.7694642543792725,-0.0328267402946949,-0.4585684537887573:-0.304393470287323,-0.018322326242923737,1.683380365371704,-0.8608436584472656,0.2718149721622467,0.8054757714271545,-0.3132522404193878,-0.6756154298782349,0.55784010887146,-1.1460485458374023:1.0048346519470215,-0.08821668475866318,-2.6804187297821045,-0.34961116313934326,0.68393874168396,0.6024799942970276,-0.692529022693634,0.7047321200370789,0.4649190306663513,0.34987467527389526:0.02074473910033703,-0.7755890488624573,-0.716844916343689,0.3010411858558655,0.05315357446670532,-0.5240154266357422,2.4147911071777344,0.10616838932037354,-0.3311226963996887,-0.5483269691467285:0.5482116937637329,-0.32190409302711487,0.9614661931991577,-0.9702447652816772,-0.17983978986740112,0.9133535623550415,-1.2528736591339111,0.16183850169181824,0.243018239736557,-0.10303127765655518:-3.078610897064209,0.4575003385543823,-0.5941461324691772,-0.4324197769165039,1.3061975240707397,0.7630558609962463,0.906877338886261,0.14776183664798737,0.7539680600166321,-0.23021696507930756:1.0819973945617676,0.12917456030845642,-0.0567435659468174,-0.11704735457897186,-0.4600970149040222,-0.19483986496925354,0.6732096672058105,-0.3816225826740265,-0.5688499808311462,-0.10517241060733795:0.3143272399902344,0.04293736070394516,-0.021109439432621002,-0.05141863226890564,-0.06247321516275406,-0.04564644768834114,0.03452214226126671,-0.12798556685447693,-0.07020082324743271,-0.012951865792274475:-0.7343848347663879,0.1479889154434204,0.5704033374786377,-0.9762869477272034,0.060883112251758575,-0.15734051167964935,0.11899539828300476,1.2449051141738892,-0.2419767826795578,-0.03320373594760895:0.010732035152614117,0.22703571617603302,-0.10517760366201401,0.6080687642097473,1.2677611112594604,-1.2744054794311523,-0.030074862763285637,0.7463955283164978,-0.6324472427368164,-0.8178806304931641:1.1701719760894775,0.31582963466644287,-0.5313271880149841,0.14477097988128662,1.1318992376327515,-1.0571544170379639,0.08241990208625793,0.15854521095752716,0.8076764345169067,-2.2227978706359863:-1.5499868392944336,0.6358717083930969,-0.12998323142528534,-0.11854749172925949,0.9309132099151611,-0.7879655957221985,-0.973055362701416,0.7169477343559265,0.6200935244560242,0.6557385325431824:0.22802703082561493,-0.20395617187023163,-0.4723582863807678,0.124050572514534,-0.14152716100215912,-0.2848842740058899,-0.46798303723335266,-0.6151621341705322,0.5433019399642944,1.2905105352401733:-0.47202712297439575,-0.6169818639755249,0.6204760074615479,-0.37424182891845703,1.0891187191009521,-0.0000015767291188240051,-0.7035091519355774,0.16575755178928375,0.24282048642635345,0.048614077270030975:1.4802693128585815,0.3817291259765625,-0.19224749505519867,-0.10066056996583939,-0.4219871163368225,-0.06387807428836823,-0.494146466255188,0.5679617524147034,0.04094027727842331,-1.1979390382766724:0.37907540798187256,-1.0666871070861816,-0.14283926784992218,-0.5191769003868103,-0.5348911285400391,0.5758444666862488,-0.6230215430259705,1.7679052352905273,-0.6266718506813049,0.7904638648033142:0.6499583721160889,-0.7571805715560913,-0.24594253301620483,-0.88801509141922,0.832987904548645,-0.04027414321899414,-0.2757854759693146,0.5763232111930847,0.40069466829299927,-0.2527737617492676:-0.7923250198364258,0.11844603717327118,0.35131996870040894,0.23084411025047302,-1.5099818706512451,0.7482309937477112,-0.17971833050251007,0.12519273161888123,0.7444821000099182,0.16352452337741852:-1.3668797016143799,-0.3228352963924408,-0.39758503437042236,-0.6536086797714233,0.7317280173301697,0.24052810668945312,0.4178629219532013,1.776430368423462,-0.45560503005981445,0.02998504228889942:1.4845471382141113,0.2153381109237671,-0.10912806540727615,0.1800803244113922,-1.2302563190460205,-0.12195150554180145,-0.9633463621139526,0.29927846789360046,0.967780351638794,-0.7223072648048401:-1.6949785947799683,0.5447234511375427,0.6072868704795837,0.7889326810836792,-1.7579602003097534,0.5969507098197937,0.41421636939048767,-0.20418976247310638,0.47056037187576294,0.23446805775165558:0.4169082045555115,0.06917206943035126,0.6516222357749939,0.44167912006378174,-0.6256637573242188,-0.3150566816329956,-2.3801424503326416,0.4065690040588379,0.5409896969795227,0.7938918471336365:0.05097454413771629,0.18173642456531525,0.015029525384306908,0.0627814531326294,-0.47029632329940796,0.1279926300048828,-1.7480806112289429,1.5252455472946167,-0.3017679750919342,0.556333601474762:2.0570435523986816,-1.0344163179397583,-1.2574777603149414,0.6428604125976562,-0.8138106465339661,0.15369465947151184,-0.681800127029419,-0.044476091861724854,0.1688549965620041,0.8095019459724426:0.453600138425827,0.6111454963684082,1.0090700387954712,-0.6772260665893555,-0.8178866505622864,-0.4564548432826996,0.8027645349502563,0.10278518497943878,-0.6281834840774536,-0.39962515234947205:0.49664080142974854,-0.39807283878326416,-1.217374563217163,1.4897512197494507,-0.07691602408885956,-0.4251467287540436,-1.1358680725097656,0.51682448387146,0.028366487473249435,0.7218011617660522:-0.7053195834159851,0.13453403115272522,0.9008906483650208,0.03817343711853027,-0.6608962416648865,1.259746789932251,-1.7698721885681152,-0.05683837831020355,0.5492272973060608,0.3103761672973633:0.7729767560958862,-1.4177676439285278,0.7581033706665039,-0.36338773369789124,0.3170761466026306,1.0697213411331177,-1.1243492364883423,0.5236319303512573,0.26198455691337585,-0.7979468703269958:1.298284888267517,-0.656025230884552,-1.0211327075958252,-0.14107754826545715,0.9843899607658386,0.6370797753334045,-1.8439780473709106,-0.7108971476554871,-0.034146711230278015,1.4875891208648682:0.48909303545951843,0.631780207157135,-0.25944840908050537,1.2096531391143799,-1.2430918216705322,-0.5017829537391663,-1.0428794622421265,0.7415836453437805,0.40418973565101624,-0.42904770374298096:0.9799473881721497,-0.4360158145427704,1.369505524635315,-0.5162152051925659,-0.6775057315826416,0.8775631189346313,-2.0271568298339844,0.296500027179718,-0.08713557571172714,0.2205241471529007:0.563174843788147,-0.7900245785713196,-1.7434264421463013,-0.5334198474884033,0.4094240963459015,1.4699033498764038,-0.5661671757698059,-0.4017789363861084,1.8248790502548218,-0.2325572818517685:-0.8454126119613647,-0.9743223786354065,-0.7563176155090332,-1.1906572580337524,1.0110069513320923,1.4667446613311768,0.15916754305362701,-0.11378830671310425,0.4883536398410797,0.7552132606506348:-0.6121842861175537,0.4599515199661255,-0.872734010219574,-0.40998926758766174,-0.04084173962473869,0.39996337890625,1.2917042970657349,-0.2899545133113861,0.1971445083618164,-0.12306725978851318:-1.000913381576538,0.1153964027762413,-0.04933776333928108,-0.10262459516525269,-0.8332066535949707,2.42179274559021,0.09274906665086746,-3.635456085205078,3.0175023078918457,-0.025889022275805473:-0.3345278799533844,0.05045804753899574,-0.021573327481746674,-0.04698251932859421,0.0223581213504076,-0.05364156886935234,0.040568988770246506,0.43716269731521606,-0.08249647915363312,-0.011320101097226143:-0.3231320381164551,0.2971067428588867,-1.4483838081359863,0.8448060750961304,0.02767379768192768,-0.21248209476470947,0.12427610158920288,1.0713024139404297,-0.31976109743118286,-0.06140534579753876:0.4979342222213745,0.3549075126647949,0.292490154504776,0.6890749931335449,1.4409795999526978,-1.1938661336898804,0.14602285623550415,-0.030711129307746887,-0.9068627953529358,-1.2899391651153564:1.18559730052948,0.13019946217536926,0.24377277493476868,-0.34294119477272034,-1.9780728816986084,-1.2624485492706299,-0.030151627957820892,1.261425256729126,0.15067671239376068,0.6419861316680908:-0.030393708497285843,0.5015742778778076,0.32684600353240967,1.1683624982833862,-0.42783185839653015,-0.4886290729045868,1.4167616367340088,-0.36613109707832336,-0.48362600803375244,-1.6169015169143677:-0.2233632653951645,-1.395650863647461,1.7226155996322632,0.48370131850242615,0.5163134932518005,-0.6712959408760071,-0.26499322056770325,1.0332236289978027,-0.7208828330039978,-0.4796285629272461:-0.6523853540420532,-0.1081589013338089,-2.1188995838165283,0.6671775579452515,-0.01929018832743168,1.0205014944076538,-0.8969360589981079,0.85184246301651,0.8650210499763489,0.3911636471748352:-0.48280659317970276,1.501946210861206,0.29978811740875244,0.13914407789707184,0.16509096324443817,-1.2365376949310303,0.2219400405883789,-0.5032155513763428,-0.39674296975135803,0.29142656922340393:-0.703640878200531,0.9273722767829895,-0.32576924562454224,0.8929153680801392,-0.2547960877418518,-0.8853176236152649,-0.48535069823265076,-0.3817571699619293,1.7913371324539185,-0.5749757289886475:1.0357248783111572,-0.6681438088417053,0.07172807306051254,0.16252078115940094,0.3817834258079529,-0.7717792391777039,-1.1546775102615356,0.5468040704727173,0.07839769870042801,0.3176431655883789:2.288395881652832,-0.37784987688064575,1.0377973318099976,0.36993923783302307,-1.0716215372085571,-0.4773314297199249,-1.7886769771575928,0.0033644363284111023,-0.05267854034900665,0.06865244358778:-0.5056864023208618,-0.411495178937912,-0.7803595662117004,-1.060857892036438,0.3739784359931946,0.8096288442611694,0.23045839369297028,0.22196665406227112,0.9740739464759827,0.14832349121570587:0.3383610248565674,-0.22618798911571503,0.38945624232292175,-0.7062127590179443,-0.19981972873210907,0.0877964124083519,-1.0370700359344482,1.7667866945266724,-0.366661012172699,-0.046413078904151917:1.7178503274917603,-0.4256868064403534,-0.26087313890457153,-0.9144787788391113,0.6709099411964417,-0.35094624757766724,-0.9845259785652161,-0.03417237848043442,0.18917298316955566,0.39277446269989014:-0.05329979956150055,0.5340396165847778,0.11276907473802567,0.3707812428474426,-1.4859263896942139,-0.5125839710235596,0.255348265171051,1.1833573579788208,-0.015732811763882637,-0.3887922465801239:-0.6863402724266052,1.0483107566833496,0.6385151743888855,0.6046697497367859,-0.12597739696502686,-1.3830475807189941,-0.6183841228485107,0.5651808977127075,-0.7619484066963196,0.7189644575119019:-0.10070420801639557,0.7209246754646301,1.2125744819641113,0.9485184550285339,-0.022578492760658264,-0.047798026353120804,-2.345388412475586,-0.014784429222345352,0.02396448887884617,-0.3747478723526001:0.23539777100086212,-0.905697762966156,-1.6458556652069092,0.6625565886497498,-0.36018142104148865,0.34920692443847656,-2.532428503036499,2.886708974838257,0.3081921935081482,1.002083659172058:0.5874919891357422,-0.009716189466416836,0.7422565817832947,-0.10155989974737167,0.1167503222823143,0.1584421694278717,-1.950095295906067,1.0733124017715454,-0.4393511414527893,-0.17754726111888885:1.0097625255584717,-0.49298572540283203,0.9727802872657776,0.5979335904121399,-0.4036131799221039,-1.354770541191101,-1.1544100046157837,0.8023900389671326,0.39403432607650757,-0.3710845410823822:0.10655588656663895,-0.4610901176929474,-0.18981234729290009,1.1190178394317627,0.12793494760990143,0.02507837861776352,0.21009738743305206,-0.8223620057106018,-0.7081401944160461,0.5927779674530029:-0.6224212050437927,0.25623637437820435,-0.7490857243537903,-0.20247450470924377,0.016399705782532692,0.3328409790992737,1.688699722290039,0.8672884106636047,0.20843972265720367,-1.7958238124847412:-2.088593006134033,0.6856901049613953,-0.000010917894542217255,0.635554313659668,-0.05674629658460617,0.5272569060325623,-0.48271119594573975,-0.1431552767753601,0.16258995234966278,0.7601935863494873:0.4388517141342163,-0.5574585199356079,-0.196663960814476,-0.3737334907054901,0.8438529372215271,-0.09154114127159119,-0.29515814781188965,0.20468594133853912,1.121740460395813,-1.0945327281951904:0.9182659983634949,0.7454536557197571,-0.7942771315574646,-2.9745607376098633,-0.5238206386566162,0.7657048106193542,0.642225444316864,0.7257932424545288,0.10863986611366272,0.3865715563297272:0.39372631907463074,-0.9499924778938293,-0.39678308367729187,-0.651786208152771,-0.5566651821136475,1.0982933044433594,-1.4688578844070435,1.1300365924835205,1.387253999710083,0.01477286871522665:-0.6702483892440796,1.1436163187026978,-1.9010114669799805,-0.35890865325927734,2.1974921226501465,1.3353811502456665,0.699923038482666,-3.948885679244995,1.9060571193695068,-0.40346813201904297:0.10869119316339493,-1.1643718481063843,-0.0516226701438427,-0.10737676173448563,-0.5680372714996338,0.8865054845809937,0.08916690945625305,1.6405401229858398,-0.8063675165176392,-0.027097752317786217:0.03595693036913872,0.049321986734867096,-0.02108779177069664,-0.04386315122246742,0.02185477688908577,-0.05243424326181412,0.039655737578868866,0.06230802461504936,-0.08063928782939911,-0.011065344326198101:-0.4465521574020386,1.7524242401123047,-0.13659736514091492,-2.2307043075561523,-0.5570367574691772,-0.20765472948551178,0.15337716042995453,2.042353391647339,-0.32410237193107605,-0.04549935832619667:1.3194129467010498,0.2863316237926483,0.35645782947540283,-1.1069011688232422,-0.2865699529647827,-0.7003225088119507,0.02720792219042778,1.5814319849014282,-0.7507460117340088,-0.7262723445892334:-0.7619994282722473,-0.03229016065597534,1.475327730178833,0.2228526473045349,0.5236978530883789,-1.3836164474487305,0.2313760668039322,-0.39457079768180847,-0.9304457902908325,1.0497127771377563:-0.21561303734779358,-0.11616668850183487,-1.1700459718704224,-0.7630144953727722,0.2214576154947281,0.28198444843292236,-1.3227618932724,1.2016992568969727,0.8543511033058167,1.0281691551208496:3.211193561553955,-0.8892609477043152,0.33750495314598083,0.14689882099628448,-0.6308621764183044,0.45339417457580566,-1.247736930847168,-1.0925180912017822,0.24788902699947357,-0.5364501476287842:0.5274581909179688,-0.4064045548439026,2.315701484680176,0.33287274837493896,-0.6866298913955688,-1.4175100326538086,-0.7259666919708252,-0.18201322853565216,-0.0673685073852539,0.3098839819431305:-1.057576060295105,-0.6936550736427307,0.04507240653038025,-0.5064324140548706,0.011980636045336723,1.4422117471694946,-0.4887404441833496,0.9217879176139832,0.5351596474647522,-0.20979079604148865:-0.029083704575896263,0.47837772965431213,-0.19749394059181213,-0.8567020893096924,0.4825133979320526,1.554141879081726,0.37844181060791016,-0.38881152868270874,-0.8653537034988403,-0.5560427308082581:0.6701465845108032,-0.6719892621040344,-1.107474446296692,-1.1164612770080566,-0.08671899884939194,1.2790172100067139,-0.47724398970603943,0.8688283562660217,0.6402793526649475,0.0016042403876781464:-0.9221464395523071,0.22091932594776154,-0.1560606062412262,-1.5126537084579468,-0.17999990284442902,1.0553697347640991,0.7544551491737366,-0.563689112663269,0.8318193554878235,0.4720063805580139:-0.13444924354553223,1.2189981937408447,1.1252104043960571,-0.9708867073059082,-0.8419628739356995,0.15527527034282684,-0.13974379003047943,-0.009694598615169525,-0.21328730881214142,-0.18939141929149628:0.04521334916353226,-0.47816798090934753,0.2870071530342102,-1.1537508964538574,0.02418152615427971,0.6109402775764465,0.11190644651651382,-1.0974962711334229,0.7150912880897522,0.9351513981819153:0.4143414795398712,0.606533944606781,-0.12152020633220673,0.41816285252571106,-2.1645734310150146,0.5179985165596008,0.4897204041481018,1.1796083450317383,-0.046205371618270874,-1.294019341468811:0.8702054023742676,0.0476682186126709,0.4418052136898041,-0.3559500277042389,-1.0047775506973267,0.5856237411499023,-0.9868702292442322,0.3091219365596771,-0.08448147773742676,0.1776205450296402:0.6414145827293396,1.1807076930999756,-0.10352598875761032,-0.2841164171695709,0.4412550628185272,-0.1569979339838028,-0.5928313732147217,0.5213030576705933,-1.1078693866729736,-0.5394156575202942:0.8463435173034668,0.35577160120010376,-0.4706559479236603,0.39499932527542114,-0.6168168187141418,-0.28872883319854736,-0.6448346376419067,1.6138566732406616,-0.8965974450111389,-0.29338937997817993:1.0381617546081543,0.3785559833049774,1.0333278179168701,0.2615101933479309,0.3557130694389343,-0.29281145334243774,-0.9496440291404724,-0.6870948672294617,-0.4861685633659363,-0.6515980362892151:1.4234023094177246,-1.123818039894104,0.9024142026901245,0.11475260555744171,0.07493513822555542,-1.718260645866394,-1.4641748666763306,0.13004031777381897,0.8050005435943604,0.8556913137435913:0.15601105988025665,-0.6835523843765259,-1.3554869890213013,0.34282341599464417,0.56028151512146,0.2734382748603821,-1.3407928943634033,1.2325868606567383,0.29962196946144104,0.5150615572929382:1.055081844329834,-0.9409084320068359,0.10186870396137238,0.5908930897712708,-0.08024532347917557,-1.6934144496917725,-0.86165851354599,0.9944580793380737,1.000131607055664,-0.1661255955696106:-0.32257649302482605,0.112510085105896,0.6575915217399597,0.05012894421815872,-0.1169857308268547,0.7653413414955139,-2.0193071365356445,-0.06860237568616867,0.6099390983581543,0.33206313848495483:1.3483027219772339,-0.34385180473327637,-0.49422404170036316,-0.5025646090507507,0.34734147787094116,-0.5089114904403687,-0.5943353176116943,0.6619778275489807,0.23679786920547485,-0.1504143327474594:0.25560474395751953,-0.1366049200296402,-0.8728154301643372,1.780923843383789,-1.2574337720870972,0.7562000751495361,-0.33711862564086914,-1.0185365676879883,0.22485148906707764,0.6049944162368774:1.0730150938034058,-1.734515905380249,-0.694298267364502,-1.9205251932144165,0.7917886972427368,1.6847939491271973,1.09807288646698,-0.3377567529678345,0.7882968187332153,-0.7488260865211487:-0.08667558431625366,-0.6479250192642212,-0.4866834282875061,-0.14011411368846893,0.1541948765516281,0.2763712406158447,-0.6943703293800354,0.6244308948516846,0.2156773954629898,0.785069465637207:-1.7121342420578003,0.7242936491966248,1.6822038888931274,-0.2808975279331207,-1.7904514074325562,0.49592724442481995,0.30841898918151855,0.48723337054252625,0.12026672810316086,-0.034894611686468124:0.09132595360279083,1.6973658800125122,-0.04337463527917862,-0.09022080898284912,0.044441208243370056,0.1469803750514984,-3.5976850986480713,0.3461175858974457,1.4278233051300049,-0.022763149812817574:-1.4299015998840332,0.060279134660959244,-0.025772295892238617,-0.053607504814863205,0.0267097819596529,-0.06408220529556274,0.04846512898802757,1.549986481666565,-0.0985531434416771,-0.013523374684154987:1.8065048456192017,0.07444766908884048,-0.12985464930534363,0.4402785003185272,0.13027802109718323,-0.18867744505405426,0.1426958441734314,-1.4707118272781372,-0.29121682047843933,-0.513732373714447:-0.2883571684360504,0.25171077251434326,-0.4344996511936188,0.36323559284210205,1.5013649463653564,-0.4287375807762146,0.3242115080356598,1.3299990892410278,-0.6603983640670776,-1.9585057497024536:1.4382684230804443,-0.016747070476412773,0.37396204471588135,1.0671478509902954,-0.49161478877067566,-2.3912558555603027,-0.14041262865066528,0.9339289665222168,-0.21791619062423706,-0.555327296257019:-1.5678681135177612,0.056794311851263046,-0.3597886264324188,0.801155149936676,0.11387834697961807,0.6957057118415833,0.45409590005874634,-0.21962065994739532,-0.1448933184146881,0.1705775111913681:-1.4396308660507202,-0.5084348917007446,-0.042546145617961884,-0.6016679406166077,0.1904209405183792,-0.09363770484924316,1.7281014919281006,0.8587257862091064,-0.6221137046813965,0.5308146476745605:0.46033361554145813,-1.6214288473129272,0.013441577553749084,-1.2731002569198608,1.0129445791244507,1.6269575357437134,-0.4174124002456665,0.10911400616168976,0.4880388081073761,-0.3988717794418335:1.180294156074524,-1.6110188961029053,-1.0756046772003174,-0.5904553532600403,-0.016602259129285812,-0.4959671199321747,-0.3851916790008545,0.8312350511550903,1.5097867250442505,0.6535114049911499:-0.3312653601169586,-0.7277924418449402,-0.6329749226570129,-0.6031834483146667,0.10341150313615799,0.43488413095474243,-0.15121854841709137,-0.45334023237228394,1.1528609991073608,1.2085978984832764:-0.4599054455757141,-0.8061297535896301,-1.0774366855621338,-0.56450355052948,1.4197266101837158,-0.4576902985572815,-0.2772662341594696,1.1536129713058472,0.6124216318130493,0.45714372396469116:-0.3518919050693512,-0.730345606803894,-1.8200139999389648,-0.7255271077156067,1.2671892642974854,-0.15244926512241364,-0.3988003134727478,1.801159143447876,-0.023362543433904648,1.134083867073059:1.4119243621826172,-0.4322856664657593,-2.4277191162109375,0.0738326758146286,0.664575457572937,0.4765735864639282,-0.9663997292518616,0.40618714690208435,0.6005105376243591,0.192870631814003:-1.8192583322525024,-0.6511306762695312,-1.4821350574493408,-0.1332305371761322,2.642883539199829,0.4142097234725952,0.03600282222032547,-0.6423255205154419,0.002626764588057995,1.6324256658554077:0.8683183193206787,1.0716673135757446,-2.00907826423645,0.2233109474182129,-2.616008996963501,0.7232850790023804,0.23995408415794373,0.7952156066894531,0.4552316665649414,0.24807216227054596:-1.7150752544403076,0.803617537021637,-1.6734404563903809,0.7978909611701965,-1.6633696556091309,0.742282509803772,-0.46525701880455017,1.4495429992675781,1.1905725002288818,0.5331031680107117:-1.8659807443618774,1.006056547164917,-0.8018794655799866,0.936769425868988,0.9422884583473206,-0.5222694277763367,-1.730549693107605,0.8812009692192078,0.5882258415222168,0.5660211443901062:-1.3675870895385742,0.8262551426887512,-0.9781648516654968,-0.4840572476387024,0.8449139595031738,-0.6843062043190002,-0.18617969751358032,1.100203037261963,0.015549145638942719,0.9132899641990662:0.8339430689811707,-0.24087072908878326,-1.0350018739700317,1.0945093631744385,-0.013031190261244774,-0.08854794502258301,-1.9067096710205078,0.7947406768798828,-0.726869523525238,1.2877751588821411:-1.3933053016662598,0.6469922065734863,-0.604224681854248,0.537527859210968,-0.07660945504903793,0.4194076955318451,-1.1408202648162842,1.5254396200180054,-0.22987227141857147,0.31543415784835815:0.30684196949005127,-0.4552938640117645,2.4932861328125,-0.17625154554843903,-0.023879598826169968,-1.8262354135513306,0.31526869535446167,-0.10662217438220978,-0.20508942008018494,-0.3219969868659973:1.2709717750549316,-0.16989633440971375,-0.5231513381004333,0.9854660034179688,-1.3219399452209473,-2.029728889465332,-1.2426650524139404,1.8311222791671753,-0.4208000600337982,1.6207083463668823:2.178917646408081,0.11589453369379044,0.34350574016571045,-0.4727581739425659,-1.1499077081680298,-1.4413213729858398,1.383683443069458,-0.8941264152526855,-0.04591812938451767,-0.017820658162236214:0.7773774862289429,-0.48572999238967896,0.199383944272995,0.3707035481929779,-1.0466015338897705,-3.128877639770508,-0.6856068968772888,2.3511617183685303,0.7270070314407349,0.9213099479675293:-0.3332049548625946,1.615890383720398,0.6349821090698242,0.2941628694534302,-1.0321909189224243,-0.459646075963974,1.0715633630752563,-0.40364232659339905,-0.26517045497894287,-1.1226208209991455:0.5239436626434326,-0.9480082988739014,0.2739909291267395,-3.6958606243133545,-1.1283016204833984,3.0443994998931885,0.6343539357185364,0.30021876096725464,0.9616073966026306,0.03368624299764633:0.1017436683177948,-0.17456351220607758,0.3002334535121918,0.7042860388755798,0.07075486332178116,0.33268678188323975,-0.3444231152534485,-1.4379488229751587,0.44653013348579407,0.0006751404143869877:0.6822565197944641,0.99234938621521,-1.0211100578308105,-0.21283547580242157,0.6265636086463928,0.050413381308317184,0.5785013437271118,-3.6622860431671143,1.3572065830230713,0.60890793800354:-0.2652493119239807,-0.43994078040122986,-1.539568543434143,-0.06933638453483582,-0.30412501096725464,-1.3031035661697388,1.951585292816162,0.6584966778755188,1.3287853002548218,-0.01751534640789032:0.04079780727624893,0.04531993344426155,-0.019376510754227638,-0.04030399024486542,0.020081236958503723,-0.04817911610007286,0.036437783390283585,0.04949343204498291,-0.07409575581550598,-0.010167399421334267:-1.2603535652160645,0.13873855769634247,-0.05932082608342171,0.25823158025741577,-4.039752960205078,-0.1475009173154831,0.11151304841041565,5.986238479614258,-0.22684195637702942,-0.7609414458274841:-1.2231800556182861,0.20082738995552063,-0.15298616886138916,-1.9060447216033936,0.6354724764823914,-0.33043837547302246,0.2323402613401413,1.3293862342834473,-0.5088779330253601,1.7235195636749268:-1.992125153541565,0.2925876975059509,-1.976080060005188,-0.41600584983825684,0.961161732673645,1.7215335369110107,-0.3137698173522949,0.03511061891913414,1.110303282737732,0.5773158073425293:-0.7117670774459839,0.7777402997016907,2.2042019367218018,-0.454785019159317,-0.8989819884300232,-0.44839605689048767,-0.9167022109031677,0.35445332527160645,0.03684404492378235,0.05739772319793701:0.04785538464784622,-0.6063655018806458,0.07815108448266983,0.20007948577404022,0.766356885433197,-0.18107527494430542,-1.4586727619171143,0.08189470320940018,0.23454470932483673,0.8372367024421692:1.5713015794754028,0.8322492241859436,-1.8794385194778442,-0.6638738512992859,0.028058409690856934,0.7045581340789795,-0.19795680046081543,-1.0022330284118652,-0.14204086363315582,0.74936443567276:-0.3257492184638977,1.1844234466552734,-3.642451524734497,0.35882723331451416,0.8747698068618774,0.5356366038322449,0.49405574798583984,0.9528797268867493,-0.04205476865172386,-0.39033228158950806:-1.2701715230941772,-0.43574151396751404,-0.5106700658798218,-1.7983372211456299,1.3078598976135254,-0.5176944732666016,1.0998129844665527,2.038278341293335,-0.4612717926502228,0.5479295253753662:1.0124504566192627,-0.5446485280990601,-1.7416162490844727,-0.9768914580345154,0.2991000711917877,0.07494185864925385,1.1004127264022827,-0.9080728888511658,1.0735028982162476,0.6108132600784302:-0.031125104054808617,-0.20686419308185577,-1.2836525440216064,0.9052425622940063,0.7335904240608215,0.9556962251663208,-0.39405491948127747,-1.1011964082717896,0.1467238962650299,0.27567580342292786:-0.060516487807035446,-0.7142006754875183,-1.3199528455734253,-0.7239930629730225,-0.17216099798679352,0.0984933078289032,2.1927552223205566,0.17340922355651855,-0.2682804763317108,0.7945001721382141:0.2564859390258789,0.3209109902381897,-1.60514235496521,0.5666756629943848,1.5112061500549316,0.35073697566986084,0.16609254479408264,-1.3402591943740845,0.37570619583129883,-0.6023834943771362:1.3614860773086548,0.42754897475242615,-0.664442777633667,-0.5779189467430115,1.1004232168197632,0.1808343231678009,0.4724220335483551,-2.8394370079040527,0.6754587292671204,-0.13647238910198212:-0.024908743798732758,0.9309843182563782,-1.737065076828003,0.9283085465431213,-1.383979082107544,-0.2916179597377777,0.3861216604709625,0.5331507325172424,0.11768635362386703,0.5411790013313293:-2.425858497619629,1.2224138975143433,-1.2714780569076538,0.841789960861206,-0.24756518006324768,0.7681589722633362,-0.8240968585014343,1.316087245941162,0.3004670739173889,0.31992849707603455:-0.27215656638145447,0.04847598448395729,-1.1213135719299316,0.2583286464214325,1.0358036756515503,-0.5692951083183289,-0.2612656056880951,0.6279906034469604,-0.10100167989730835,0.3543280363082886:-0.13864046335220337,0.9062241315841675,-0.6617652177810669,-0.3885645866394043,-0.5346338152885437,-1.2763844728469849,0.5879870653152466,0.2780672311782837,0.8249275088310242,0.4027256965637207:-0.3675641417503357,-0.044571056962013245,-1.4144835472106934,0.06497407704591751,0.15841935575008392,-1.0833806991577148,-0.2730308771133423,1.6312463283538818,0.0051361750811338425,1.3232229948043823:-0.3244260847568512,-0.43731334805488586,0.7999728918075562,0.21694256365299225,1.0412960052490234,-0.9543322920799255,-1.4266407489776611,-0.7586843371391296,0.9193461537361145,0.923883855342865:0.6767783164978027,-1.1020746231079102,0.07447012513875961,0.23593956232070923,-0.3489059805870056,0.04338676109910011,0.01829385943710804,-0.3980865776538849,0.6069332361221313,0.19338993728160858:-0.9975603818893433,0.12279997766017914,0.9190435409545898,-1.2445974349975586,1.9149487018585205,-1.9838191270828247,-0.3952898383140564,-0.13098309934139252,0.3071236312389374,1.488513708114624:-0.7492309212684631,0.04716884717345238,0.1341942548751831,-0.9429884552955627,0.06584877520799637,-1.8809988498687744,0.9632206559181213,0.3646930456161499,1.1289088726043701,0.8693543076515198:0.32435792684555054,0.9812873601913452,-1.6648280620574951,-2.274604082107544,0.4301198720932007,-2.6400394439697266,0.908434271812439,1.088971734046936,0.5833225846290588,2.2631053924560547:2.0504746437072754,0.12075512856245041,0.26205089688301086,-2.9461939334869385,2.4670116901397705,-4.898870944976807,1.8733596801757812,-0.9589665532112122,1.9441100358963013,0.08634134382009506:-0.19206799566745758,-1.3667759895324707,0.25970062613487244,0.6482600569725037,-0.12255322933197021,0.7646070122718811,1.6245490312576294,0.2553752064704895,-0.7209468483924866,-1.1501773595809937:0.7897219061851501,-7.440515041351318,2.334394693374634,-0.16341961920261383,0.8541877865791321,2.5747792720794678,-0.46121785044670105,0.8479340076446533,1.0017673969268799,-0.3376154899597168:-0.9281875491142273,3.633225202560425,-1.7956792116165161,-0.07539201527833939,-0.97663414478302,-1.405572533607483,-0.15612713992595673,2.5002923011779785,-0.7768260836601257,-0.01909066177904606:0.031400103121995926,0.03675619885325432,-0.014913283288478851,-0.031106101348996162,0.015455675311386585,-0.037081409245729446,0.028044357895851135,0.036554284393787384,-0.05702809989452362,-0.008074050769209862:2.624695062637329,0.0934065654873848,-0.039943814277648926,-1.6294171810150146,2.737816572189331,-0.09932110458612442,0.07486827671527863,-2.422443389892578,-0.1527451127767563,-1.1869028806686401:-0.4328390955924988,0.17454278469085693,-0.10955286771059036,-0.902498722076416,0.3258276581764221,-0.24001531302928925,0.125289186835289,1.1270973682403564,-0.3570846915245056,0.2892712950706482:2.6165006160736084,0.18647566437721252,0.5199836492538452,0.09373855590820312,-1.7205442190170288,-1.0332084894180298,-0.5225589871406555,0.3432075083255768,0.5386250019073486,-1.0222141742706299:2.1999826431274414,0.6943034529685974,-3.3822126388549805,-0.9668028354644775,0.8479924201965332,0.11802666634321213,0.4797664284706116,0.040041856467723846,-1.0595016479492188,1.0284271240234375:0.2312350571155548,-1.2428176403045654,-0.244099959731102,0.9971104860305786,-0.24709492921829224,0.6052266359329224,1.0201503038406372,-0.6832814812660217,-0.3571072220802307,-0.0793151780962944:-0.4887915849685669,0.8624370098114014,-1.2490594387054443,-0.5721043348312378,-0.008204224519431591,-1.549005150794983,1.834662914276123,1.3798167705535889,-0.20591048896312714,-0.003841484896838665:0.45051681995391846,-0.12953326106071472,-2.730095624923706,0.6270815134048462,0.6834923028945923,1.6125807762145996,-1.149902582168579,-0.25943657755851746,0.22029098868370056,0.6750270128250122:-0.07094977796077728,-0.07122660428285599,-0.019252968952059746,0.015805130824446678,-0.3441198766231537,-0.44916343688964844,-0.1905384212732315,0.10290311276912689,0.1689174473285675,0.8576459288597107:0.11232487112283707,0.995233416557312,-1.4270869493484497,0.35057199001312256,0.4997406601905823,0.5352302193641663,-0.36253267526626587,-0.36470282077789307,-0.20798708498477936,-0.1307688057422638:1.0917366743087769,-1.642059326171875,0.5143454074859619,-0.6409109234809875,1.197707176208496,-0.3643876016139984,0.9444616436958313,0.2951362729072571,-1.0381592512130737,-0.35781481862068176:0.7061597108840942,-0.8547987341880798,-0.5153277516365051,-0.5760753750801086,1.1293597221374512,0.5117340683937073,-1.4120371341705322,0.3181764781475067,0.8988615274429321,-0.20601247251033783:0.6385064125061035,-0.2619974613189697,-0.3250676989555359,0.3004198968410492,1.7105753421783447,1.039243459701538,1.030076026916504,-3.3443851470947266,-0.08120689541101456,-0.7061854004859924:-2.897841453552246,0.8656708002090454,0.7206133008003235,0.837689220905304,-1.2435555458068848,0.5379122495651245,0.4706343412399292,-1.2749942541122437,1.5026729106903076,0.481061726808548:-0.8521943688392639,1.2181626558303833,1.127495527267456,0.5623220801353455,0.25372394919395447,-0.5779616236686707,-1.6635724306106567,0.18817943334579468,-0.29454559087753296,0.03819830343127251:-1.9816062450408936,0.2605637311935425,-0.8823877573013306,-0.491346538066864,1.8546913862228394,-0.6649097800254822,-0.6397300958633423,0.228254497051239,1.0156869888305664,1.3006166219711304:-0.653590738773346,0.09205333143472672,-1.024303674697876,0.20241986215114594,0.2135295569896698,-0.2712380886077881,0.6196150779724121,0.1902068704366684,0.022510580718517303,0.6087140440940857:-0.42233508825302124,0.2664589583873749,0.004607006907463074,0.12701988220214844,0.8537400960922241,-0.724908173084259,-1.4505378007888794,0.6336622834205627,-0.09130273759365082,0.8035817742347717:1.202772855758667,-0.547586977481842,-0.6966136693954468,0.5413649678230286,0.21269327402114868,-0.2983344793319702,-0.9658602476119995,-0.18603461980819702,0.49445024132728577,0.24316971004009247:0.14851415157318115,-0.5553945899009705,-1.0579488277435303,-0.4891967177391052,-0.06804938614368439,0.5750992894172668,0.9329010844230652,-0.6608409285545349,-0.3242383599281311,1.4992567300796509:-2.0402166843414307,0.8090236783027649,-0.5786893367767334,-0.20762687921524048,1.0395587682724,-0.33748167753219604,-1.0731110572814941,0.4365233778953552,1.7188973426818848,0.23328149318695068:-0.27212175726890564,0.24558566510677338,-0.6984670758247375,-1.1509404182434082,0.5903845429420471,-0.4077818989753723,1.569146990776062,-0.1554691195487976,-0.6902285814285278,0.9700887799263:0.9474170207977295,-0.790468156337738,-0.5522969961166382,-2.5986759662628174,-0.029615771025419235,0.010604415088891983,0.773434579372406,0.6729258894920349,1.2976067066192627,0.2692616581916809:1.6804323196411133,-0.13021108508110046,0.3646712601184845,-0.8373870253562927,-0.20788241922855377,-0.06949642300605774,1.6306967735290527,-2.2091333866119385,0.3939172327518463,-0.6154576539993286:-0.5129688382148743,0.4265635013580322,1.7995200157165527,-1.1725671291351318,-1.110945224761963,-0.9477595090866089,0.281168669462204,1.3741239309310913,-0.06574302166700363,-0.07132109254598618:0.28423047065734863,-0.3267309069633484,0.12818367779254913,-0.021411066874861717,0.8687066435813904,-0.4436452090740204,-0.028603512793779373,0.6809528470039368,-0.9233638048171997,-0.21835337579250336:-0.7021385431289673,-3.1018033027648926,1.7456153631210327,-0.1775776594877243,0.1273195743560791,-0.5006073117256165,0.41077569127082825,0.6306812167167664,0.8278005123138428,0.7399152517318726:0.05694950744509697,-1.3760607242584229,2.9614248275756836,-0.05626048892736435,0.028018442913889885,-0.5356394052505493,1.4599812030792236,-1.4439152479171753,-1.0802884101867676,-0.01419264916330576:0.0313832052052021,0.034866612404584885,-0.014913268387317657,-0.04841700568795204,0.015412474051117897,0.5217286348342896,0.02744900807738304,0.03808034583926201,-0.05702805146574974,-0.5485519170761108:-2.0113885402679443,-0.8533088564872742,-0.029546981677412987,2.5836050510406494,1.2824002504348755,-0.07255997508764267,0.054870810359716415,0.5271392464637756,-0.11159045994281769,-1.3696428537368774:-1.4003630876541138,0.07877511531114578,-0.8318726420402527,-1.2806841135025024,-3.0544865131378174,-0.16619567573070526,0.12568773329257965,3.4410696029663086,-0.2555939853191376,3.343644857406616:-1.4900238513946533,0.8648533225059509,-0.4016696810722351,0.39123889803886414,0.6107946634292603,0.8536418080329895,-0.054691921919584274,-0.4588150084018707,-0.1010470911860466,-0.21427606046199799:-0.894596517086029,0.07715783268213272,0.6004859209060669,-0.5199408531188965,0.7912678718566895,0.31531471014022827,-1.1314460039138794,0.9676884412765503,-0.3417518138885498,0.13583222031593323:0.20690838992595673,0.38638773560523987,-2.441343307495117,-1.7605576515197754,1.0751128196716309,-0.22307012975215912,0.17108647525310516,1.1423327922821045,0.8128628730773926,0.6303259134292603:0.7853260040283203,0.2363119274377823,-0.8157111406326294,-2.120523452758789,1.3200640678405762,0.3796560764312744,-0.40077918767929077,-0.6253119707107544,0.8255968689918518,0.4154399037361145:2.2023062705993652,-0.9499529004096985,1.8177794218063354,-1.183529019355774,1.188844919204712,-0.9025318026542664,-0.6723462343215942,0.3624202311038971,-1.5867770910263062,-0.2761225402355194:-0.5200960636138916,0.48185625672340393,-0.0476401150226593,0.030130872502923012,1.2940948009490967,0.222991481423378,0.12299132347106934,-0.083545982837677,-0.7582523822784424,-0.7424646615982056:1.2940067052841187,-0.7563579082489014,-1.1304436922073364,-0.09997320920228958,0.3504590094089508,0.4218853712081909,0.8307622075080872,-0.7815192341804504,-0.47235652804374695,0.34359151124954224:-2.0219321250915527,-0.9911007881164551,0.2589348554611206,-0.4255625605583191,0.5226314663887024,1.1826682090759277,1.070611834526062,-0.10519474744796753,-0.02273041009902954,0.5316992402076721:0.6943161487579346,-0.9716394543647766,-0.2532638907432556,-0.6653026938438416,0.45893460512161255,-0.06416508555412292,1.7078527212142944,-1.2628371715545654,0.5459740161895752,-0.1898651272058487:1.4008187055587769,0.5614211559295654,0.25143730640411377,0.9173619747161865,1.1667810678482056,-0.5883327126502991,-1.2981418371200562,-2.204878568649292,0.5224353671073914,-0.7289668321609497:-0.42026060819625854,-0.19844502210617065,-0.055347345769405365,0.16909757256507874,-0.8270479440689087,-0.07104676216840744,0.5823207497596741,-0.10180506110191345,0.003788616508245468,0.9185922741889954:-3.0943329334259033,0.9145418405532837,0.8042749166488647,0.7379153966903687,0.6557942628860474,0.4045768976211548,-1.4644380807876587,-0.7855409383773804,1.194760799407959,0.6322686076164246:0.0026753246784210205,0.6371704339981079,-0.5790318250656128,0.33856865763664246,-0.02610924281179905,-0.36094531416893005,1.204749345779419,-0.6211829781532288,-0.05560643970966339,-0.5404216647148132:-2.7255563735961914,0.8101303577423096,0.014531319960951805,-0.2534715533256531,0.9421756863594055,-1.5173397064208984,0.4468204081058502,1.3713507652282715,0.33697012066841125,0.5743402242660522:-0.6806586980819702,-0.18283139169216156,-1.349122166633606,0.7787935137748718,1.3597270250320435,-0.40093210339546204,-1.5541648864746094,0.40696972608566284,0.5928673148155212,1.0293716192245483:-0.34409573674201965,-0.9931163191795349,0.5674729347229004,-0.4461856186389923,-0.38978326320648193,-0.34300336241722107,0.6644432544708252,1.226266860961914,0.01570967584848404,0.0423179566860199:-0.5651144981384277,-0.3150007426738739,-0.4274151027202606,-1.0118002891540527,1.3422774076461792,-0.9569789171218872,-0.10476444661617279,2.2421271800994873,-0.35548681020736694,0.15224432945251465:1.131109356880188,-0.11982384324073792,0.5458573698997498,-1.3315086364746094,-0.011018731631338596,-0.4196459650993347,-0.17294064164161682,1.1876702308654785,-1.748207449913025,0.9386733174324036:1.8683017492294312,-0.646424412727356,-0.0073167383670806885,-0.3764568567276001,0.35409197211265564,0.331726998090744,0.1245567798614502,-1.128874659538269,0.1992834210395813,-0.7187008857727051:0.17046411335468292,-1.1076191663742065,0.08528933674097061,0.4638299345970154,0.981843888759613,0.6002647876739502,0.3011813461780548,0.1478492021560669,-2.176682472229004,0.533749520778656:0.17777273058891296,0.20026551187038422,1.0337326526641846,0.9039381146430969,-0.993498682975769,-0.03245089575648308,0.8474352955818176,1.3099253177642822,-2.496729850769043,-0.9502422213554382:-0.256054162979126,0.2807723879814148,-0.5591931939125061,0.46696704626083374,0.498884379863739,1.4129149913787842,0.5936578512191772,-0.7314472794532776,-0.06033472344279289,-1.6460936069488525:-0.6421622633934021,-0.24075694382190704,0.673778772354126,-0.8397960662841797,0.32455208897590637,-1.83977210521698,0.7458115220069885,-0.21051163971424103,1.507988691329956,0.5208396911621094:0.18948620557785034,0.40756866335868835,1.1105135679244995,-0.19039133191108704,0.33608439564704895,-0.8366984128952026,-0.17417563498020172,-1.650201439857483,0.09061018377542496,0.7171990871429443:0.05372361093759537,0.059678636491298676,1.107155203819275,-0.0530734620988369,0.026443110778927803,-0.06344391405582428,-1.0846855640411377,0.0651741623878479,-0.09757212549448013,-0.013388675637543201:0.03667301684617996,0.04074304178357124,-0.01742558740079403,-0.05333978682756424,0.017997948452830315,0.04609883204102516,0.0321839340031147,0.5041647553443909,-0.06663568317890167,-0.5404541492462158:0.03222033381462097,-2.318150281906128,-0.015303784981369972,2.4413158893585205,2.5170178413391113,-0.038052551448345184,0.02877863310277462,-2.580171823501587,-0.05852139741182327,-0.009100162424147129:-0.13867875933647156,0.6042963266372681,-0.7542064189910889,0.6943926811218262,2.305234909057617,-0.16980785131454468,0.12810339033603668,-0.5375858545303345,-0.26050224900245667,-1.87123703956604:-0.3978500962257385,-0.3643544912338257,0.216470405459404,-0.3494662344455719,0.4294127821922302,-1.0989998579025269,-0.2740671932697296,1.3753182888031006,-0.05184365436434746,0.5153849124908447:0.7477894425392151,0.7562312483787537,1.5196149349212646,-1.0869632959365845,0.46453043818473816,-0.09415163099765778,-1.5899970531463623,-0.038417667150497437,-0.4327008128166199,-0.245906263589859:0.301013708114624,-0.49806708097457886,1.5052080154418945,0.07423626631498337,-0.009968011640012264,-0.9958897829055786,-0.6989468336105347,-0.492440789937973,-0.14797082543373108,0.9629024267196655:-1.9362636804580688,-0.17840531468391418,0.8899024724960327,0.5492395758628845,0.9551798105239868,0.0669821947813034,0.42943641543388367,0.49469509720802307,-0.952986478805542,-0.3176674544811249:1.7272475957870483,0.3036751449108124,-1.8485255241394043,-0.6118314266204834,0.20312736928462982,-0.5179488658905029,1.1795412302017212,-0.17337271571159363,-0.7885463237762451,0.526750385761261:0.2711484730243683,0.013672186061739922,-0.3566328287124634,-1.059407114982605,0.24338462948799133,0.06648977845907211,0.6181119084358215,-0.42492201924324036,-0.36641737818717957,0.994701623916626:0.7971705794334412,-0.6201008558273315,0.8543654084205627,-0.7230561971664429,0.19682994484901428,0.48862192034721375,0.23248495161533356,-1.2947677373886108,0.49566975235939026,-0.4271235764026642:1.964841365814209,-1.6244587898254395,-0.4835112392902374,-0.022208532318472862,0.8116300106048584,-0.32775500416755676,0.806938648223877,-0.7726256251335144,-0.385538786649704,0.032747019082307816:-1.4392070770263672,-0.226485937833786,0.6049395799636841,-0.22598816454410553,0.6191830039024353,0.44128087162971497,-0.21466763317584991,-0.025573279708623886,-0.17609117925167084,0.6426112651824951:0.8684202432632446,0.4844633638858795,-0.736765444278717,-0.09981978684663773,-0.2393549531698227,0.8680430054664612,1.1195231676101685,-1.7833853960037231,0.14888782799243927,-0.6300841569900513:-1.6607095003128052,1.011252522468567,0.6910132765769958,0.10092630237340927,-0.15386047959327698,-0.2282361388206482,0.15205883979797363,-0.7756280899047852,0.7064151167869568,0.1566333770751953:-2.0004281997680664,1.872822642326355,0.2910681664943695,-0.06264731287956238,0.037592217326164246,-1.367488980293274,2.460505247116089,-1.1218682527542114,1.1551779508590698,-1.2648708820343018:-1.5521496534347534,0.21052688360214233,-0.2354448288679123,0.22169923782348633,0.9623289704322815,-0.7553410530090332,-0.9634095430374146,0.3793494701385498,-0.14830127358436584,1.8806464672088623:-0.6026092767715454,1.306776523590088,0.1697331815958023,0.15957872569561005,1.0680898427963257,0.03706703335046768,-0.2005731761455536,-1.8913242816925049,-0.06138944253325462,0.014624027535319328:-0.038202960044145584,-0.4349943697452545,-1.3751312494277954,-0.2537723779678345,1.0881881713867188,-0.13412024080753326,0.18513360619544983,1.7932287454605103,-1.21979820728302,0.38944995403289795:0.27510973811149597,-1.6001405715942383,-0.38103368878364563,-1.3365514278411865,-0.09122176468372345,1.756895899772644,0.28856712579727173,0.6566537022590637,0.26345381140708923,0.16829325258731842:-0.13273613154888153,-1.280125617980957,-0.20867742598056793,-0.15563879907131195,1.318943738937378,0.35885685682296753,-0.4219292104244232,-0.7877917289733887,0.19624362885951996,1.112980604171753:-0.0993889570236206,-1.9414159059524536,-0.49985530972480774,1.3186405897140503,-0.8942744135856628,0.27347084879875183,0.3698318302631378,0.899623692035675,0.3961014747619629,0.17742210626602173:0.3985101282596588,-1.0386180877685547,-0.6490498781204224,0.8406211137771606,-0.6876258850097656,-0.40473058819770813,1.246492862701416,1.2110360860824585,-0.6712461709976196,-0.24520167708396912:-0.49102118611335754,0.5149016976356506,-0.252052366733551,0.10627157986164093,1.5583707094192505,-0.8611271381378174,-0.8995687365531921,0.4643348753452301,0.07534133642911911,-0.21527613699436188:0.11421225219964981,0.14786414802074432,-1.714430570602417,0.6012163162231445,0.07349246740341187,0.40792298316955566,0.48556673526763916,1.1683385372161865,-0.4078659117221832,-0.8761941194534302:1.8005491495132446,-0.3385770916938782,2.08210825920105,0.17103073000907898,-2.0183043479919434,1.636826992034912,0.11527304351329803,-0.9468430280685425,-0.3876952528953552,-2.1143319606781006:0.491305410861969,-0.24307364225387573,0.23504318296909332,-1.9451791048049927,-0.0964324101805687,0.5947234034538269,0.5512937307357788,0.2575467824935913,-0.13858632743358612,0.2933635115623474:0.22672142088413239,-1.0211145877838135,0.8990180492401123,0.2922292947769165,0.3686123192310333,-0.2893357574939728,0.026598917320370674,0.21471577882766724,-1.2684828042984009,0.5510593056678772:0.07005036622285843,0.07783791422843933,0.13862667977809906,-0.0692230686545372,-0.13733792304992676,-0.08274932950735092,0.06258208304643631,0.08500473201274872,-0.12726160883903503,-0.01751837134361267:0.03139941021800041,0.0348803848028183,-0.01491329725831747,-0.03102015145123005,0.0153532475233078,-2.5097367763519287,0.028044449165463448,2.510830879211426,-0.05702800676226616,-0.007825572043657303:0.0515885055065155,-0.009712438099086285,-0.024518242105841637,0.35432538390159607,-0.06267035007476807,-0.06092406436800957,0.046075206249952316,-0.1875607669353485,-0.09370724856853485,-0.01288706436753273:0.1641332358121872,0.963602602481842,-0.6446353793144226,1.0203263759613037,-1.5434070825576782,-0.3823440670967102,0.14838823676109314,0.5218181610107422,-0.30174851417541504,0.05387355387210846:0.18210361897945404,-0.5084521174430847,0.5698347687721252,0.3169003129005432,0.1397443562746048,0.9188894033432007,-0.21846070885658264,-1.4820632934570312,0.8433926701545715,-0.7618678212165833:0.006478909403085709,0.6128714680671692,-0.5447121262550354,1.3898441791534424,-0.6279200315475464,-0.9295151829719543,0.7989833950996399,0.9373023509979248,-1.9383549690246582,0.29506170749664307:1.5999605655670166,-0.1341477930545807,0.22873076796531677,-0.39220181107521057,-0.13639506697654724,-0.17208687961101532,0.3894692361354828,-0.8734686374664307,-0.17427802085876465,-0.335467129945755:-0.07609939575195312,0.7140296101570129,0.7911786437034607,-0.4931213855743408,-0.3085595965385437,-1.1854227781295776,1.0555493831634521,0.11517367511987686,-0.6020238399505615,-0.01055175717920065:0.2213049679994583,0.16202597320079803,0.47310513257980347,-0.11562231183052063,0.43557703495025635,-1.4108725786209106,0.013854354619979858,0.5300755500793457,0.3216535747051239,-0.6309210062026978:1.5721216201782227,-1.4022822380065918,-0.5281038284301758,-1.756726861000061,1.4988123178482056,-1.5791743993759155,1.079332709312439,-0.09085303544998169,0.2164578139781952,0.9905806183815002:0.6272867321968079,-0.39938482642173767,0.2941272258758545,0.7327890396118164,-0.24464328587055206,-0.2530607581138611,1.120013952255249,-0.4464145302772522,-0.5247490406036377,-0.9058282971382141:0.21113552153110504,-0.46710771322250366,0.14482682943344116,-0.10809130221605301,0.37204664945602417,0.08992919325828552,-0.9679111838340759,-0.11820308119058609,0.5091251134872437,0.3343314528465271:0.28019213676452637,0.8539416790008545,0.04936651512980461,0.2043853998184204,-0.2353365421295166,-0.8585003614425659,2.0376791954040527,-2.754045248031616,0.042905502021312714,0.3794029951095581:-0.28953084349632263,-0.514755368232727,1.1108001470565796,-0.3680934011936188,0.6045064330101013,-0.6969830393791199,-0.004599280655384064,-0.17070776224136353,1.0479366779327393,-0.7186031937599182:-2.3083691596984863,-0.15795040130615234,0.5988218188285828,1.8642652034759521,-0.09198056161403656,0.20982569456100464,-0.7366135120391846,0.376377671957016,0.19565799832344055,0.04989081621170044:-1.9798963069915771,0.8942058682441711,1.3918824195861816,0.5126411318778992,0.9992554783821106,-0.673888087272644,0.1952287256717682,-1.6330163478851318,0.11712463200092316,0.17638137936592102:0.6919651627540588,-1.4011825323104858,-0.5443608164787292,0.2059601992368698,1.4356756210327148,-0.03112296387553215,-0.2859005928039551,0.4795701205730438,0.08736364543437958,-0.6380522847175598:-1.6589014530181885,0.19592903554439545,0.476840615272522,-1.296087384223938,1.390895128250122,-1.0965205430984497,0.8398136496543884,0.1213577389717102,-0.003131398931145668,1.0297772884368896:0.49565812945365906,-2.1458404064178467,2.2514333724975586,-0.6581034064292908,0.5107529163360596,-0.446391224861145,-1.1797128915786743,0.4202910363674164,-0.014694727957248688,0.766591489315033:-1.1202194690704346,-0.18937353789806366,-0.6891310811042786,0.9515597224235535,0.3687717318534851,-1.079276442527771,-0.35470280051231384,1.5627530813217163,0.4091027081012726,0.14056836068630219:-0.2585269510746002,-1.3624401092529297,-0.14828497171401978,1.2206276655197144,1.1623499393463135,0.13512137532234192,0.3444809913635254,0.6035342216491699,-1.4022098779678345,-0.29453328251838684:0.5205385088920593,-0.28099480271339417,-0.755591630935669,0.9829135537147522,0.6838523745536804,0.4688105285167694,-1.038537621498108,0.40753796696662903,-1.219059705734253,0.23070187866687775:-0.35704004764556885,0.05169079080224037,1.1700249910354614,-0.22771474719047546,1.1473032236099243,-0.6045656800270081,0.4841682016849518,-0.15232309699058533,-0.7058225870132446,-0.8055406808853149:-0.3965505063533783,0.26146483421325684,0.11609843373298645,-0.1448614001274109,-0.898100733757019,1.850687026977539,-0.07880576699972153,-0.24489107728004456,-1.515323281288147,1.0504412651062012:-0.2238200306892395,-0.25692200660705566,0.4586576521396637,0.34213873744010925,0.2967090606689453,-0.25652143359184265,-1.0152052640914917,-0.08248617500066757,0.8784619569778442,-0.1409170776605606:0.16558648645877838,1.3820126056671143,0.3451690673828125,1.7207105159759521,0.2513730525970459,-1.3853397369384766,-0.49509796500205994,-0.06734723597764969,-1.0497658252716064,-0.8672392964363098:-0.30275267362594604,-1.5050119161605835,0.8336177468299866,-1.3825414180755615,1.216237187385559,0.41992178559303284,1.275587558746338,-0.7181747555732727,0.8731013536453247,-0.7099767923355103:-1.5172672271728516,1.8353122472763062,1.2677688598632812,-0.26298341155052185,-0.3758236765861511,-1.3797518014907837,0.3964039385318756,-0.4463108479976654,-0.6985949873924255,1.1812524795532227:-1.3959788084030151,0.0763801708817482,1.742790699005127,-0.06792671978473663,-0.27687597274780273,-0.08119957149028778,0.06141047179698944,0.08341415971517563,-0.12487862259149551,-0.01713576167821884:0,0,0,0,0,0,0,0,0,0:-1.5627738237380981,1.5770772695541382,-0.04775116592645645,-0.31337258219718933,0.011729682795703411,-0.08227576315402985,0.06135853752493858,0.5001023411750793,-0.12479636073112488,-0.019270120188593864:0.009698928333818913,-0.6729937791824341,0.6055856347084045,-0.5385138988494873,2.0758676528930664,-0.5791410207748413,0.17445822060108185,-0.47564852237701416,-0.3547946512699127,-0.24450312554836273:-0.1642829030752182,-0.820841908454895,0.5864774584770203,-0.5935951471328735,-0.7815936803817749,0.19278866052627563,-0.016059335321187973,0.44182899594306946,0.39694663882255554,0.758344829082489:-0.20842373371124268,0.2596103250980377,0.04269064962863922,0.6465137600898743,0.09268633276224136,0.9094057679176331,-1.4321885108947754,0.02306598797440529,0.9323738813400269,-1.2656701803207397:-0.14108726382255554,-0.22441783547401428,0.0835132747888565,-0.09270448982715607,-0.49460193514823914,-0.4498128890991211,1.394269347190857,0.3595633804798126,-0.4178084433078766,-0.0167851485311985:0.7117456793785095,0.19413301348686218,0.6693729162216187,-1.0557302236557007,0.5027385950088501,1.5788333415985107,-1.0787309408187866,0.1326655000448227,-0.11956950277090073,-1.5352668762207031:0.37780046463012695,-0.22727817296981812,-0.1344074010848999,0.8745713233947754,0.6341301798820496,-0.9942983388900757,-1.4442346096038818,-0.4806695878505707,0.30188024044036865,1.0927112102508545:-0.9859259128570557,0.413116991519928,0.6092044711112976,-0.7163661122322083,-0.114712655544281,0.2139739990234375,1.3318730592727661,-0.6736078262329102,-0.19163167476654053,0.11426401138305664:0.14970234036445618,-0.4935818910598755,0.46944689750671387,-1.8096411228179932,0.22808966040611267,-0.9502652287483215,0.9764236211776733,0.903569221496582,0.5384733080863953,-0.01207062415778637:1.0096526145935059,0.9274744987487793,1.2288166284561157,-1.4294354915618896,-0.6321006417274475,-0.6095382571220398,2.071915864944458,-2.614027738571167,-0.651555061340332,0.6988890767097473:-0.5243489742279053,-0.5573801398277283,0.2275771051645279,-0.44754788279533386,0.019326770678162575,0.3583413362503052,1.987898826599121,-0.5011521577835083,0.4390319585800171,-1.0017238855361938:-0.3425997197628021,0.6043944954872131,0.192837655544281,-0.25049248337745667,-0.515221357345581,-1.0295519828796387,-0.1678442656993866,0.5111355185508728,0.34190434217453003,0.6554311513900757:-1.227264165878296,1.4887489080429077,0.9934424757957458,-0.9940966367721558,0.7901194095611572,-1.7584773302078247,0.27230846881866455,0.029819125309586525,0.18915590643882751,0.21618467569351196:-0.8009171485900879,1.2497440576553345,0.22341015934944153,-1.354191541671753,0.5470564961433411,-0.9953717589378357,1.091278314590454,0.5579302310943604,0.09493038803339005,-0.6139068603515625:-1.1722081899642944,-0.008678548038005829,1.250128984451294,-1.168047308921814,0.5737777352333069,-0.35960233211517334,0.048145562410354614,0.265218049287796,-0.4872001111507416,1.0584192276000977:-0.07459016144275665,-0.2580205798149109,0.4779885709285736,-0.10319463163614273,0.5281524062156677,-0.0678781121969223,-0.3175216317176819,-0.40689778327941895,0.6081932783126831,-0.386240690946579:0.7731780409812927,-1.9590437412261963,-1.3926184177398682,1.0150048732757568,1.2141610383987427,0.5896508693695068,0.09180231392383575,-0.5131754875183105,0.029632240533828735,0.15142863988876343:-0.9048264026641846,-0.055367596447467804,-0.11746387928724289,-0.20914340019226074,0.6252840161323547,1.118976354598999,0.8424652218818665,-0.015446159988641739,-1.5377092361450195,0.25332847237586975:0.28547659516334534,-0.31829243898391724,-0.7937816977500916,1.0811225175857544,-0.7857289910316467,0.58924800157547,0.42849087715148926,-0.8632772564888,0.6512416005134583,-0.27435752749443054:1.4384112358093262,-0.3325253129005432,-0.09261758625507355,-1.5909039974212646,-0.3838598132133484,-0.6006960272789001,0.32580384612083435,2.7318952083587646,-0.3284531533718109,-1.1668912172317505:-0.8636866807937622,-0.1581381857395172,0.047266885638237,0.30521583557128906,0.48951658606529236,1.2796860933303833,1.097534418106079,-2.0346391201019287,0.6564821004867554,-0.819068193435669:0.7447211146354675,0.05451427027583122,-0.6665884852409363,0.05077088251709938,0.39565420150756836,-1.0995957851409912,0.4640517830848694,0.9731603860855103,0.3641752600669861,-1.280738353729248:0.09308111667633057,-0.14986923336982727,0.04596750810742378,0.18282383680343628,0.0784616619348526,0.2266380935907364,1.0324865579605103,-1.5378063917160034,-0.6399405002593994,0.6682263612747192:-0.5926884412765503,0.029361264780163765,-0.38983798027038574,-0.5519617795944214,-0.6848627924919128,0.6710904836654663,-0.010871692560613155,1.0118151903152466,1.5630401372909546,-1.0450676679611206:1.388947606086731,-0.7293569445610046,1.3188949823379517,-1.8134690523147583,-0.13291914761066437,-0.2637366056442261,0.2455231100320816,0.6487100720405579,-0.9589540362358093,0.2963710427284241:-6.585480213165283,1.8804432153701782,2.0586464405059814,-0.2730203866958618,0.8655152916908264,0.5514633059501648,-0.02740064263343811,1.2132236957550049,0.38590285181999207,-0.0692688524723053:5.761597633361816,-7.829028606414795,2.0921549797058105,-0.08138623088598251,0.9923283457756042,-0.09729655832052231,-0.7682173848152161,0.09994165599346161,-0.14962276816368103,-0.020531192421913147:0.04542464017868042,-1.7166496515274048,-0.021574275568127632,-0.13840939104557037,0.01401891652494669,-0.05364902690052986,0.040570467710494995,1.2096341848373413,-0.08250126242637634,0.7031323909759521:-2.304886817932129,-3.0909764766693115,-0.02693808078765869,2.7595231533050537,0.024048013612627983,-0.057978369295597076,0.043634772300720215,2.7550156116485596,-0.08873523026704788,-0.012703937478363514:-0.16181398928165436,-0.4546044170856476,-0.5462625026702881,1.2936233282089233,-0.285527765750885,-0.8026614189147949,0.2288365364074707,0.8194392323493958,-0.46540555357933044,0.3743869662284851:-0.07888519018888474,-0.21879760921001434,1.2831406593322754,0.47031286358833313,-0.10383789986371994,0.17013902962207794,0.8532602787017822,0.4277869164943695,-3.0706005096435547,0.2674970328807831:0.051488813012838364,-0.5137641429901123,0.6473476886749268,0.13206954300403595,-0.02962888777256012,0.1126043051481247,1.0748400688171387,-0.1625223159790039,-0.34179672598838806,-0.9705692529678345:-0.5875515341758728,-0.8713504672050476,2.245833158493042,1.0103944540023804,-0.1882670372724533,0.46318790316581726,-1.2870266437530518,-0.21867287158966064,0.7406857013702393,-1.3071041107177734:-0.036164648830890656,-1.9251307249069214,0.7609493732452393,1.0536340475082397,0.25276416540145874,0.18821686506271362,-0.06309494376182556,-1.4914939403533936,0.27227380871772766,0.9882411360740662:-0.65282142162323,-1.433030366897583,1.7101452350616455,-1.0217417478561401,0.2302015721797943,-0.09712828695774078,2.491935968399048,0.2133007049560547,-0.5495502352714539,-0.8910885453224182:2.0715458393096924,-0.8617153167724609,-0.05584878474473953,-0.3804478049278259,0.17575760185718536,-0.575076699256897,-0.32940196990966797,-0.21342909336090088,0.5457442402839661,-0.3769175410270691:1.1817032098770142,-0.407490074634552,-0.7174711227416992,-0.5671505928039551,0.7812415361404419,-0.06088032200932503,-0.13945041596889496,-0.2543824017047882,0.5835480690002441,-0.3995024561882019:1.034706711769104,-0.9814078211784363,1.2468132972717285,-0.6413112282752991,-2.1931867599487305,0.6588684916496277,0.19741828739643097,-0.7491827011108398,0.7697340846061707,0.6576213240623474:0.08456975966691971,-0.15982653200626373,0.6492690443992615,-0.4986262321472168,-0.17084290087223053,-0.3032187819480896,-1.2273184061050415,0.3907857835292816,0.20953518152236938,1.0257071256637573:0.659085214138031,-0.23963966965675354,1.6016627550125122,-1.7856578826904297,1.126244306564331,-0.10587580502033234,2.100447177886963,-2.1223936080932617,0.4389256238937378,-1.6727746725082397:-1.9908934831619263,-0.2083997130393982,0.2012864053249359,-0.5176183581352234,0.8491750359535217,-0.5579187870025635,1.6635661125183105,0.16252781450748444,0.5808082818984985,-0.1825595647096634:-1.1633081436157227,1.1649740934371948,0.687593400478363,-0.6260223984718323,0.3672749996185303,1.0109270811080933,-1.9362746477127075,-0.7337411046028137,-0.1702573001384735,1.3987940549850464:-0.1273101568222046,-0.2311665266752243,0.29739683866500854,0.2872427701950073,0.09156692028045654,-0.06981173157691956,0.8059365749359131,-1.314461588859558,0.6828135848045349,-0.4222126305103302:0.38027438521385193,-1.600093960762024,-0.36428868770599365,0.8930835127830505,0.8681568503379822,0.007831603288650513,-0.14378486573696136,0.20533083379268646,-0.9229820370674133,0.6765392422676086:0.17427200078964233,0.7775515913963318,1.0182565450668335,0.1214185282588005,-1.4966834783554077,0.24164004623889923,1.0778939723968506,-0.9030306935310364,-1.0059562921524048,-0.005264187231659889:0.08868385851383209,0.06430509686470032,0.6854528188705444,0.05790095776319504,-0.1347825527191162,-0.900767982006073,-0.22998173534870148,0.635051429271698,-0.06335055083036423,-0.20237427949905396:-0.7791748046875,-0.6003772020339966,0.9706025123596191,0.751969039440155,0.36555996537208557,0.42532408237457275,0.16757790744304657,-0.8017957806587219,-0.5817631483078003,0.08223950117826462:-0.8846561312675476,0.6388975381851196,-0.34843161702156067,1.0790554285049438,0.5642424821853638,-0.3600558340549469,-0.5069745779037476,-0.631422758102417,0.7184175252914429,-0.2689124345779419:0.012529008090496063,-0.7547963857650757,0.44377410411834717,0.7366411685943604,0.4293261468410492,-0.519516110420227,-0.1391269564628601,0.00925116054713726,-0.5006704330444336,0.28272536396980286:-0.6467154622077942,-1.0789375305175781,0.37123939394950867,1.2125362157821655,-1.0541801452636719,1.575006365776062,-0.8333834409713745,0.06184983626008034,0.2373436540365219,0.15533976256847382:0.9564077854156494,-0.8556017875671387,0.37056899070739746,0.3825012445449829,0.7319025993347168,0.4391765892505646,-0.9642852544784546,0.04980374127626419,0.013645472005009651,-1.1240684986114502:0.17709974944591522,1.1577024459838867,0.7641761898994446,-0.1373613476753235,0.5288119912147522,0.03665514662861824,-0.36199966073036194,-1.183785080909729,-0.5360483527183533,-0.44520264863967896:0.5754987597465515,0.2965472638607025,0.5774293541908264,-0.8559064269065857,-1.1604893207550049,-0.7136224508285522,1.245347499847412,-0.6747832298278809,0.9942033886909485,-0.28419846296310425:-0.6911048889160156,0.19281864166259766,0.12272369116544724,-0.2398218959569931,0.31098026037216187,0.1602441966533661,-0.032642923295497894,0.6184893250465393,-0.381003737449646,-0.0606183260679245:-2.894498109817505,4.992701530456543,1.1325029134750366,-0.21945396065711975,-1.484955072402954,-0.0887179896235466,-1.1449463367462158,0.09022115916013718,-0.35239192843437195,-0.030350053682923317:0.031400103121995926,2.4844133853912354,-0.014913246035575867,-2.480534315109253,0.015455740503966808,-0.03708140179514885,0.028044408187270164,0.038092635571956635,-0.057027969509363174,-0.007825394161045551:-0.08198288828134537,-0.0424148365855217,-0.8376224637031555,0.4246695339679718,0.042711012065410614,-0.10247214883565903,0.07749935239553452,0.7006005644798279,-0.1575949490070343,-0.023394335061311722:-0.05319545418024063,0.02964031882584095,-0.1620936244726181,-0.07761429995298386,-0.11512764543294907,0.11852099001407623,0.2720808684825897,0.9065036773681641,-0.5554460287094116,-0.3632511794567108:0.15591531991958618,0.13902592658996582,-0.28034287691116333,0.27912476658821106,1.4374725818634033,-0.9282180666923523,-1.6665093898773193,0.5134633183479309,0.181180939078331,0.16891497373580933:-0.7219123840332031,-0.36924195289611816,-0.02780880592763424,-0.7211383581161499,-0.4272303581237793,0.7292361855506897,-0.057939305901527405,1.669240951538086,-0.017240390181541443,-0.05589713528752327:0.9600372910499573,-2.431647300720215,-0.31897926330566406,0.4465942084789276,1.3778482675552368,-0.09804181009531021,0.2389243245124817,0.13096122443675995,0.013424391858279705,-0.3189985752105713:0.5376916527748108,0.6470212340354919,-0.9602705240249634,-0.7717522382736206,-0.7816506624221802,0.6997376084327698,0.5959837436676025,-1.3330532312393188,0.31277400255203247,1.0536750555038452:0.7640501260757446,1.1877833604812622,-0.10472624003887177,-0.39987021684646606,-0.24331331253051758,0.2090202122926712,-0.2385634183883667,-1.4803996086120605,-0.006366312503814697,0.31258517503738403:0.24153642356395721,-0.435835599899292,0.869255006313324,-0.3458479046821594,-0.6136434674263,0.6886448860168457,-0.31408798694610596,-0.0378439836204052,-0.07072065025568008,0.01874837465584278:-0.15014564990997314,1.3424385786056519,0.8715786337852478,-0.4580100178718567,-1.6989717483520508,-0.20463880896568298,1.4858793020248413,-0.862775981426239,0.5423409938812256,-0.8675325512886047:-0.13835452497005463,0.6659883856773376,0.6106078028678894,0.4410679340362549,-0.5409709215164185,-0.19705402851104736,1.0558613538742065,-2.5909981727600098,1.0336993932724,-0.3397546112537384:0.47602012753486633,-0.2492755800485611,-0.0893603041768074,-1.149259328842163,0.6062113642692566,-0.34723857045173645,